-4.431010744894854 
7.5337266089158605 
-2.975325742344747 
8.818627385784932 
6.8906552300521335 
-2.395123215647617 
-5.98016972162089 
6.889282973862032 
1.9117318731713855 
5.06225326832439 
6.732264152070192 
-8.054970925858155 
7.088989400935605 
2.7284136533455388 
7.297007824914107 
7.8367502399015425 
4.063549157287322 
5.691800525964679 
-4.69855075882518 
7.300249817105396 

-2.6436819874168593 
-0.09681963846568815 
-1.592153325108715 
-1.2189269359454489 
-1.0015885466927332 
-0.7059298041221415 
-2.080177384763362 
-1.6319997145299017 
-0.7063847887480215 
-2.8549004586317874 
-1.0531107644655853 
-1.7941067140376357 
-2.14546232044941 
-1.598394890073812 
-1.09062412837881 
-1.3909881949305094 
-2.6801694083880565 
-0.7582722989086972 
-2.944062402617862 
-0.981784198717296 
-1.9431270156459635 
-2.8055474304910017 
-2.0798352076604267 
-2.5878837709919162 
-1.6983405870565484 
-2.0363059570847595 
-1.8374746186667539 
-1.5437428672054956 
0.33260906342145563 
-2.249389014643256 
-1.8457354181621708 
-0.6796707894963715 
-0.7504187223483958 
-1.2789065247267306 
0.03507161323242769 
-0.5983662726218567 
-2.7114446769760416 
-1.5333669168604933 
-0.16644665234350045 
-1.1668292009014822 

