0.3942575300305208 
0.31040407371784884 
-0.3136468183701974 
0.5679473752536749 
-0.06919707681975254 
0.160023773553088 
-0.7298317847352819 
-0.2581889556728556 
0.9477340993616533 
0.1085580995505951 
-0.6482004754090346 
0.4926316868668862 
-0.30584506678200446 
0.9176310828831222 
-0.037001647281234507 
0.08048270674165746 
0.3847989362449851 
-0.5663040876188777 
0.5466478782134316 
-0.667398391407484 

-0.5860754405864286 
-0.8226982336441111 
-0.47468268346899023 
0.009011978757611974 
0.8293554580603607 
0.08017067504063524 
-0.439552746828383 
-0.8567447830235665 
0.7156233307683249 
0.5933875240180914 
-0.18034810614535793 
-0.5844149512795536 
0.4234421426672007 
0.5974949253898145 
-0.8103416921084584 
-0.08574260127130473 
0.4629791922304105 
-0.5680146087597303 
-0.2115922816559789 
-0.40955484083058535 

-0.41523470492359504 
0.6332366622480795 
-0.16810877146881603 
-0.9203457532262492 
0.5229291746665761 
0.6097869429773547 
-0.03876248607642367 
0.22296642499283448 
-0.78168799456815 
0.05505503315355952 
0.956921272471638 
-0.058732735013220745 
-0.4830641615836053 
-0.95394982825597 
0.9468093080992229 
0.017299516397481625 
0.9195146172111027 
-0.6431791112885702 
0.5653270872340692 
-0.7623313644662153 

0.6411125172559575 
-0.3967107617085751 
-0.14683852746314632 
-0.7418657500115 
-0.8017497614579189 
-0.8949107007089048 
-0.8304252692359335 
-0.14031713972303655 
-0.8653203927475164 
0.18826582910247067 
0.06461392610166161 
-0.8612664262036153 
0.3915952270495544 
0.19860018100173574 
0.391418696022202 
0.9822390069868763 
0.9614751009602057 
-0.596574867829841 
-0.5807494003442087 
0.695122062861862 

-0.6938071877775508 

