-0.07116065855647954 
0.02089671760598138 
0.19816887245064108 
-0.9372576432480727 
0.8284372927955902 
0.2917751493432174 
-0.7820731781648281 
-0.9359919529297891 
0.09616879086171187 
-0.2031941403472165 
0.8956193516520794 
-0.31616949807825717 
-0.27202405016987014 
-0.8807649248296794 
0.8646870103238068 
-0.9086670249848543 
0.8649511015477103 
-0.8401945832474754 
-0.9119147197421665 
0.34101933120811384 
-0.10410618011962013 
-0.33339006003798866 
0.13350206970386655 
-0.8718225246099522 
-0.09326106580087544 
0.8546172963197168 
0.8076305898735724 
0.7778669511247047 
-0.17963829405643858 
-0.27971259136527926 

0.5828255533754082 
-0.21925649111616038 
0.11594792884598944 
-0.08017952865041235 
0.8895509919019424 
0.23861896442486524 
0.48290289685103965 
-0.5406467435649696 
0.7487089720621123 
-0.4672835978142701 
0.11089522308311216 
0.5279741784688643 
-0.12193770132743255 
0.17799285167051493 
-0.047832898485686254 
-0.3605728443902188 
-0.5395380402743211 
-0.6333911568287275 
-0.7667803250541458 
0.5976513021879691 
-0.054065167604704305 
-0.9127169895865193 
0.06532272881332085 
0.5755882672553059 
-0.45229701286039004 
0.6426554310692149 
-0.7268526322124198 
0.5618824468763962 
0.3348223909178082 
0.42417739555442946 

0.9276510094724693 
0.8720693386329712 
0.16473532708413463 
-0.1590312652578065 
-0.3262865683835453 
-0.969617448318668 
-0.666114301316987 
-0.5979657955665166 
0.52425755125952 
-0.13770906070683886 
-0.9308321002373395 
-0.9357165866878817 
-0.7706237918110247 
0.5979219408029868 
-0.039102163380066446 
-0.8028878322139206 
0.38823768961740673 
0.8511485800846861 
-0.5526303545591595 
0.5331886738673507 
-0.6346547572740412 
0.333979630286295 
0.628356784452014 
-0.7979887679179726 
0.5777392907172846 
-0.7640478955026293 
-0.8513810764607749 
-0.04827720207039466 
-0.43087243024669775 
0.4620782290625378 

0.536055728582964 
0.7918549119354462 
0.11777403234637844 
-0.1371283311123009 
0.10145629837013811 
-0.8124109610515892 
0.014437971201539912 
-0.17127966372681566 
-0.9901700607547206 
0.9289292326031952 
0.8718471503288412 
-0.7408810128965523 
-0.05978897583402252 
0.8844136701613555 
-0.6693676125867826 
-0.11994116429329617 
0.4491274650067059 
0.04442827244997412 
0.40157216017509895 
-0.647277959675623 
0.5588628296465774 
-0.9404827424662816 
0.980872117559407 
0.3864522777309888 
0.5136995830764693 
-0.47779009230584724 
-0.3042622957009476 
0.023189623404108496 
-0.16416314026409998 
0.8470267420795311 

-0.25090989243963735 

