-1.1933891819203151E45 -3.4694731812361115E44 -8.44927442105615E44 -2.0772975838274448E44 -2.6975011140274978E44 -3.442074038866759E44 -3.4536586566928663E44 -2.5135737393059517E44 3.354601811242909E44 -4.611659001568362E44 -5.5563907972281004E44 -9.14249443189104E44 -1.567962730995968E44 -1.4518588347593741E44 -1.6229112685121579E44 -4.6221829349966795E44 -8.251211287339144E44 -1.2735033933838649E44 3.998113442553868E44 -6.080269534670846E44 -5.622495954071985E44 -3.3367854715796112E43 -2.652030706645554E44 -2.647249776402205E44 2.070204678362754E44 -1.917104913387066E44 -3.727332937311684E44 3.340096925601111E43 -1.7318106797242376E44 5.156161077228607E44 -1.5912581606273356E44 -1.6043072306158804E44 -9.249549361530442E43 -1.2234689347920204E44 -5.811296121363058E44 1.6567805486768073E44 1.4621796029413728E44 1.518013852471551E44 2.11257172260016E44 5.1761827068294735E44 
-7.846975681246252E28 -2.2813070616315375E28 -5.55571073633429E28 -1.3659000659596376E28 -1.7737068479074645E28 -2.2632911111674336E28 -2.2709084262675584E28 -1.6527677897678224E28 2.2057748831549147E28 -3.032336523888657E28 -3.653532654886997E28 -6.011528557476473E28 -1.0309935439021248E28 -9.546509337906473E27 -1.0671242415941785E28 -3.0392563997291944E28 -5.425476893328433E28 -8.373756281070566E27 2.6289076044831292E28 -3.998002319512202E28 -3.6969992428213368E28 -2.1940599802392492E27 -1.7438083716729229E28 -1.7406647330408953E28 1.3612362180268983E28 -1.2605674545783068E28 -2.4508593975962914E28 2.1962373838534452E27 -1.1387296360815535E28 3.3903667968980993E28 -1.0463111513156653E28 -1.0548913979287576E28 -6.081921137044271E27 -8.0447611923415E27 -3.8211423424733985E28 1.0893945471927995E28 9.614372209602885E27 9.981503070918904E27 1.389094118102905E28 3.4035317595906945E28 
-2.6701449622831597E44 -7.762762120691668E43 -1.8904803120492947E44 -4.6478431031982E43 -6.035515588287349E43 -7.701457993691659E43 -7.727377961290565E43 -5.623987848234682E43 7.505743526468311E43 -1.031834227874473E44 -1.2432129535329518E44 -2.045584610607326E44 -3.5082334000040653E43 -3.2484570937209985E43 -3.6311778366190795E43 -1.0341889021293247E44 -1.846164736986207E44 -2.849396258831935E43 8.945566650849605E43 -1.3604280408508225E44 -1.2580036315617158E44 -7.465880411970956E42 -5.933777964850258E43 -5.923080887151279E43 4.6319731036362E43 -4.2894205043919807E43 -8.33970964048765E43 7.473289614608393E42 -3.8748344899964066E43 1.1536636776720243E44 -3.5603556875335807E43 -3.5895522891285957E43 -2.0695375829816856E43 -2.7374468130237096E43 -1.3002466670448575E44 3.706958553570445E43 3.271549264812943E43 3.3964754350550876E43 4.726767116730054E43 1.15814341104194E44 
9.290293281868647E25 6.832579267087179E25 3.2754409608827676E24 8.679188795407452E25 3.599348401084238E25 9.290293281868733E25 -1.17480072966504E26 9.29029328186874E25 1.0525798323727776E26 1.84660952832019E25 7.44368375354845E25 -5.541282148558438E25 8.679188795407462E25 1.6135137777974956E26 1.5641000314845472E26 7.4436837535484625E25 -2.457714014781668E25 -3.8484415310705634E25 -8.962749185780355E25 -6.797632761755112E11 -7.593288006272507E11 7.437551139039006E25 9.895265153820559E25 1.0201322602406733E25 1.1136902810189054E26 -2.466479414422203E26 -6.126161101206161E11 -1.8466095283202605E25 7.443683753548494E25 8.659760111961673E25 -9.901397768330121E25 -1.1748007296650386E26 7.443683753548481E25 2.4146973152186675E26 1.1409521232074707E26 -2.118799026082073E25 7.443683753548531E25 7.4436837535485235E25 1.83108752690469E26 1.7216873909001517E26 
-4.890697363910494E43 -1.421844910168015E43 -3.4626461144486316E43 -8.513093608687301E42 -1.1054785636896268E43 -1.4106163088542694E43 -1.4153638682190006E43 -1.030102220386906E43 1.3747688083458429E43 -1.8899307002206296E43 -2.2770967121665903E43 -3.746738624332588E43 -6.42575893209628E42 -5.949946826652368E42 -6.650946717985782E42 -1.8942435743656176E43 -3.3814767138345137E43 -5.2190180565663137E42 1.6384900391545985E43 -2.4917904934606857E43 -2.304187649575327E43 -1.3674673909418559E42 -1.0868440725371657E43 -1.0848847718084336E43 8.48402576176499E42 -7.856598742712801E42 -1.5275199111150966E43 1.3688244771045343E42 -7.09723370584792E42 2.1130762512630398E43 -6.52122728225037E42 -6.574704432170489E42 -3.7906114254364294E42 -5.0139689422902695E42 -2.38156094023902E43 6.789748377770006E42 5.992242964832403E42 6.221060538453877E42 8.65765260094489E42 2.1212814313160628E43 
-6.394270970504455E44 -1.8589703997503126E44 -4.52718618292186E44 -1.1130320132441642E44 -1.4453418321232882E44 -1.8442897286562783E44 -1.8504968559364597E44 -1.3467921309293694E44 1.797421436711484E44 -2.4709623420703683E44 -2.9771569001757414E44 -4.898618793390418E44 -8.401264839276225E43 -7.779171238534476E43 -8.69568332708752E43 -2.4766011464968166E44 -4.421062433398958E44 -6.823529073767244E43 2.1422199153311485E44 -3.2578551546633056E44 -3.0125765513516674E44 -1.7878753049686358E43 -1.4209784383248463E44 -1.4184167791502965E44 1.1092315799743146E44 -1.0271995490487187E44 -1.9971336391791706E44 1.7896496074880814E43 -9.279174743272367E43 2.762710739703127E44 -8.526083541921457E43 -8.596001461979252E43 -4.955979647604242E43 -6.555440598569841E43 -3.1137371322606096E44 8.877157533683421E43 7.834470707792823E43 8.133634908657967E43 1.1319321679449213E44 2.7734384827459988E44 
-1.9179169357545485E41 -5.575851929318813E40 -1.357897888843305E41 -3.338461816968544E40 -4.3352019183588836E40 -5.531818281309095E40 -5.550436126232921E40 -4.039608969913091E40 5.391240111748345E40 -7.41147903385533E40 -8.929774270725125E40 -1.4693065071823114E41 -2.519900734787871E40 -2.333308102415631E40 -2.608209504712983E40 -7.428392234057684E40 -1.3260668110809234E41 -2.0466699069463119E40 6.425439076129891E40 -9.771709088004056E40 -9.036013041590971E40 -5.362607156052412E39 -4.262125619600099E40 -4.2544421017493333E40 3.327062682704287E40 -3.0810133330407836E40 -5.990262920066003E40 5.3679290525860635E39 -2.7832236813298833E40 8.286557984028442E40 -2.5573392332196996E40 -2.5783106252064526E40 -1.4865114949366669E40 -1.966258640480762E40 -9.339437141462205E40 2.6626414260120937E40 2.3498947921444246E40 2.4396270055676005E40 3.3951515114717365E40 8.318735100324346E40 
-7.896487669973139E44 -2.295701403363429E44 -5.590765552166626E44 -1.3745184727719399E44 -1.784898389340122E44 -2.277571777825889E44 -2.2852371558275687E44 -1.6631962431616572E44 2.2196926402098806E44 -3.0514696291617933E44 -3.676585315551226E44 -6.049459442731866E44 -1.0374987941789753E44 -9.606744858178038E43 -1.0738574653947903E44 -3.058433167277937E44 -5.459709973905216E44 -8.426592092398219E43 2.6454951980942084E44 -4.023228477182783E44 -3.720326164207148E44 -2.2079038198814058E43 -1.7548112629709643E44 -1.75164778895179E44 1.3698251974017327E44 -1.2685212452022482E44 -2.466323562109295E44 2.2100949622387542E43 -1.1459146677669196E44 3.411758962420968E44 -1.0529130509560955E44 -1.0615474362706307E44 -6.120296177697801E43 -8.095521146449167E43 -3.845252568408513E44 1.096268289731347E44 9.675035923597804E43 1.0044483267059881E44 1.3978588722081231E44 3.4250069919549187E44 
-5.3433888988006295E44 -1.5534533714703688E44 -3.783154718374546E44 -9.301080500049013E43 -1.2078036004987785E44 -1.5411854311043064E44 -1.546372432899413E44 -1.1254502905172518E44 1.5020198230091968E44 -2.064866004096168E44 -2.487868781878071E44 -4.093543329771324E44 -7.020538460935747E43 -6.500684351600347E43 -7.266570023662775E43 -2.0695780854443016E44 -3.694472135525689E44 -5.702099531220569E43 1.7901515539725545E44 -2.7224349965193242E44 -2.517467304018512E44 -1.4940425735907776E43 -1.18744426812757E44 -1.185303611083363E44 9.269322082179607E43 -8.583819316632586E43 -1.6689098360449643E44 1.4955252740314106E43 -7.754166118693675E43 2.308666299132776E44 -7.124843529199322E43 -7.183270618009001E43 -4.1414770743755585E43 -5.478070710910424E43 -2.6020024023149697E44 7.418219408778994E43 6.546895494592783E43 6.796892824577127E43 9.459020126441193E43 2.317630965057856E44 
-7.684084454775394E44 -2.2339506124310976E44 -5.440382669507377E44 -1.3375460674232306E44 -1.7368874036282587E44 -2.216308645573623E44 -2.22376783685001E44 -1.618458855563916E44 2.1599863665810804E44 -2.9693898504803004E44 -3.577690898867591E44 -5.886738409084894E44 -1.0095916930908518E44 -9.348338389284647E43 -1.0449723726995996E44 -2.976166080270635E44 -5.31285228210995E44 -8.199929894166955E43 2.5743354990799494E44 -3.91500989953877E44 -3.620255186845218E44 -2.1485146471517428E43 -1.7076095740812347E44 -1.704531192584321E44 1.3329790338481602E44 -1.234400000126226E44 -2.3999833009444696E44 2.1506468511935453E43 -1.1150913485966405E44 3.3199879620239044E44 -1.0245913303768894E44 -1.032993464179248E44 -5.955669746247023E43 -7.877764240838596E43 -3.741821265415275E44 1.0667803807786681E44 9.414792531445512E43 9.774302316985969E43 1.3602586464800959E44 3.332879640204312E44 

-0.005019612872798396 -0.4546226908967732 0.26941879886163433 -0.9613174531910116 -0.5154331402932102 0.03314532110548973 0.061580267214635054 -0.8875721327238673 0.8622675129873152 -0.6114886385046705 
0.3578633671291014 0.1065084762434454 -0.002399449965837741 -4.4466453708843696E16 -0.33791732165258015 -0.7691678869103693 -0.11494693170535975 -0.21393054353293794 0.8512567924207584 -0.6414316085638518 
-1.576256373070533E30 -1.0364469206089467E14 -3.526789984008636E29 -0.7885496147294879 -6.459747587302809E28 -8.445702811029927E29 -2.5332295941699843E26 -1.042986580005551E30 -7.05767316574426E29 -1.0149318660289332E30 
-1.2523736808850794E29 -8.234820598863221E12 -2.802119648453838E28 -3.6925109333705101E17 -5.132425157298268E27 -6.710314449994432E28 -2.0127119709578587E25 -8.28677976902202E28 -5.607491441160044E28 -8.063878304454857E28 
-0.6444210447931615 -0.6631479666370772 0.22130961539249516 -4.3803539964159288E16 -0.6285804851803165 -0.0919278702508799 -0.07968767052468784 0.8041430939654926 0.5915463961021019 -0.9237084184711932 
-0.9322253132810296 -0.5154817226650477 -0.6046935355007756 -0.43415460042200493 -0.21965160704668718 0.5671167776146684 -0.8310745990557644 -0.9300650356377786 0.05949324354717622 -0.07199836890358058 
-0.44170029005917066 0.31615161415201487 0.7858242165316922 -1.630612174996461E16 0.4425851424047873 0.05489871060843354 0.23995002424896983 0.13780958348258632 -0.37672805199437986 -0.1805924864288726 
-2.4233570277967248E29 -1.593446961995828E13 -5.422132743965747E28 -0.3013824826510225 -9.93129987033062E27 -1.2984533234224132E29 -3.894620091588221E25 -1.6035011193201518E29 -1.0850558423298684E29 -1.5603694375458056E29 
-7.397534698844679E29 -4.864152932038376E13 -1.6551591307078775E29 -0.5905894962151865 -3.0316265640064397E28 -3.963655955218666E29 -1.1888709313516055E26 -4.894844232090637E29 -3.312239241576847E29 -4.763180548660818E29 
-8.795978063660932E29 -5.783681216822734E13 -1.968053412152067E29 -0.45429995521200794 -3.604730743389014E28 -4.712952659680984E29 -1.413617246611367E26 -5.820174455853602E29 -3.938390950035958E29 -5.663620831115573E29 

-0.6612201059950198 -0.08623439002798694 0.1345297982930178 0.8697011603172122 0.27820274629233155 -0.8876127603209953 -0.8961880213726866 0.9408490950015513 -0.8112137906640753 -0.06328232955508861 
0.9065475741616387 -824.2095026612952 -0.1422553709815837 0.13044154013411902 -812.2590254838443 -351.794512581893 -303.50937591704655 0.053261367852860175 0.802896697338972 -0.5846921341313083 
-0.5068123208912929 -1672.841821208161 -138891.3166008021 -11034.935003712251 -1649.1244457517917 -714.0490645607421 -612.8668445112953 -21353.823799637452 -65183.73485865835 -77506.81021889794 
0.6197900952236364 -562.4937198396777 -354029.289051912 -28128.524600192115 -552.7741038635063 -240.62080873911165 -206.62445915433662 -54429.11163452282 -166149.31802758257 -197558.45392818353 
0.3689538432024264 -0.1928156704073256 -0.20886346618644436 0.8571530061570525 -0.7310838032396347 0.37024367939446323 0.6314999267217973 -0.29186965424936906 -0.6245274275474951 -0.34795452965052875 
0.8085557064520392 -97.30021218318736 -0.5856073938724022 0.6977472304227086 -96.18980267980305 -42.03728744783414 -36.67721324326075 -0.7715616633208211 0.35351104914587994 -0.6436141884821875 
0.05740038850187612 -2489.2198080396756 -331864.4807823783 -26367.143245669773 -2451.361028590641 -1062.9771838270003 -912.4570586670599 -51021.298130054056 -155747.8144323014 -185190.42831708575 
-0.696038482604266 -942.7117672604542 -39601.615200272245 -3146.61449811076 -929.1157108022065 -403.40675790336354 -345.6557120269476 -6088.033304028293 -18585.502480764135 -22099.298444148713 
-0.8770000308206285 -0.7469906443707172 0.4172143487206812 -0.31077303984298155 0.03148806674190274 -0.2642209687792896 0.4892822101993154 -0.3314260340786892 -0.8329281679900475 -0.6486571845818236 
0.2580951540264236 -1223.9125580849159 -0.398412304811949 0.6824399732114805 -1205.5239513664253 -522.0215744012131 -449.2608671919142 0.9129506537193752 -0.07166289413957294 0.2220967495436046 

-0.6861808682386521 -189.5106243032369 -382.7369869240233 -128.2812415114221 -0.6009068344473616 -22.252115111559654 -570.2077260365935 -215.50678464314217 -0.5173979770151147 -279.57612804321707 
-0.055783810890134955 -246.04132419623144 -500.0440971122045 -168.27785105356406 -0.2644461197756949 -29.98358986790792 -743.6265380625207 -281.5339216036819 -0.39851072905735996 -365.57967363375684 
-0.23386096174929372 0.9306281008040853 -0.6328116496161629 0.20457027315114829 0.27403938177197706 -0.13339391229219055 0.03570500462237303 -0.7502400724425051 -0.4105522348734536 -0.783291291713978 
-0.057486901142608904 -581.4226364229995 -1179.476207683059 -395.6565523312845 -0.8980041919774664 -69.05932437895171 -1753.9190182852603 -664.9256065866017 -0.0494563865699571 -862.5047512837756 
-0.7699108071642566 0.3850584356683604 -0.6508855835546443 -0.38139647154966694 -0.5643743386828979 0.048569492197870545 -0.0711868493048653 -0.13481345412481494 -0.89023359696414 -0.5553962139407091 
0.6462513899111424 0.37883370815623274 -0.6873179416714328 -0.41274113436811666 0.7611497492045698 0.683525873497856 -0.4134327271723375 -0.6533290976585449 0.3568500753617312 -0.2969191585270001 
-0.7929576550748547 -0.19103020264773196 -0.004893089428595454 -0.8447263198493327 0.8886887177576535 0.9033103346543245 0.12973090782465335 0.28655026845673937 -0.828169851505347 -0.45102911195745765 
-0.5006400593953086 -0.017448490719086163 -1.2841276987814996 -2.145743410840967 -0.21538879243360132 0.9009936989931735 -2.1181750522315386 -1.0668007106177162 0.28138039704193507 -0.05272173163338234 
0.6308034286039215 0.5756450167893721 -0.5161416943315202 -2.0053868428820154 -1.3739795918836548 0.3671523155848826 -0.9560523166237955 -0.2831952401054163 0.15801686262554182 0.40461884476972854 
-0.47954508047302613 -156.31901310713533 -315.1396495106716 -106.2065198096611 -0.6948362125175593 -18.638204773109493 -469.83825349998375 -178.11546441651734 -0.0968528262578694 -231.29279691130643 

-5.305960141473607 -6.925746565355992 0.8417839373226541 -16.338239977663335 0.21513094434725483 -0.3901128585444924 -0.5364565797297725 -0.9189615299237828 -0.7761783915784519 -4.375150582754193 

