-1.7617049244909762 2.790417031002141 1.5301441997854914 0.6601181231744166 3.6854820317658468 -1.502074153200478 3.081296987289494 -0.4125350589638015 2.780008418590254 -2.326255396052855 3.0658070625494522 -0.8948697133136243 0.7228873711160265 -0.9361784602159279 -1.391892574903169 1.3172588014432034 -0.44058641278556365 -0.31907150595695694 0.8916197463947659 0.46570968622465697 -0.38938951772344116 -1.807681465667718 -0.7494583646395595 2.311494872170854 0.19330565745085035 -0.49745869925995234 0.370971999500671 0.8852603353295858 1.5891386237532896 -1.5548964724403498 -2.228304158088013 -2.9489365743554288 0.44064074685132976 -1.0166498039592675 2.415821355391754 -1.4879734771316895 -1.8419681828153003 -1.0429050747611712 1.2920429784644092 -2.493339307857174 
-0.20810159544849802 0.5085991984242043 -0.5462493078806432 0.6487415190660896 -0.03311233193858811 0.07491189149756912 -0.6992113093049751 -2.7985088489175847 0.5175964861647527 -0.39866977212645155 -0.2228298563594838 0.6348186325757461 0.005258652075354382 -0.41268935277983554 -1.1168521989151898 -0.08039992889730684 -0.7722880594223234 -0.12580288193998151 0.18127821297546778 -0.5396165190570315 -1.0222266038799774 -0.7713214565460732 -1.2659744992574118 -0.4084076329019417 0.35343654346782377 -1.3299788552695997 -0.7267455361971531 -0.7070485596012045 0.15953828312307 0.09674023904573954 0.7434641379948944 0.32185279107162323 -0.7991442021155392 0.49023331095086203 -0.14508434198328204 -0.43659875612122695 0.1653015251852597 -0.7616175421540297 -0.43395970815606255 -0.9008528968640199 
-1.8413145635598942 0.24889089628004812 -0.38279431943655334 0.21134411129780478 3.2400510007617855 0.17019435808400982 -0.8530485047823176 -0.2988786492005916 -0.7422950234402704 -0.5764676358011145 -0.04882273217726774 1.5060913289863862 2.0892863191797306 0.07867371205487142 -0.59255395514679 -0.6712360744190348 0.5769664606109491 1.5041346396880004 0.5169851656527598 1.7643206765308979 -1.0365285097634733 0.285304892461143 -0.521337376352713 1.2815133518864648 1.061340836899674 2.7124537072042485 -1.9399201692155716 1.7622038585642004 -1.3015889274619314 -0.5552602745493512 0.7570987356069928 1.6695402611129868 -0.3698770020896525 -2.0618524627051302 0.2263617717146859 1.350830278981135 -2.882893432087987 1.4981439350987151 0.6374492906656946 -0.12921811649675544 
-0.6715898220700898 -1.6267188318789707 0.5553288505863454 0.05075288761210237 1.1737486287150891 0.6905788914140967 -0.7419205668738781 -3.5395071243978236 -0.2958923298302562 -0.9399312025958626 -0.5707329265087122 -0.10222127299578236 -0.095393035516601 -0.6714323654386884 -0.3066484749176869 0.26602919325031177 -0.4131998056755896 -0.0651036659442651 -0.21683461307083143 -0.2496187679805366 0.2523079360187725 0.022044811933564685 0.08928780658852406 -0.4265744829937731 -0.6577489474798841 0.02925239800018285 0.5192622013432913 -0.8501336535422958 -0.3210851903978176 -0.8195298294752708 0.46731755886335813 -0.0836942384603313 -0.5273091852303159 0.8436913358564873 0.5221225108150374 -0.09571403837233985 -0.3869003199458503 -0.0018659173258379104 -0.002097096041961055 0.18709557637580806 
-1.381252400265135 0.7754180662180166 3.6221967703024847 1.2350504232599016 -0.030413202654486722 -0.5276637439581962 0.09667547701735517 0.22311869833707726 2.114472489304145 -1.103838128575556 1.5922140817759607 0.6759234294760277 -0.31114167582121716 -0.24227022282320557 -1.9789684769919977 0.6683671048920966 1.8842932282628528 1.6542015461568405 -2.734974921361228 -1.5395284029779819 -1.1875911908766021 2.301769116579994 -0.9170240379327678 0.5837554609666258 -3.042319399647647 0.8701810544772822 0.8638061608779135 -0.6000675040063713 0.9493102684859823 0.3466015391518814 0.43569058369991603 0.342133400193515 0.610431747631276 1.0552733030180106 -0.7209293431797884 -1.2943240857444656 -1.4077612416804859 0.865052903242044 -2.722805670001371 0.7480623022410151 
-1.6107034740924084 -0.9908001716689162 -3.9854159670741542 -0.19885242463541664 1.4277579122070747 0.23091345129666208 3.9048865470372816 0.20921043729659586 -0.6203091652034668 -0.6785539590899912 -1.9942043588075469 1.4135197886426618 0.31420035855802664 -1.5215248119041649 -0.49749653760994544 0.45236647928298734 0.4599254626688173 0.6459549138098314 1.5458467041622077 -0.34211802378181766 1.3003321325963009 -2.5081757118707873 0.9504426910954048 1.9333536064008867 -1.3835923009357216 1.818018980524657 -0.6871797699194321 -3.404490819550919 0.11831086508836469 0.570749242535126 1.9144671645478932 -0.46204587381442996 1.1048737436075435 2.570313458603257 1.211941027747485 2.6302008416928073 -0.2698775406840787 0.2999087615606911 1.4649996847444327 -1.9813018624568992 
-0.9934758942893867 -0.6696605403034777 -0.6565660863541588 -0.19870810158050237 0.8459668787362908 -0.2885240922083422 0.5547723458525727 -2.6604734745160203 0.7557399697056226 -0.5313437055328222 -0.6998203443986173 -0.06591142992881847 -0.808449697760123 0.28266164352185946 -0.7246225642320085 -0.6599199506913107 -0.6488863652703898 -0.35841490741954163 0.012590264870669221 0.028510480155957425 -0.1134330196167686 0.2904758493946333 -0.9034833232706088 -0.274276684644476 -0.049028911350961005 -1.0101909295275224 0.4308993774727799 -1.098750867309932 0.24330535092587008 0.8658632753880267 -0.5461182939909994 0.2537849639787458 -0.382167125211361 -0.5605221903622511 0.6004910791596954 0.43838875540434497 -0.9829363796799584 -0.44816793429369794 -0.4446649395634561 -0.6085936092805595 
-1.85621552474534 0.010548779922708699 0.7429218700010038 2.28338816240196 0.24164305357252497 2.4948387413909967 1.4795364915522478 -0.1362929723883882 -2.2797135928088896 -3.086524317150534 -2.892148761410926 -0.8581463306429211 0.9528778483195631 0.41447780805553747 0.9396322542409197 -3.1886820553646267 -2.35067937437313 1.1296033620417003 0.9360263825690902 -0.9039520435543225 -0.3732471584909026 -1.639489879475618 1.1198264238922289 0.7455130279748087 -0.1997952991775436 0.07379753810081979 0.19377841078410188 -2.056498486045436 0.5724117507907256 -1.2298258679060066 1.9122338832392844 0.1330151224852451 -1.4113157783393147 -0.0742429836075437 0.5700532060431873 -0.5477376499648484 0.6631069463125765 -0.8613239860847554 -0.5264986360967008 3.487683552075563 
0.053688769276030716 2.115688818648214 0.9929642778481831 -0.10640966358496787 -3.4307075495992305 1.2739223570819902 -1.2536415972330819 4.924360765664504E-4 -0.8851195506930033 0.5053859194718996 -0.8372424415213594 -1.4596298914925672 0.3936524150391477 -1.216488371484663 -1.3007134751281169 1.2363600782449637 -2.047560066530538 1.9725873195347337 -0.45258200287374944 0.3166707507035613 -1.9031214912290046 -1.0188300067903109 0.06217987819656105 3.104778405172881 -2.4185784504415833 1.149311024878326 -1.413372152734233 0.6614814181850913 -1.0311967534643633 -2.687678043630716 -0.060843751160777705 1.2173440243802625 1.96443219868413 -0.6422470228919747 0.10997292930362719 -3.041285254983465 -0.22634607483008629 0.7958044195336912 -1.653285320820632 2.8049135650691497 
0.04413771954283726 0.31085594758350976 -0.8495478780924354 -3.4635577198202707 0.709305626288487 -0.7681164410588925 0.7159621252784001 -2.2791505895462563 1.2114990888377282 -0.04149224257453172 0.6217626972739058 -0.4504267242220928 -0.5746659741724995 0.7952434356187967 -1.416554783313555 -1.8332610053001472 -1.6970487011609205 -0.6516692760595101 1.242670754820285 0.137392303497359 0.40244500356604124 -1.263053444771216 -0.1696943224415913 0.9673467207061137 -0.6973165784959338 -0.8789992418226861 -0.03125718568917803 0.47232373387631665 0.09669155746429031 0.17352355591925636 -0.7257272223586181 0.9252279717347225 0.5339204654053666 0.16374422117362616 -0.6666468306185762 -0.6816845466093288 -0.6075684066591605 -0.6898372889889012 -1.7307984660833717 -0.6668284900018884 
1.2639368133957958 0.3207497906942087 -2.6459595134716403 0.22055197315118172 2.094980678467748 -2.7151849272961 1.3196104199635408 -2.1705585809801424 -0.2766519689085722 -1.3807755771987265 0.33537198935490803 -0.5174517656230485 2.3871475563579256 -1.0597059982793111 0.30142922085274987 -2.590971892522241 0.934968448547977 1.3656074458336303 0.5749932191666884 0.007866689457805887 -0.126382879536184 0.04509300645693557 0.637689765438854 -0.6723355189208005 -1.051543860232348 0.9245611151367339 -1.6236756143865534 3.6639362483037257 -1.349410544899889 0.5058193323087053 -0.7328777126063305 0.4549277234881379 -1.4536902749187959 -2.32292368831314 -2.189928953922469 0.4691182188638258 0.20415830449669822 -1.8904519862282616 1.1085766697175568 0.7076397434759956 
-0.15825183341846924 -0.8279427374017578 0.471847202014013 -0.9694597127562106 -0.5492130543076066 -0.6429293744767716 0.15182317892263208 -2.113874571739941 0.49312827206247983 2.35697368369492 -1.2627689939458935 -1.839683140579468 -1.4333941391168596 0.02739915750993543 -1.6872275045889145 -0.25403958399505194 0.654987200732808 -4.571868971029343 0.3135104803259199 0.44112627062205134 -1.1832572802058994 -0.43197897049610456 1.4451367620067215 -0.22794762051290884 0.22612735924485247 0.30693073096797474 0.0958059715927244 -0.1333695877306361 -0.09673223963961562 -0.32674909404962243 -0.6801430210213744 0.008807135373793873 -0.604084436215635 0.4044742617717743 0.5048609418843436 -0.4066519363610507 -2.575924049198816 -0.5389963552845095 0.8513173416567242 0.4891577599175687 
-0.9984952171561433 0.10291029537720726 1.4390737160859162 -0.24063005116805516 -0.8443664728992384 -0.960958480863337 -0.8117613128319856 -2.233234263513285 -2.4174166554872687 1.6518830093641654 0.19064550514983516 1.8409366043896669 -2.555848736806088 -0.45605228816668225 -2.437374204453667 -1.1185032830626203 -0.1449005631887828 2.324089885418721 -0.1661731418271181 0.07160703877399201 -0.9174798650541512 0.6464776783478746 0.7147434613701091 -0.06486426597521851 0.457907630439549 -0.5787129585648825 -0.9538037962090156 -2.433002744561703 0.7158849368095653 0.39783239670525933 -0.6559794041456168 2.576281802183934 -1.8534210977776517 -0.75892813472164 -0.20838030434376598 -0.8581172829049981 -3.271393395590446 -0.6620180501898117 -0.4259750033746846 -0.31353527177273105 
-0.27553836751624095 -0.6605494254556477 -0.06224661478447078 -0.9466157312406316 -0.21826632012430633 -0.13024744996898835 -0.39578000723607076 -2.8865829907539116 0.7760547546402798 -1.0608310886761718 -0.8672569207592314 0.45971644586825616 -1.5496121755604726 -0.7031469941030701 -1.4391239807930667 0.01109182322647408 0.3188664620524977 0.1562849850681482 -0.6783513659233338 -1.2422039843213792 -1.0069069491552307 -0.6720256543327152 -1.1371866029205433 0.4055725836137036 -0.19533613961111304 -0.5743729795182132 -1.0731151851396505 -0.7883781985793246 -0.775465498353572 0.7478220931894423 -0.3219423764106481 0.1395131809214585 -0.5034834500394079 0.31570464764662876 -0.11585339002224831 0.5801690361224092 0.536304002074327 -0.13774355433121319 0.4454058723118321 0.6718551132713816 
-0.6401554087550402 0.08750365036537638 -0.5130293001591638 -0.6686127865534482 -0.26123500524532794 -1.039577399299834 -0.47205080394677656 -2.54743279133162 0.513377773998823 -0.737342422494019 -0.5450822271908404 0.6130898217860123 -0.4335611839993261 0.14740980770292383 -1.4816931668854798 -1.1398587032190968 -0.9366895085517223 -0.6244539347605926 0.47566504784709374 -0.535925174464405 0.08059878141088261 -0.09306639844624252 0.14645260205650812 -0.45780084659445736 0.2333489165938731 -0.8904417668905941 0.7430865717653244 -0.4634310515574775 -0.7438136702099628 0.7047818992401245 0.11295330362466233 0.26937847335939885 0.6040558966029937 0.2765277702231289 0.14776996420817673 0.5047019917713904 -0.35054220888485843 -1.0519271817079658 -0.6642722425164371 -0.8985233933084108 
-0.5945466320172603 1.2104988175037596 0.6395672246082491 -0.9988309757619828 1.538898860664766 1.501365795841997 -0.15038584546983705 -2.6122154152241643 1.0682294598323898 -1.6529816722379247 -1.0124764703555107 -0.6950571485196165 0.15229477388514823 -0.3287089323197206 0.2097973175626066 -0.8529829785891578 0.9046524829152899 0.9188889102066123 -3.482180053250249 1.065449513702784 1.2355135186907704 -0.6660120601651196 -0.2590602868335811 -1.7338439904580152 -0.9640416305580808 -0.3857756439181747 -0.681960688387841 -1.180416663381769 -2.5490563474470305 1.4396785076126217 -0.5797978130100309 0.8278400654289654 0.7643820895018332 1.7584509102643768 0.10535046312964665 -1.0145197736375535 0.5652492059479268 0.7431873913099326 0.7579670193917625 -0.8324812866233718 
0.6177748555304896 -1.3855144323240702 0.3101813885675831 -0.0591937129867188 1.8291500618778762 -1.9938579694272678 0.9186283498430048 -0.8599809977848428 -1.8674380239583817 0.41361026652615496 3.0781892668164703 -1.3292748946772261 1.0294619434271712 -0.866247063573321 -1.076738497662919 -0.5576129439062973 0.36752897563030096 0.44238411088036483 1.4604862272107002 -1.2200287070102556 -1.0412998887780223 -1.1830456739611106 -0.6227080506195349 -0.5489642777593943 1.7780819134613077 -1.6668202171346553 2.3649544804648883 1.3576732916857932 0.6056438535293195 1.8052657304785964 1.3265000065197055 -0.18849028075278576 1.4646972147342803 -0.6988789976091481 3.3355731187615763 -0.15175444333698265 -0.6451603922169087 -1.028818654687856 -0.16337912205351346 0.30508957100355816 
-0.6275987816319702 0.33864154358029336 -0.5910424789582244 -0.17887596067369826 -0.4371072474834756 -0.17364292596890418 -1.8735613970351794 -1.3605692352442194 0.3851335079983429 -3.7539156466165524 0.028041201056244636 -1.2722837820478976 -0.8531659280641396 0.21853088036308946 -0.44764539323520186 0.41978311180777617 -0.032620474249238876 -2.7309761711043907 -0.876269014486505 -0.17688307394661468 -0.8818366808467781 -0.5628573816057065 -1.605305169357519 1.0051776367882321 -0.021230631559690842 0.37872699017892586 -0.5918840935621118 1.005875948536048 0.38369415114821726 -0.7079282642127105 0.6300583525056321 -0.9498308676441206 2.176389549679698 -1.2808334071044674 -0.6266847417848566 0.2783605377609574 -1.4888184220726868 -0.3374652254573117 0.24638688264060057 -0.4477912258255555 
-1.1368505279278622 0.7863489696397178 5.422393347280717 -2.1084774186446076 -0.6811952574619577 -1.2310718288794518 1.341773261003548 -0.23365412998477647 -0.9621489456631543 1.1584438029293467 0.13175502337619255 -2.3281304929144113 -0.41083763344001034 -1.2994930049850348 -0.26145166677746884 -3.1068199294647525 2.0420140595871827 -0.14398177337668217 -0.5701259518151288 -0.7035762126237176 0.6606357270935984 -2.6006211190805475 2.140125978639684 0.8659365671355037 0.3810243653525681 0.13636354204277495 -1.4413421142223783 0.7702969489983861 -0.3508532667938699 -1.141474456262873 -2.240929931998909 0.7934320684313433 -2.155289059323112 2.536694326476138 -0.04311539212374328 0.0842855698900129 0.8501645929352974 1.8957233570055336 0.24323559247823198 2.4588465877976007 
-1.2692567436941864 -2.3098570448484383 2.0637856519159943 -1.5126992531318735 -2.1447517477641456 -0.9592683836924729 3.0108582587623793 0.35484174938603363 0.17050687821341212 1.333864605184803 -1.4424675560550744 -0.3617480984058308 -0.07823623445837885 2.212340864896459 -0.09073244446723988 1.7713689608959566 -0.04262351401688846 -0.10597032563998579 1.8318747064741634 1.0378774641611876 -1.3828894673698413 -1.875106028494447 -1.5587806976767455 -3.5886131392419505 0.16937128932365772 1.9212348752993844 0.219470566707365 -1.9692819740043164 0.10698642014305938 -0.6055079206173094 0.6674019059026043 3.028564493593365 -0.0547967974014183 -0.9881256343847318 -0.9404462640940475 0.09260735261795872 1.655237706400109 -1.6764511745334416 -0.4136307551104483 0.3652912501092272 

-0.8728583235899365 -1.135925914838775 0.008524687058342792 -0.5558432130179694 0.4778494111452389 -0.8182681577113926 -1.357626494465602 0.3181694824771744 -0.052134252667839644 0.45462456395034195 -0.515163723431929 -0.1448227608655274 -0.27299678191175974 -0.8328099378948978 0.3807653218489805 -1.269236666792973 0.041344787986683555 -1.3926170600019996 0.457309713933286 -0.027197267443427035 
0.4197053965468769 -0.5350000203110236 -2.119178703198113 -0.8761721146288421 1.3621435471525962 -3.473257390155954 -0.09357012744042928 -3.08893758447138 5.965445038196728 -0.30467334018332354 0.12851273914451763 -0.14081906327778676 -1.196920369803552 -0.5015276962108901 -0.06498150194868219 0.20870259973247288 -2.8986842394128054 -0.4751224208048991 -0.0892068398810375 0.27067729321125644 
2.0973859106569557 -1.5978853062163074 0.1259796088123578 -0.5219077070760392 1.879672561724733 -2.75867757811318 -0.004425256221994372 3.0830810611707435 1.4192415455478382 -0.6213807657171915 -5.48888137790471 0.3022462968038253 -0.246526016693099 -0.7980184234404503 -0.8843323388307572 -1.5344826043948805 1.1704445966068855 -0.7410699321352912 1.4918898090142296 0.7751144824328919 
0.3230107150927548 -0.2866540637553809 -0.5862803405131447 -0.8301920126365875 -0.9599373697288661 -0.6273839407013986 -0.3932701435272456 0.4900250332876844 0.8067262315838927 -0.1570109075274513 -0.6017146696404083 -1.3975037449026486 -0.12487893062887394 -0.16919805085278564 0.409869221306774 -1.2605464774253816 -0.06265784888497683 -0.484070883786908 -0.8967425942803918 -0.4954217900005743 
1.5422458160756445 -0.6553645740469612 2.6495490533034474 -1.2308966870731004 -2.7857823200033507 3.205357946115612 -1.523737170138346 2.5602180840373894 -1.9788001468997607 -0.04506250339266551 0.020506313248523197 -0.016840781515459355 -0.1760834920087851 -0.15325389659279465 -1.666921964120486 0.8130519695932924 0.8130641379119355 -0.20032006782477085 -3.6702545083355744 -2.395334264593185 
-2.1728436133243823 0.6990622984252383 -1.4687491168201543 0.8592252429259656 -0.14200873728529315 1.8196890857908747 0.09937628969255725 0.9607737380851079 1.4033666851688895 0.4174859066940917 -4.584475900366617 0.1895239855607163 -0.7675234159091128 -0.9348137722127337 -1.1434835500361515 0.6901056640357299 -2.5420502885424554 -0.575524423878112 -2.9689904783264325 1.4852569521219254 
2.412857960017757 -1.8469183664017526 -1.6464456439888564 -4.059244274844951 0.9116838929277787 3.5045843741300553 -0.5621344897656866 1.4892995967052405 0.7300334716471437 -0.14523634954059808 0.7762548397904017 -0.9189156993210211 -0.0998611637956656 -0.6531464492491023 -1.076728381052157 1.0603493380812992 -1.0609167789051228 -3.9111128040062546 1.2038793429746204 2.7972292667999508 
-0.8554727648467636 -0.02073419391441951 -0.11368363646826986 -0.9460982874399921 0.11116311956777829 0.14028577163723024 -0.32566181850692894 0.07148582792307559 -0.9018537785409272 0.37043637563168996 -0.959261690010722 -1.3645502757610013 -1.3221055678220839 -1.1030753853083182 0.31383612284186724 -0.5530392675055222 0.32351343532773225 -0.6094778316327516 0.0396068494829291 0.39371609670898705 
0.5095933528705352 -0.38691724620985335 0.7674256778830911 -1.2316128965167905 -0.24765644130410971 0.7345057232930767 -1.0528310066627644 -0.7010420906382606 0.4990148869263221 -0.6662009385066842 -0.7682834227893529 -0.05168798874682032 -0.0610147072998408 -0.17222328996411054 -1.401959338115251 -0.621550867105796 -0.21053151415180926 -0.5078439870514613 -0.6005901860202106 0.20293759396862077 
-3.556473680709951 -0.18983721049417437 -1.0570205901906817 0.6210250241102974 -2.417759401935017 -0.23949761791957594 -0.43541222384433353 -2.8012930114861794 0.5203024182576715 0.3951050740095425 0.08743234365200916 -0.2508537815430262 0.9004241445634017 -0.970853824683013 -0.6330286684747677 1.2904626970678361 0.16798272077386714 -3.462713896384039 1.53723981617695 2.03999504716213 
0.5356563350991019 -1.2099828083463908 -1.31276072174754 -0.2689373719508762 3.8664244752283032 -3.6536040453057703 -0.8835225759928966 -1.4440484383132264 -1.9123458769735346 0.34583242151626314 0.6536743898466566 -1.0160019663169166 0.41387080095922907 -0.7604309456116093 0.2610269640367936 -2.023695902948546 2.768627318521228 -0.986272980966829 2.415413407086942 -4.544407533355448 
-0.21685145267884157 -0.21754070469640996 0.17586307006994367 0.27244243783014904 -0.3460993372910395 -0.1348726471319617 -1.232202528076375 0.23226396574921737 -0.8661631678039647 0.5447264565944591 -1.0528046642808764 -1.0899516266661662 0.5146652852340544 -1.3966747458015447 -1.414329961663131 0.055656163470115996 -0.7951899270902842 -0.47548572445591664 0.058524631821445496 -0.6433305365320141 
1.8015855391210251 0.496513303724707 1.7364586211091149 0.18929383771393948 1.4723338842361853 1.8000176871338014 -0.603137224044531 -2.8022966655004375 0.16955155148605788 0.6837872779699333 -0.4130656542740555 -1.7295669198886445 -5.014203621997919 -1.1809537031701347 0.18200723147080347 0.28840820797176536 -0.6767462903830833 0.19050213337371072 -1.6551090716292045 -0.6140040095416087 
1.2531694050415099 -1.2855574884858887 -1.5668483691453827 -0.7978397339142059 1.1502858160821476 -2.8743420813475535 -0.3413619120287982 -3.522792222951703 -4.346711166191942 -0.29302488670701976 0.2898885660425042 -1.221645233010493 0.07336852600048654 -0.6197770007384326 -0.07577737360590453 -0.38782853116605537 -3.3447235487631604 0.44236075951358617 2.78533978519659 3.145109688848584 
0.09517137004788234 -1.1065600858466829 -0.14114841760096786 -1.3673457574947732 -0.9548228877238581 -0.9284014210733956 0.4989426765499185 -0.4579018195020768 0.8416018902693327 0.4787557301211972 0.24453218366733012 -0.4268642395203212 -0.9870483077037802 -1.2287181382780339 0.36951978394110024 -1.2065227545908195 0.7316669001240244 -1.2266928555900485 -0.7767469040640675 -0.010732015619582454 
1.423189171378389 -0.8732726353367691 -2.0105077528558186 -0.7709522266167764 0.22538912584579457 -1.95647791282117 0.557250687076619 -4.725634994575365 -0.321834422255548 0.8684996022968053 -0.6649224401428973 -0.7784886617006112 0.3333924555912772 -0.8719880067840836 0.45886846074556076 -0.4553234440305916 3.087335674767852 -0.7893736960966822 -4.842747416653 2.491248105254894 
-2.686740936888898 -0.8810159738430396 2.980054054488359 0.04681301895877606 0.9795879430354624 -1.8817005047886501 -0.7615467695075326 -2.3087393042631046 -1.266377840897846 -0.37236749940724595 0.3462446340261742 0.19570738948925254 1.0394610090005771 -0.02772895665035744 -1.1708440193348422 0.8253190564136443 -1.8472966236804602 0.5257224991971469 -1.873095163972938 -2.3399342306405466 
-1.2905272767193157 0.16399521027494518 2.127991473465979 0.2910954060661639 0.794450809843365 -0.2516747809292893 0.4554906613713276 1.822545064195556 1.2323113787581663 -0.5043903987678299 0.8124264926728941 -5.830568625660783 -0.3218768555339643 -0.5005065340743649 -0.39886464565939156 0.4098179988799495 0.31290442437702276 -0.9275184734022591 -0.8415560834299297 0.9817887024813475 
0.6239217790446001 0.006376371018597552 0.7401955179967865 -0.5110092981943405 0.013882274873275778 -0.5539958717136354 0.10191103958614692 -0.10149457432414395 -0.48016490319894817 -1.6601416175726456 0.2855642228880849 -1.6551057906830358 -0.7105575703583867 -0.12060205613869762 -0.57393592111875 -0.6555353043918193 0.27738221086105913 -1.290494598701356 0.21741881130661367 -0.4621989394721814 
-0.2865460284613061 -1.0743129495536121 0.5120018783445719 -1.1904088605502627 -0.012005127965393377 0.7303138836707418 -1.2478529435724297 -0.26634748468830793 0.5630371578847823 -0.6503066850596091 -0.12414319729672034 0.20163147750331017 -0.6511312563237963 -0.5897492188571268 -0.47080988480143093 -0.36487231200273146 0.24103066909205845 -1.4990280036189036 0.23561229525846214 -0.64807265292747 
-2.3905056719405704 -0.7471365231130269 -1.7883557114792852 -0.4855895285530801 -2.911214935831588 2.6824969911529792 -0.1337032497039127 -1.3861279353950162 0.734011962386591 0.4845684520586475 0.8884667399492687 0.9879889436217985 -0.5870800522047478 0.19296243026437737 0.6081986210276387 -3.1112736169687984 -0.4933253012515782 0.9569213595105293 -1.202020756732724 -3.1407469511932944 
0.6054079699982731 -1.4098179485841782 0.5228143225495914 -1.0065194920286404 0.3552800142464523 -1.0145380267882358 -1.0940150168643352 -0.7627674483232141 -0.5574081173591923 -0.11114848538174134 -0.8175044276736134 -0.7487586114679264 -1.028465771542254 -1.1908107165476003 -0.8309030017570173 -0.071659586253463 -0.21737897972921957 0.06566456073345324 0.5246106439905214 0.6689931732682959 
0.41200650381203463 -0.9789696841373641 0.30607279599274384 -1.283838484820279 0.4855748082269587 -0.971802976306324 -0.4228656596791092 -0.45477898905073827 0.7260519058979583 -0.48867403252416997 0.3512808978617042 -0.5905469559409012 0.18026656245027337 0.06397711699417034 -0.8108743430409922 -1.247701333105567 0.014188509441593418 -1.1739192762431632 -0.9747905112903068 -0.17789666571854684 
1.1781777729900549 -0.8678862892223266 0.7686232086916426 -0.13698028564313963 1.1795676820108707 0.6345076485055543 -1.3731451308605926 2.6600969610726586 4.4494184505705014 -1.147664848892648 -0.7054799800152749 -0.9064759031314196 -0.5263574091285604 -1.5456531667495328 -0.4057297150209512 0.7399827867862178 -2.233611410576083 0.20702734970770365 0.74951080936996 -5.310939820230669 
-2.1630128928334416 -0.9686301610057866 -1.1568595623257178 -1.1178256219396476 -4.518963646228015 -2.2177828591888598 0.14943422117082475 3.8091026381159363 -2.2187497465252357 -0.598716319123175 0.501163980237669 0.19349649572287417 0.1882797960703975 -0.42706007903869925 0.6316450839061303 0.2662762529353005 2.2973552979430067 -0.34540262208412653 1.5053836917189065 -3.047261538561404 
-1.3974812670097374 -0.67951890524262 1.9365060606173 -0.3074327168859391 0.8530830596842975 1.7983675678896553 -0.3875878698151186 -2.338876288455691 2.8503964969732785 -0.8272049779716782 -0.5500188246747177 0.3848875810971797 -0.22801779923505514 -1.1170590028990408 -0.5826531947712682 -3.6153558096151577 -0.9426187042372853 -0.6403149231305231 0.5680124379434432 2.208139716510254 
2.2773611469093673 0.005132193622136765 -2.2132554102506528 -0.35862045081490146 0.9091525289499373 -2.8953270335644357 -1.1799140863585325 3.525550795210418 -2.5267423461547063 1.5295630475089206 0.764281870946965 -0.9453344660229496 0.12401534372734235 -0.7484426028964559 -1.1537561221688166 0.17082961092587742 -3.0106180653879226 -0.5275880372298849 -3.873984583409426 0.4968945817522351 
0.846309040712506 -0.853389927952274 4.153523986588088 -2.0134761618551384 1.0612267619982891 -2.674749465046494 -0.7963862552434805 -2.312620322524912 2.696035100011145 -1.449067987488344 0.8472710466784278 -0.7878600885742487 0.23409612800040314 -2.1408848769757114 -2.1183521588499143 1.1910310155589612 2.9319032389067803 -0.08422056128879604 1.3188860015979635 1.298861667468535 
0.8066691923120283 -0.6449106131422816 -1.456420793910927 -0.38915820302813536 -1.5698952917959774 0.2147862763190602 -0.22565893970255382 2.6092745911970034 -1.47631701008857 -0.4071999264513828 -0.1272644481841879 -0.22382049872342683 0.7074529073059904 0.5499765511296164 -1.2586883834263416 -6.395935711244667 2.797298492365516 -1.0043353978253733 -0.6744158887210069 1.8395789663919375 
2.937927180863911 0.12968068485560907 -1.6369486781459426 0.7239191063730324 -5.464449671882694 -2.0893638295536197 -0.22426459346142877 -0.6940717444208045 0.16716228556534019 0.6172205307560885 -0.16342669614744743 -0.2695423510107106 0.5635856017974754 -0.5146062142501763 0.8130564032349918 0.3850653294826194 -3.9391894901127293 -0.5896628561694792 0.6543391453919883 -2.6346562127334856 
0.30595397286618103 -0.31986248983202165 0.054416089790747676 0.1267435006541136 0.3254656984371592 -0.614285522846144 -0.8427361768712489 0.14892917874637915 -0.9552041803388546 -1.0815930994232132 -0.8556021503357619 -0.301825616306986 0.2230785627145757 -0.3187114751284821 -0.315236636254363 -0.12132478971579036 -0.5554948291013357 -1.1018952785430338 -0.936169834840963 -0.763260659274786 
-5.612385467608785 -1.1867136748114973 -1.63964102111337 0.13066091055971077 0.9810534759477364 0.02164987088273181 0.07060066819294895 1.7826364726632493 -2.263919909458256 -0.9572117620772266 0.6458157776008346 0.3114209434608495 -0.8058475059860317 -1.193652278672294 -0.6618761160692748 0.35170666492103286 3.9493195636219935 0.3944234440371041 -3.7674106209483584 0.08953270707168513 
0.6482518215893867 -1.622349682035032 -1.874610701215216 -1.5180023103860916 0.5409476290589295 5.098066376500926 -1.8468553248644177 -3.684131231271024 1.4809953811958387 -1.318183554796311 0.9477842795333629 -1.7613889593437957 -0.3827411935949281 -0.5434518188135242 -0.9188479591812511 1.3818369952198224 4.1712462916362165 -0.6383100709453093 0.9830183468212845 -1.5818013193522005 
-1.5397212731150614 -0.26897202779189294 -1.283109218532507 -0.33754150910170583 1.6388531046366595 4.2984798164945195 -1.1848261505476896 -2.129145442175148 -3.901216683368643 -0.6872565503864614 -2.0480523489471922 -0.4038973494681537 0.05290093641972343 -0.27241598083961505 -0.4230417715657033 1.6174105519042739 -3.428737751632847 0.17311195560084727 3.0932036289879847 -2.874356500856072 
-0.13038242283700363 -1.7414087141462904 -1.6185183647598 -1.214913271623741 -4.184546295702401 0.24013130995567325 -1.5070240491036824 1.5033043020881305 5.150330151086058 -1.2456781817100582 0.18720698542190642 -0.1065534717053038 -0.2571879648904209 -0.2666781776490369 0.11137945844016955 0.7638592001458235 2.6906303292822358 -0.13675254153642155 -1.184760639782997 1.1398924664350545 
1.1175872146349046 -0.6631072429402959 4.188932909348585 -0.13017749495200023 -2.9976457720296095 -2.3825484670575654 -0.5711564062617509 2.2282922565359904 -2.4976070480918495 -0.27457717137723964 0.1937813730678468 -0.7529502677490835 0.84402863036346 -1.144942363993773 -1.01729227057768 0.10294003341686757 -2.835593841151176 -1.4964678148797577 1.4261305778995057 2.2342172790094823 
0.799042792642755 -0.7667938478151785 -0.2658858310469093 0.13484984857435858 -3.449559872565256 -2.1177599000017406 -1.4542956213149374 -0.7150232278120718 -0.8625078581874754 0.21773194996391276 0.9581781935587828 0.4154482796995479 -5.173480891886298 -0.3289917674438349 -0.5208654086574712 0.36255368798167903 1.5577743993901156 0.4045099629150237 1.5225456524277816 2.374882767313154 
-0.4915703196640767 0.5529725645632998 2.7290255969241692 0.32590738082978327 -2.798901310845331 0.09717566546152119 -0.7750897509854597 -2.298419717811409 -0.8281109930064208 -1.0644088054379535 -4.200824024575111 0.5437931863012773 0.06331990114118571 0.6645688924447803 0.3006289313189122 1.0234333290774171 1.984732026665755 -0.49057812177628146 1.0194295353425664 -1.5826435825912948 
1.6086127015623477 -0.5208149836088163 0.06287244890862241 0.3097081127022128 0.6205918008856236 0.7801242146152991 0.011840811977222657 -1.5136619434836707 -1.4810334603394129 -5.518170970003245 -0.15844637532999178 -1.0823417404046483 0.9618964696024778 -0.05634906671144235 -0.8373395416922009 0.7321541267007877 -2.2654060747876925 0.7074449444755513 -2.454166357046715 0.8484558942997309 
-4.903610441977127 -0.9278877295335367 -0.9815035303049551 -0.006774536762296377 1.99272181280217 -2.3106751851612377 -1.0723180177610905 3.343455444957396 -1.011741029932348 -2.6047050173978104 0.965014893345578 0.27878752251677835 0.21985530944409942 -0.6149494743818483 -0.9396584931388836 0.5135907608715745 -3.3990103490716383 0.80479172779323 3.0644105281402956 0.4341516143682711 

