-1.4920092805818832E90 -4.2738610470474373E89 -8.434114168773461E89 1.1398689054260152E89 -5.541696057080382E89 -4.176490778880664E89 5.583779389503737E88 -7.176664551737621E89 -4.661966074697291E89 -2.7794537408802496E89 -1.2751709657843637E90 -4.850198706507301E89 -6.473652875673582E89 -6.145878629447039E89 -8.893199199684298E89 -1.005804427613055E90 -1.5871961780656043E89 -8.030953477736954E89 -9.535008161282187E88 -1.1340489158074567E86 -4.758536186463244E89 -1.8345209119894586E89 1.1581432446504856E89 -3.815128083968645E89 1.610750135052739E89 9.476647582708414E88 -8.721342800209663E88 6.694054216341305E89 -3.348356225097551E88 -1.2069930528911813E89 3.401919659502179E89 -2.7311488969664807E89 -2.538955627693832E89 -9.271345883219349E88 1.8384629253603844E89 -3.390493335875831E89 -8.375710653676524E89 -1.1668187516874814E89 -7.432040778534855E89 5.906079502398917E89 
8.158724341142071E21 8.158724341142071E21 8.158724341142071E21 8.158686454050717E21 8.158724341142071E21 8.158686454050717E21 4.4394481838446923E21 8.158724341142071E21 1.187800049843945E22 6.780185182210897E21 8.158724341142071E21 8.158724341142071E21 -4.4393724096619836E21 8.158610679868008E21 6.780185182210897E21 8.158724341142071E21 8.158724341142071E21 8.158686454050717E21 8.158686454050717E21 5.401646023279724E21 8.158686454050717E21 -3.7192382702060244E21 8.158724341142071E21 4.4394481838446923E21 8.158648566959362E21 8.158724341142071E21 3.7887091354332552E16 1.6317410795192788E22 8.158648566959362E21 7.201720265473136E20 -1.6317410795192788E22 8.158686454050717E21 1.5597314542828182E22 -8.158686454050717E21 6.780185182210897E21 1.0915764771913063E22 1.187800049843945E22 -4.4393724096619836E21 3.7887091354332552E16 8.158686454050717E21 
-3.069183113394269E89 -8.791675980377178E88 -1.7349651319289133E89 2.3448020341082335E88 -1.1399714585770922E89 -8.591377505901589E88 1.1486283385918625E88 -1.4762976302733284E89 -9.59003924298476E88 -5.7175599354471495E88 -2.6231292565081653E89 -9.977248908809146E88 -1.3316824731978093E89 -1.2642566740009325E89 -1.8294026158521824E89 -2.0690206185602558E89 -3.264990218735833E88 -1.6520317345956853E89 -1.9614278822227776E88 -2.3328298472793018E85 -9.788691731376165E88 -3.773757092215196E88 2.3823938199544315E88 -7.848025372996417E88 3.313442603033556E88 1.9494226417340754E88 -1.7940503719981988E88 1.3770208019703624E89 -6.887838110289874E87 -2.4828818051809515E88 6.998022403718597E88 -5.618192985680384E88 -5.222835969985563E88 -1.907190430619626E88 3.78186613083068E88 -6.974517536839617E88 -1.7229510590520524E89 -2.4002400358222686E88 -1.528830574474778E89 1.2149280645263519E89 
-8.622025093488003E89 -2.4697793554845483E89 -4.873906948899611E89 6.587075853869386E88 -3.202436009379075E89 -2.4135110127590817E89 3.2267551307742124E88 -4.1472518072069696E89 -2.6940575373199827E89 -1.6061910748110807E89 -7.368959569200804E89 -2.8028334340923174E89 -3.7409953320679486E89 -3.5515811097341E89 -5.139203063881853E89 -5.81234388209637E89 -9.17209125551348E88 -4.6409283984265074E89 -5.5100917067438114E88 -6.553443290596294E85 -2.749863485564651E89 -1.0601331736712186E89 6.69267962819634E88 -2.2046866935050263E89 9.308204891559444E88 5.4763662883107285E88 -5.0398906662963145E88 3.8683608863314586E89 -1.9349485134213895E88 -6.974972961049651E88 1.965901757582849E89 -1.578276665579053E89 -1.467211995135287E89 -5.3577265165769804E88 1.0624111848502084E89 -1.959298712258977E89 -4.8401567183034146E89 -6.742813659093675E88 -4.2948286530338134E89 3.41300596025517E89 
-3.3085564088227257E127 -9.387741225777553E126 -1.855654075887473E127 2.5397163843372106E126 -1.3087514878769288E127 -9.16231041144805E126 1.4660475569843386E126 -1.5850760993460534E127 -1.024047388061574E127 -5.99731498487777E126 -2.8175247038021657E127 -1.0653814083535572E127 -1.4230450564585445E127 -1.3641360966277845E127 -1.9657654336465136E127 -2.2261573737389666E127 -3.4597280891418857E126 -1.7708798260860695E127 -2.0166211037779253E126 1.3871409447482205E125 -1.0457394277488828E127 -4.313148382583949E126 2.670071175834843E126 -8.826285268472516E126 3.628233956147247E126 2.155441144210195E126 -1.7729572761590593E126 1.4856999023961648E127 -6.477991823787063E125 -2.5927501756568173E126 7.539254682721372E126 -6.000825319719576E126 -4.7377239262968025E126 -2.061077302396379E126 4.2453112630016636E126 -7.459722169537456E126 -1.8503127069418826E127 -2.890027951069889E126 -1.641505452901404E127 1.3187106638291963E127 
-2.6474854933245112E88 -7.583723016876991E87 -1.4965855240633716E88 2.0226324532178295E87 -9.833424034609434E87 -7.410945021587228E87 9.908098511203993E86 -1.2734582511290871E88 -8.272393284523316E87 -4.931982363727174E87 -2.2627182534053026E88 -8.606401369173385E87 -1.1487128331051856E88 -1.0905511598995378E88 -1.5780475481510988E88 -1.784742672772535E88 -2.816389221687748E87 -1.4250469555779675E88 -1.6919328930635777E87 -2.01230521310897E84 -8.44375144785158E87 -3.2552528760400343E87 2.0550592273850716E87 -6.769727500316051E87 2.8581843768823844E87 1.6815771407791982E87 -1.547552608845764E87 1.1878217957451321E88 -5.941467421014575E86 -2.141740429943378E87 6.036512684743507E87 -4.8462681693295035E87 -4.50523215907385E87 -1.645147523468794E87 3.2622477542555016E87 -6.016237324236906E87 -1.4862221529375573E88 -2.070453420522231E87 -1.3187733081186747E88 1.0480001705434698E88 
-1.1763356854718536E79 -3.3696139359329903E78 -6.649656675193435E78 8.986998188707186E77 -4.369205282315704E78 -3.29284489525796E78 4.402384784841253E77 -5.658253420231671E78 -3.675605191937385E78 -2.1913875899220906E78 -1.0053751887821669E79 -3.8240122862163544E78 -5.103982255420266E78 -4.845557225741843E78 -7.011610257892169E78 -7.930001885413096E78 -1.2513833046500718E78 -6.331795175256468E78 -7.517627743580521E77 -8.941112003104223E74 -3.751743370230767E78 -1.4463800209580442E78 9.13107743565247E77 -3.0079379319060966E78 1.2699538058517996E78 7.471614872149385E77 -6.876114575586861E77 5.277751926646706E78 -2.63992387079387E77 -9.516220969341633E77 2.6821545594006033E78 -2.153302899420212E78 -2.001773144146293E78 -7.309750117995355E77 1.4494879982750502E78 -2.6731457734564153E78 -6.60360995158415E78 -9.199477201324273E77 -5.859598125464062E78 4.656493877301043E78 
-1.5755059094199745E84 -4.5130371662548316E83 -8.906108619138686E83 1.2036588644826564E83 -5.851823443574363E83 -4.410217810574448E83 5.896261866165989E82 -7.578288927785825E83 -4.922861536984874E83 -2.9349990316471606E83 -1.3465327717871363E84 -5.121628144955709E83 -6.835934932777094E83 -6.489817607230608E83 -9.390885214391702E83 -1.0620917979860723E84 -1.676019707448446E83 -8.480386031859526E83 -1.0068611435586619E83 -1.1975131734637054E80 -5.024835957479929E83 -1.9371853616532166E83 1.2229558821444152E83 -4.0286323414439416E83 1.7008918036923282E83 1.0006984850807819E83 -9.209411294311269E82 7.068670492257589E83 -3.535738743814615E82 -1.274539449726043E83 3.5922997240522623E83 -2.88399092598037E83 -2.681042033214933E83 -9.790193946777585E82 1.9413479801045382E83 -3.5802339543344283E83 -8.844436695000173E83 -1.2321168925898005E83 -7.847956656854932E83 6.236598711976514E83 
-4.222634540151545E89 -1.209573795012352E89 -2.3869946566789694E89 3.226018680942426E88 -1.5683922001157382E89 -1.1820163888423022E89 1.5803024834744559E88 -2.0311154906106916E89 -1.3194139760547512E89 -7.866316598524767E88 -3.6089460265418555E89 -1.3726869431206516E89 -1.8321514878988878E89 -1.7393859219267842E89 -2.516923359778885E89 -2.846593899884999E89 -4.492029299497712E88 -2.2728934723661E89 -2.6985659758600533E88 -3.20954714185308E85 -1.3467449246484733E89 -5.191999452292862E88 3.277738101868287E88 -1.0797447329674264E89 4.558690917240753E88 2.682048960981078E88 -2.4682851389707827E88 1.894528734871285E89 -9.476405296429646E87 -3.415991187986206E88 9.62799872895699E88 -7.72960585213648E88 -7.185666918392741E88 -2.6239451637261456E88 5.203156006098879E88 -9.595660331709934E88 -2.3704654900494984E89 -3.3022912304208925E88 -2.1033912123533518E89 1.6715187786221218E89 
-1.5452375959947572E89 -4.4263335730590056E88 -8.735006190724198E88 1.1805344042382462E88 -5.7393993485328404E88 -4.32548956286307E88 5.782984028783596E87 -7.432696313298257E88 -4.82828447760375E88 -2.878612400494837E88 -1.3206634457947086E89 -5.0232324201208866E88 -6.704604279008922E88 -6.365136492273389E88 -9.210469352216908E88 -1.0416870967180063E89 -1.643820342464385E88 -8.31746250307779E88 -9.875175228926264E87 -1.1745067830409565E85 -4.9282997853450084E88 -1.8999685328627086E88 1.1994606913459215E88 -3.951235039626956E88 1.6682146008277118E88 9.814732602120687E87 -9.032481873830257E87 6.932868568139101E88 -3.4678108180305263E87 -1.2500532454493832E88 3.523285159705126E88 -2.8285842526437654E88 -2.62953437457501E88 -9.602106642818177E87 1.9040511798971303E88 -3.511451195210833E88 -8.674519095609926E88 -1.2084457022385317E88 -7.697183238350449E88 6.116782389236662E88 

-0.5662016729348305 0.9573116510384239 -0.5523063097709324 -0.6048861838293365 -1.3900987871240495E48 0.20558685857523806 0.9136596478738148 0.7717684229170558 -0.6881949619162093 0.5231879339944541 
-0.05283483137512879 0.4168826073682017 0.21473922207905405 -0.7248615730301953 -0.6952746159572385 -0.16338820467168969 0.532982465526771 0.8695338601038984 -0.4432133722218843 -0.4649714692903004 
-1.2856446855988327E63 0.02559108949525557 -2.64467454071477E62 -7.429485114341748E62 -0.7061711366773884 -2.2813032727016618E61 -1.013632919171489E52 -1.3575926275642244E57 -3.6385883964841556E62 -1.3315108217714296E62 
-0.9593736917140436 0.5203196765206552 0.8421083126209581 0.10062806035676619 -1.5055093435284654E48 0.543454921230738 0.9331364710565979 0.855740306641996 0.44298485064058757 0.015248309113448544 
-0.861198148601376 0.586040817807262 0.2513589042417512 0.47392534380765006 -0.04307660178975148 0.9836118935752434 -0.6479341733580837 -0.8245291234038088 0.30387201168295985 -0.884656110743093 
-2.7412615737092707E62 0.709955838608658 -5.638995575244647E61 -1.584120580477788E62 -1.5926186949016545E62 -4.864212538257736E60 -2.1612759748447254E51 -2.8946695337984356E56 -7.758226410106901E61 -2.8390577051232106E61 
-1.0167929168788316E63 -0.118374672576391 -2.0916248249383316E62 -5.875844177585316E62 -0.01231903786635935 -1.804241121142354E61 -8.016637754378618E51 -1.0736952310204285E57 -2.877693153034221E62 -1.0530676068513366E62 
0.2952847649791037 0.7398097794542104 0.557771668779135 -0.8684497850634099 -0.9404477162763389 -0.3765924232698654 -0.5728060199706859 -0.028216633732571772 -0.23882403441911748 -0.5062953341445402 
0.10216617675290696 0.12865653902369156 0.7415325978947807 -0.678105788399054 -5.998502854196252E81 -0.49840516855110306 0.3041501068440351 0.958075963326118 -0.9849508297628138 -0.20111627055500447 
-0.8566950741266162 0.217984758990458 -0.6028799539058873 -0.1440300302177131 -0.5100252117532507 -0.2772657784995227 -0.3282429596506604 -0.40757186428165704 0.3030895231765274 0.45672533566608164 

-0.8891101560086714 -0.17866362757529086 -3.3071773119991565E17 -0.36007830830530385 -0.7999439337219632 -7.0515891244116792E16 -2.61558617506890496E17 -0.2442755894553832 -85862.70392284078 0.596688281851935 
-0.9733871160089556 0.11462972227056256 -0.5546658742004901 -0.5577925175897611 0.7486039083148421 0.014217297865111889 -0.19730470915887804 0.9933946809590686 -0.9391500906013892 0.8808153081048913 
-0.9083806760566242 -0.4860963334725059 -0.17122045612289516 -0.5580236585306415 0.516322023317709 0.5059325797658571 -0.5210353680975981 -0.5329062564300515 -0.2425566393814096 -0.31859443558119693 
-0.927944498686085 0.5001459575044642 -0.6386949205387935 0.25623743052763803 -0.6057505905817178 -0.3986320421670104 0.7250807386933351 -0.1624805106458873 -4894.960463866513 -0.6124213795442095 
-0.5557627229450002 0.23010187563742446 -1515.8080519465893 0.9459152913820905 0.2906010572604478 -322.2446393672037 -1198.0941438408393 0.868351600461341 -3.3082834093412066E32 -0.820776150114197 
-0.7878638571174943 0.7422637543798116 -2.466223634729283 -0.5385953959029286 -0.7049378928679328 0.3766025230080084 -1.675667954391896 0.6029666284646695 -0.3091413507445633 -0.5950790140578701 
-0.6092096512701668 0.29031618737720777 -15679.266450809648 -0.8389141513087377 -0.7770762094204604 -3342.5632244279477 -12401.97510032799 0.6030186044488675 -2.8712880777563597E33 0.3847051084620954 
-0.3636915600562298 0.7831677863966058 -2.77886072226092992E17 0.8711376474469257 -0.3490289959116164 -5.9251083926627264E16 -2.1977502268222912E17 -0.2952160962495636 -0.2904265835893949 -0.7791599359283254 
0.1563693370189223 -0.8143240194487105 -0.9011540612070403 0.2729496465647332 0.947814538673944 -0.1285570760074839 -0.434204716490723 -0.595702457065129 -32056.630942954413 -0.9384411722500201 
-0.28515143616426153 0.2030222273951805 -0.37128311566174044 -0.21301254282592974 0.2850423378227407 -0.9497473385524804 0.02579299448998773 0.23716829302322262 -4493.121285112766 0.7887068647762643 

-4.488372397852364 0.545812981825152 0.09231674813862911 -0.3020340336655133 0.13565398691859554 -0.9815787611858554 -0.057570772853030805 -0.6332523951059073 -1.8016685683611184 -0.26605931005595096 
-0.8326310893636963 0.6344860012419622 -0.36146885226630343 0.6685885261288442 0.5568270121275363 0.6379525313532435 -0.6310060263369908 -0.2918728418881311 -0.08948768165502802 0.5434730436334871 
0.01874510303024971 -0.7279081782561274 -0.6063452575705206 0.5764820608197251 -3.674062257035726E7 0.870867702330328 -3.188751675892235E8 -0.29814596841441343 -0.49693365975873344 -0.00846191968166729 
-0.7051747381683255 0.6453077181311586 -0.21785811167791058 0.32832037037117723 -0.3826790155780908 0.06524742452074284 -0.7959300139267604 -0.3606555472184103 0.9171414091749968 0.4421936816054619 
-0.561309673267541 0.5720816728410847 -0.4135827639052101 -0.04528115973863682 -2.225538592859404E7 -0.6066074768114189 -1.9315649664805228E8 0.3273043933017359 0.18805498567269507 0.0705508746636848 
-0.41196024294318545 0.9475267286080611 -0.8585649784276692 0.05267391146664946 -2.3148793279952854E7 -0.8407441432724256 -2.0091046504857397E8 0.22619177325885254 -0.004161498691932053 -0.9540317668061307 
-2.1840826886329685 -0.18969621530349917 0.38560423880877437 -0.6911412456886137 -5.586673685296073E7 -0.15693026081354855 -4.8487244058932394E8 -2.4167238305350325 0.17782928798430753 -0.9219419353751028 
-23451.126430775505 0.790236763451748 0.9361865617798635 -1336.7171438427329 -0.8274461334789482 0.9228374362537256 -0.4952094431738854 -0.882878020765697 -8755.711438687762 -1227.423985974213 
-0.732199465056182 0.4016006429898038 -0.07249806094797906 -0.12228199028627657 -0.340204397458864 -0.17921263901281254 0.026611460911852847 -0.9468499373825314 0.06277729484488914 0.12127779806631617 
-0.9815584725856508 -0.023897057277574518 -0.9436300711210532 -0.44111376939641045 0.8829282276258648 0.4367880391424215 -0.46428676675358105 0.4020627307928837 0.1341357630418185 -0.35144177167303514 

-4.715748809812974 -0.8069526834299761 -0.6207132002817808 -0.004542036826103324 -0.37599286264857606 -0.391086514933209 -0.9438387015035963 -37.68288107822838 -0.7177098971313212 0.4052267801948579 

