2.5100944976968087 -2.186680275056433 7.529433137936948 -9.586331268069962 -7.6744988918241 0.24895214393175905 4.928235156349301 -11.63783468666181 1.6210026778262159 11.0141020738916 5.7700584786475275 -3.403091683374785 -1.2126728869573113 4.712161829101354 0.15450284296039205 -12.884743496768403 -0.23564783126834377 -3.0809842760543162 6.462487555770169 -4.880642670243635 -0.12245974508364334 -0.6276936869314717 -8.436001603480742 1.0892597540499542 1.7269930483781466 2.9438989824216626 4.3297619724467795 -3.3710582085872867 6.360843320904591 3.1585628292674945 -10.97788165924263 0.758766885322651 6.937501972184018 4.266301092458362 0.32188776201967684 1.6122072755777586 5.9288950301518035 -6.520892218574644 -0.6424612275128818 -5.598926341589713 
-4.384896822844244 -0.7002696193725719 0.06828029219898525 -1.1185666052792538 -0.16722975569104748 0.9894584184222666 -1.656481331814599 -0.7748887763656339 -0.925529931416523 -0.5161607307227792 0.35673480379502337 1.1015416467392982 0.34031476414637885 -1.067768760546097 -1.1179489428891844 0.5308032764052883 0.659966365310355 -0.6134898294118164 -0.16876113265980863 -0.5348981904748703 -1.7403166485580688 -2.9198494211141397 0.49501962671010835 1.0387423504143263 -2.5628422525752774 -3.380868173954259 -0.3765166819465216 0.3768005099075431 0.4311468066030125 1.2263315683985605 4.0087756953589615 -1.2439772889841163 -0.20466497175062967 -0.40819398661563466 -0.7431352724268561 1.2855426132412757 -1.190915559712805 -0.35938742239749893 -1.4833762734076832 -0.36515145557537754 
-0.5210896065531418 7.322834514565283 -0.24655840782620653 2.39627831979579 -2.256634755925091 -4.059003153150132 0.5407958747270625 0.4257114772521695 -0.5746070101100799 -0.34295624359175625 1.0335969085552525 -0.24079031186708624 -0.3004429373932973 0.25268808607186755 2.235302153550368 3.2801079710086323 1.1635001790867556 0.6410791638966407 -0.3296621655188523 2.4192302726843087 -0.23944838762055248 2.474540831414947 0.9437389145418029 -0.3935132515620768 -0.331503606282916 2.259046080597229 0.13093863613040882 -1.1831080447648814 0.9475971263167889 0.9479269792949822 -4.618065585241613 -0.6100323174502812 1.7731795409875664 2.1757748678430247 -2.2953727778962767 1.292380918471097 -0.1494847400934871 0.6441900848690385 2.85441801677416 1.6073306119048625 
9.979930287469466 -0.8185976008009336 1.448832015710497 -1.2245952156153146 -1.862814630311678 -5.307654926259354 -3.692648313127653 1.5154815067898908 -2.2719071417127963 2.0271164771522208 -2.0223052657187974 3.8818946701982555 -5.300649648731036 6.516283092542753 0.4187192053081166 -1.127397855840765 10.579358319394549 2.887935003839395 0.428467179072281 -4.2142251322059 -2.279260300175924 0.9719101724548593 0.49869358033617905 -15.804776637140034 2.492728984771829 8.500205731430416 -3.311009290085826 -6.409124388370508 1.9093272573013211 10.390852953779193 -10.232859150853411 -1.660135146511825 3.220280360287232 -8.011357111965152 2.406516598183233 -1.114261943569721 16.565109603371003 -13.009735174556033 1.947738286457162 -0.3926584902318201 
-0.08171130179807252 -1.1337046548424863 -0.8137687037588449 -1.3238311167415202 1.3947925566609578 -0.32431580703885066 -0.9027420152985227 -0.5031463007177392 -0.20990466514716066 -0.5657445193299336 -0.4306280202868703 -0.41279288432226174 -0.6591125474111732 -0.4345709738693326 0.2952245923747173 0.8934932972619778 0.2739732468179949 0.20851520085075453 -1.4978016294638676 -0.020192604037098553 -2.2160776687333485 0.11522042519284756 -1.3403670141147077 0.4241764347635566 -1.4451391245391698 -0.4826548166485761 0.8525714440096779 -0.4652269888241713 0.4146057459777657 -2.7797217569944586 -0.4610681440444242 -2.4676292512258633 -1.1909306399948705 0.4867030671371276 0.8397267847655867 -0.3600695202185919 -3.083507652618051 0.3649689828653418 -1.6785688668469743 0.25906829787985336 
-0.9879415253418009 2.252894869736508 -3.7033343619780097 -6.518306218968638 1.534807310453074 -5.621240055162051 0.1001992452321309 -5.613963258972313 5.244182611932884 7.319173574695095 -5.319057203893109 8.843053628457085 8.85821563815475 3.5236745573917823 1.0497813129326485 -0.576749744962192 -1.453865366842689 2.0183046825761473 10.835269906531991 -0.11850702746925502 2.557870052360955 -0.07110815857369177 -0.15917431166993368 2.4340756737380005 -6.833178737621261 -10.314631366222638 -2.0588761609773765 -2.422727588667661 -1.8300025175880517 -2.9213229275746784 2.7137329947932045 -6.135912903659031 -14.030839281004504 -2.0074516435394343 -3.541711021190447 -2.570858981837665 4.697077862956755 3.245808722854425 6.579205179275366 3.683137608115168 
11.217366578257606 4.886278201371833 1.9737947563072349 -3.168137714482277 -3.6255121760148734 3.1551775945355214 -2.3392286089644334 -0.319645088619219 -6.890085435092419 -4.995451345582964 0.1965641676296572 -3.8058391192163024 -3.466971523910816 6.679921343963314 -3.2794854247447263 -0.053252704338952704 0.23224659937273928 -4.170795198593159 3.69071609554249 -2.6903742384050973 5.417591432478953 -1.6509117270935698 0.8285434285942306 -15.12930208011127 2.089120383586549 0.23682720029776388 2.733141217457179 -4.596256198277065 -7.555924380077887 1.2221617229942245 1.1400899528556647 -5.115412746784656 -3.879975327971202 -3.329583623705796 6.676023807692455 0.9459812192153924 -1.5399606175984106 5.939593303434151 8.95899127897455 -4.505105527163156 
-9.032373973036965 -7.134822167016937 6.641355878612662 2.0377799355552577 -2.434279306681327 -7.506133025350214 -0.9119818204708355 -5.264596507559421 4.831198528959977 -8.712026280321398 -2.778275263438744 -8.369444312971002 -1.623037642801713 7.53162364492766 7.6721721283517255 0.9316601027425447 0.4888569204565811 -2.8949582427998974 -4.9456877698087345 6.529758789345513 6.515108956780622 -5.690609425428209 3.8155157389193235 5.639828917599066 2.7078029464178903 5.1000442852601875 3.6048362099779503 0.7224003052956717 1.3964067392223602 1.1113644642830414 7.100292765904389 -4.977437214627562 -7.443922884401604 5.6104395908759965 0.506515948769459 -2.823526988979922 6.582547820757883 -9.581944595612619 5.799184465193681 1.165403133523403 
-1.4421804536210068 -3.451936923756162 -0.5945255934348549 3.6778935687429235 9.232359680815275 -9.484481403254382 0.12145495051700882 1.6407771223943568 5.119533496903764 10.362885440455019 6.560067463862618 -5.734443460441055 -2.863435507926544 5.215158080090762 -2.5722951892582686 -1.211593373517213 2.7911791208953396 -3.5444398674833963 -7.57692191201941 -4.03814638232981 -1.9099993930016392 6.014804416641973 -0.3749480196273489 -1.933919817668793 4.4708453619490145 8.08085788863952 -7.356758849139241 8.58002381586751 4.470647353751431 2.9065639125224023 3.476453502580209 0.3988082437300129 3.03556823146969 -0.7740396095016753 -8.255005796554329 -3.5822693904006484 -4.760364299519701 -6.511256124955221 -1.60104203918242 7.93739484580001 
1.1715679055470505 -2.239934005962248 -1.1990951454328964 -3.7712099933142533 -1.4816353254364751 -0.6066088762202446 0.3604309884725378 -1.4310107359494624 -0.10541312420817049 0.3254812462227336 0.8887718747074044 -0.7292012491194179 1.9913082955762889 0.03919528641255622 0.02269560347438533 -0.7650065301844715 0.17058618850853052 0.428770055906974 -0.5737526065487176 1.76791041645451 -6.716239836324808 0.21860550815704716 0.5572137323518518 1.1634623035621634 -2.0110117093214406 -0.46207744597220474 0.9840581136017825 0.07049988214289335 0.7616182725197287 -1.1744796198952665 1.2731238644807368 1.2116110964999574 -1.2526822650672966 1.6916498584066129 -0.20804946650592407 -1.2089797742599522 -0.16158842316990712 -0.5974294475681707 -2.3720449467083693 -0.31512582358224883 
5.129908434911467 0.11037315787987255 0.32047950438252815 -0.30971995043519995 1.6400355949821623 -4.34478139974027 0.10110359308424886 -5.728425449427312 -2.857420701251034 1.5618516867950027 1.5640121897781636 0.9541592848988375 -0.7975737832021819 7.384441651700211 0.352445045617426 -3.5556252827689563 -2.7930547209745624 -3.4724563911214137 1.872624771175597 -4.219102996165776 -0.7946524241454374 -2.3192876468458135 -3.2193712851802183 4.133084592189356 6.967724566235633 -4.257412270876262 3.354600746179007 -2.6423932586835104 0.4610885562575998 -4.056157234205083 -2.8067813144228935 8.007780726882967 0.2030645361855028 -2.5669016790334074 1.677920211075577 0.7802683730886865 1.7723099802286344 -0.5695883685766058 -1.604320395465698 1.323223558350848 
-6.694038617343052 5.740010231851157 0.09021586570092592 -1.3979386520506725 -6.250673372808412 2.1941745197938967 -0.32735619569046676 5.231252939270366 -0.44809640297619824 -6.45201948754153 -2.5731500457564627 5.793017468633923 -1.942114132117659 -0.5804578396486085 -2.735581286668549 -1.6314757665655832 -2.2928553457895657 -1.3147166330639029 -0.07144355780951113 1.5875092306430736 -2.986170939897504 3.445509437346315 -2.43209577830603 -0.12165181744155783 3.112113610151324 3.783872280058302 -4.060881982177822 -9.861169657652171 -1.3535181884022767 -2.9536745499089285 3.3336623506118337 6.359648483496992 -2.003591158648657 0.6204278493716754 -7.424201995080786 -5.235613548315552 18.365298867007333 5.681272459264416 2.1721460844214344 4.592337227238891 
0.5266868284323619 -0.6539987164267814 -0.3597973216116641 -2.348719546351603 -1.079736393219305 0.20674549193305847 -0.05703483661016344 -0.5227806710169104 -0.707105493079929 -0.07300336618654014 -0.663354094523333 0.28024430371639675 -0.711210460418682 0.40972385650824006 0.2114279561499598 -0.28629799582611876 -0.6360349658969484 -0.7780307083838248 -0.3037153217004957 -0.8598078786649991 -2.712174898320312 0.3898817822064927 -0.34301291952438534 0.5979719910007542 -0.8048601477067268 -1.7904111018575297 0.6721673302319915 -0.9114392529534844 1.1287114359703976 -2.3476636929254036 0.48573127017222545 -0.6495679212587799 -0.40607582018658794 -0.5870562139642233 -0.4032101890847365 -0.5860430326302932 -1.207319787443218 -0.5698341681467319 -1.8271250579112686 -0.16317090330560946 
9.497169809692327 6.760549153112275 -4.034260024871506 0.9712050063228438 -3.283147194675174 -3.38176220813845 3.671506527009414 4.183927231422729 1.4626085660228096 -1.048658141870737 -7.027866734339722 5.303353422523438 10.028546004781983 -2.9455819123092306 -12.1938439568764 -1.0946743351756223 2.9476911972284494 -10.746585166627899 0.20304509425634398 -8.910361570675068 3.503686189899649 4.986856993251588 -5.1539743175264885 3.7534251375319747 -5.0305397866787525 9.269347164050894 -0.79962853703532 -0.3889284245436732 -6.762202605572691 -1.829192962261684 1.5246645795542948 0.7871885531798162 8.431321965875231 -3.2897465471861103 2.5109195504445885 -13.054273495036012 1.959329930910371 -3.856858295526731 4.567510471451512 -0.3424340987574409 
-0.40653040693634496 -0.6676208457965983 -0.34026076364715774 -1.9049849924831577 -0.2905877567004409 -0.4833349954704743 0.1658198067694272 0.7961956984237323 0.5450884945994041 -0.949864320138085 -1.6315175682169722 0.8676644159877726 0.4595081637045173 0.11136041173703111 -0.05627967334520209 -0.43952082004494913 -0.3449512224321327 0.4242704202854243 1.005614025275914 -0.7273654205181109 -1.6251514434269287 0.9353380044005373 -1.1789598160810135 -4.7092764764253445 -0.7629674456982418 -1.4891126800288887 1.0832557826431792 -0.6844110237166797 0.5753830230065137 -3.4487836646815286 3.5228984404156227 -0.895946298639019 0.3091972564147727 0.18535451092465766 -0.20098020607478065 0.5093164886998592 -1.2411395001478844 0.6564178117369361 -1.134743350029338 0.5163904138894675 
-1.190618251301897 -5.362823467429544 -2.851829068748774 -1.4897346276598455 5.45257478657886 -2.4275366353761587 1.1133641930090168 1.2801412213563867 -2.022924688461881 0.8592296372872791 4.02836671559248 0.5274218307695084 0.9760889505560458 -0.047121329426959055 -3.767016143933255 2.5837589140263315 0.7409709865952464 -1.7396153047138658 0.18618345068090472 -0.9580682374562476 1.050006749253326 3.3396565209490943 1.1181111188441546 -0.783567664756474 1.8579728614836728 2.0335021984624304 -6.718367631531884 1.4511657854113689 -4.720270618861851 1.2123243710461158 2.499215810864254 -3.573292192800285 2.2459005967775845 -0.6243161852473778 -4.126498015822742 4.301626349326067 5.026870967307776 -4.326407779872762 -4.313784164372135 -3.3148570463644838 
0.7110848917591934 -0.3936629283549516 -0.9147560881423122 -4.072325763147081 -4.0817384861083 -1.078702932473698 -1.775827772198436 -0.6256614581235365 -4.4581065895337 -5.2531069088763305 0.3702210618187814 -4.102169849296704 -5.780343672512443 3.6272969281562197 0.8081843390832312 1.3887311421118118 1.3348494224304202 -1.597334212338987 0.060625818225223616 -0.8230106488412088 -0.5744141677970828 -1.175632921194042 2.0314769636320027 -0.15755511435141517 -1.6317992529927274 -2.451537647702489 -0.13970222507676455 3.2806512595023993 3.349841610664596 -4.801297580543866 -0.3750823749780287 -2.2276476237785663 4.402925440019276 -1.644387615139288 0.7451255851965689 -2.8719829584894696 2.0192930254151267 -4.866071821765634 -1.7139901801570534 0.04657364092535024 
0.0090087287666571 -0.592587727250745 2.561402502672398 -2.131692418630954 -0.7098281790681288 0.46005661695264377 0.3880909398514041 -0.8139132156331034 0.01923462950721472 -0.511465948111447 -1.0901709132907098 0.2570258547821894 -0.28617946544106887 -0.01880573358078562 0.1412943985177767 -0.4685690317420425 -0.06333876471501873 0.38499004398570585 -4.234282890345866 0.02405236859449484 -3.6716844525739853 0.6233366102085649 -0.6307717676946346 -0.37254250381217074 -1.2834656640324142 -1.2149609520430016 -0.07375219862496935 -0.531161949448459 -1.716212067803408 -0.8655096704426174 -0.2004677757107799 0.3791000737227356 -0.6186628561459508 -2.8942269167134933 0.5099200729560278 0.2369400907370312 -0.8592474648052719 -0.36852621488699544 -2.2992728717700066 0.06678915903883356 
2.4189050501493843 -6.483112501046646 7.2789354377706665 3.9321950137878994 2.6959810359110703 7.102225522361905 0.13680490587612193 -1.1708237015653185 -6.762850327840876 -16.105072669930706 -0.8127643172058792 0.3767894190069565 1.449468193692864 -0.6578992383010361 -0.5100369365145738 8.816955997007616 -3.1402653954264177 3.7817886419961617 -0.8950231933804578 -2.90837702292434 -1.2478708247894625 -1.843189356620888 1.011352908154099 0.32703959669216265 -4.489031109981111 3.2370069336492766 -0.6898311764216118 2.128292560604962 -5.531382830148732 -0.0648351245043647 -3.822449304108593 1.2462615736260183 -4.9151284206205546 -6.698382706001702 1.0197310483754218 1.8393571638385287 5.7183540562184625 3.8406257365322816 1.012237493889416 1.019664590049243 
-0.48645340855285857 -2.127455885368883 -3.3099343278735054 0.33847782929294384 -4.112909090455541 -0.5527173240442291 0.5812783841682773 -0.2725652423368277 -0.8217753393388207 0.003727378367844853 1.0698184621633933 -0.7082313399196094 -0.0179301489701719 -0.03434660748195981 0.2055137734976243 -1.0159367550971432 0.8793186068135946 -0.13279940663223722 -0.4435719267727912 0.11367763833074601 -2.9324005273510174 0.32938595739204685 0.21385536136234423 -0.7730789222274879 -1.4703182678093538 -1.6830451205274035 -3.4800913122575383 -2.468323303066222 0.6754944062610608 -4.256154750706576 -0.048139930052194004 -0.5537382913083297 1.1966550856884768 -0.6756092261665605 -0.8043358156571572 0.02022527697495263 -0.704776386294167 0.605182641698129 -1.742809112503256 0.19234639642586054 

4.490909920575177 -3.68932302563377 -0.02328114487872287 3.7073282495874085 -1.797423002130209 3.2982575131562726 5.476916559367218 -4.369346929015366 -0.8251817234443549 -2.299712704744693 1.8704191827386614 -3.108284820446003 -3.185849739492918 -4.494209835759445 -2.792684034354435 -2.481482443887534 2.3588670677278096 -1.0705098062326133 6.311434345254914 -1.4638593027567286 
2.6343869896969556 -2.750776372348845 8.376482048201428 -1.2489968999308316 0.0888225323570737 -2.1617494522527276 0.5906104425539171 -2.8182071837128966 2.498202463469111 -0.41235684963739744 1.881568533855977 -2.0871839134410552 -0.12724724896546058 -0.9247947794772392 -1.0409154951371096 -3.6258526824930386 -0.47384977348012 -3.4565178429095433 -1.8755095683757492 0.25639138703690917 
6.49972355078965 -0.8896176929504458 2.5471180366617103 -6.473458399912071 -1.574619845524039 -1.8768791446158046 2.483573461714766 3.427333181680422 -5.182333857776797 -7.729387042124084 1.2854473161682558 3.3939865373268354 -2.7588519508978546 4.042395126811148 -3.2783847480127735 1.619135153688195 0.38971491330696767 -1.0498016177291225 6.9382986927141514 -2.190086063349308 
-4.938091912337411 -1.1870478641164497 -2.015884658366267 -4.856707810201991 -0.5958376662431678 -5.697871209653697 -2.17000639948096 3.5682492100168086 6.179398267227945 -3.0172350567746022 0.3400522212791421 1.554548218480686 -2.236718424043603 -1.085783436787065 -0.08532069489967832 0.49892408444681596 1.0034627575748045 -0.8807653222594989 5.7423736537749965 -1.512289907780956 
5.790455144989072 -0.25252277644914095 -0.9740372862411736 1.3186854049010779 -1.1993775005386693 1.682545556613174 -2.082204470114736 -3.4293969852821387 6.433174378112261 -1.6358816509258807 1.196699695292644 -3.4876356013986918 -0.6461552088637674 -9.91238433155401 -1.9966749368989485 0.20019037995057506 1.9706058426570678 -0.2696498033361437 -4.178676122661072 -6.360597098316502 
-1.3151192318327851 0.7327142385693292 0.22229762633517536 -7.5866948647081704 1.2020833983458445 -7.605770853484091 3.147307936448992 -3.5786960652628466 -4.55302110258378 1.0051546718781865 -1.6905292382714163 -3.7443268165475967 -0.33211034014075813 -5.270259063382974 -0.08163139940406335 5.134845147506071 -1.0036516998410334 1.310920467424477 -3.4014112710271296 -0.24350305710943368 
5.412417226577058 -0.7509786171373526 0.5019829877309273 2.6472126232232953 -1.1090101539633468 -5.486153945470271 -4.995468914332472 -4.094640745063072 -4.731413590945857 -0.8238781689647482 1.0476262410357247 -3.1820463675251762 -1.5730335203581356 1.3402046603252342 -0.36315137308844564 1.4769830084399207 -3.7646542929855964 -1.0106177113827974 7.7474367310040035 -1.5973706389780673 
-7.881973988106456 -1.4937888757294433 -1.4799816369277585 5.661449263128487 -2.0764612488410723 -0.9826865031716217 4.963832208696408 -4.0657882288489375 -3.728985240438521 -2.209044775588191 2.122196441284135 5.437730739626285 -2.6383751833382383 3.7254289903610616 -1.7639861772952026 3.052004472434857 -0.3465968782200269 -2.0157710147636307 -4.414608913692382 -3.1513376629365775 
-5.19775863993827 0.033790267283453225 0.35022363774113374 -2.496269544944056 -0.3322001578262878 1.9312788559020757 -3.0354205530944145 2.815777236829155 -5.167150122577016 -0.07402431215928794 -10.013808783255733 0.654813507224334 0.36773942577639307 6.391836922578692 0.3581029448023437 -3.206353265106634 -0.9910937584600041 -0.4896082635817391 -2.353220663006301 0.5139700901230921 
4.03502694158537 -1.762847831231835 -0.4064898573646001 3.1961935996044133 -1.9441852444482826 10.018180798762245 1.0541300941609038 -5.3341890755846855 3.645591743113635 -1.901647019466255 0.7188728301809136 -6.022638540821026 -1.6524572220232783 10.019700112063767 -2.129706476740553 -4.638514619246707 -5.387370328997711 -2.012351321669018 -3.643098265832509 -2.86505871909175 
3.8053457532177775 0.09999720881749648 -0.9119536877413615 1.996903643575038 -0.22828015841938198 -4.054972292924174 -2.2329504770918747 1.8380874816648656 -2.618178526375769 -0.9096351508565568 1.5709895515699668 1.7474450551461476 -0.188351923255955 -0.5255644099488797 -9.518840033554907 1.6850472191761172 -0.1834836245883926 -0.9788353058286918 -1.5972366135596736 -0.2446595874057507 
-6.850525251525513 -2.3274949446574635 -0.37791769771410183 7.5794621804737785 -0.9384866297158367 3.9748870485036094 -4.612766158070978 3.1166330254332832 -4.249486948775267 -1.8150095623282383 3.522077260521202 -4.22808956017672 -2.4809018448398485 1.9884511619730496 -2.0329385753331977 1.220405764863805 -0.020025725378484665 -1.5190602967870355 -5.433559542525926 -1.1349293617306353 
-5.624078209750335 -0.8705022727156275 0.038224227313812455 -4.156567730539752 -2.312713318258618 4.231584260887581 -3.4166126830606154 2.0347453034939154 -5.07579958852741 2.548272895129661 2.0470689866407725 -6.758888226713065 -2.057842524707904 1.9329979193020597 -1.501707672050388 1.7601997184725526 -5.5780895680637865 -1.043423617351173 7.581369929699582 -0.8735892454789462 
-4.729795848770286 -1.1838141780519025 -1.023434725272305 -5.074814809935893 -2.3748607586684236 1.8088949357005348 5.8523855905749 0.4384634480200173 -2.0592156839304163 -0.07537236558602439 1.6014417635980058 3.194443064014772 -1.5725743417539257 -7.65153917760603 -0.9900222725177396 1.4209202309322204 -0.5988723405576621 -1.0365277784372093 4.320292102005286 -1.850741889292909 
-1.600810107995283 -1.4170924880194047 -0.21534730292024892 -0.516279744495158 -0.25492927986731595 6.750813201295743 2.42887614102325 5.338454219417559 0.7991194306418258 -1.5029031020136119 -7.038396664554641 -4.249510117922711 -1.3004229514669434 -7.416681817975975 -0.9405780050679912 0.4940941792409117 1.7716694011131373 -0.6040049891151611 -3.8974595887141334 -1.3553814559582744 
-6.786599787416231 -1.120491283499944 -0.7329017655661727 6.3350943875842 0.09386558637074383 0.779531452519205 -0.6121522144923506 -5.779950824720541 -3.5020385190047914 -0.2962219639497465 -7.46648921987423 -1.7505345673739459 -0.7593175600022468 -1.3897449276587635 -1.4024717263465605 2.6473499490242935 0.2870037000960038 -0.09536798059453137 4.692771647455196 -0.4741078611156436 
3.143853776623658 -1.0392767762707784 -0.4587649070989057 6.4116001542125 -2.5131876141394076 -0.6675921971369739 5.566600500596256 5.133345775756318 -3.8547448148821153 -0.7799633855343264 -3.8606380242768976 -4.794136630833637 -2.4571936184428043 5.439828042829323 -3.0576473848525954 0.6716936271361198 -1.0627534790034048 -2.325816475232358 -0.9306104896617511 -1.8264141503438789 
2.9519459261428884 -1.0959434942529356 0.5229565689032265 -6.69794214575721 -0.5735810498830761 3.5144544694472235 -3.611035117153773 -4.422906258108755 0.6545469399443545 -0.7679473332647584 -6.304524405845067 1.6280342029912498 -1.317195035074884 -5.181113412536605 0.09223786281838514 -1.603263768900081 2.132303218323583 -0.43899339111165986 6.680410410612569 -0.2609529286529745 
4.447275434967228 -1.8617700522912528 -1.0691462727635952 4.9539990529870845 -5.008944087082211 2.4335874780387385 -6.8903882697569845 -4.1248506358343615 -4.2978841083777635 -2.7831426869417575 1.9422969844799252 5.591167482059896 -1.3875419686074897 3.76465975512883 -0.21862436499423415 0.4964313416727767 0.24285700219249498 -1.5342570336930772 -3.6688756112250935 -2.625657179548993 
-4.522996464446755 -0.4234910145407235 4.831427713915708 3.449321862622168 -1.0633676453624272 -7.047209685661742 -2.8673067444129665 4.994797085113948 -0.936111084797999 0.4896315996355867 -4.878796815223563 3.5264645503273946 -1.5398810937894467 -4.080578435188708 -0.6214923531584657 1.7651495458202613 0.9174878859199737 -0.092017570042796 -2.0249613910798554 -1.0881803949480264 
-0.07732859389920857 -2.352169925060744 -0.22899772733685322 -5.5394457660446035 -2.5369378664491906 2.2996722119040074 5.7948419522547345 -2.772951380768484 7.0487603843356395 -0.08585354464210497 1.1141536455754217 -3.122920982239291 -2.8607152385868235 2.1913420381853634 -2.765736127547429 -0.5799645761207329 -1.2143699798464442 -1.630183892304777 6.034325798636988 -1.753233734182336 
2.0706206050592786 1.8658698907153228 -0.5553192303193429 3.400883833262335 -0.8433983463649961 -1.4124144392204083 -2.6341775894694606 2.279842055917339 4.0281940913097944 -2.545206479283082 -7.740883601808075 3.4815491709403203 -2.8445041272990714 2.6050461161263483 -2.217634078431624 -0.24687434290630067 -0.7357393790044593 -2.1923419205878667 3.0956683729649392 -0.8787904013175082 
-7.661492567189738 -1.9599135781628778 0.2969984077424599 1.3149252185807927 -2.092023193071347 3.687928065273942 6.368432284627102 -5.670232839412905 4.369213853243522 -0.5208675251869148 1.8536792671620348 -5.495686650570065 -0.6988001594803527 -2.0091857388479593 -1.0439302929597538 0.7811084164085128 0.9013267445926568 -1.5484778798039667 -4.187135541143283 -2.1957928075758906 
4.605034611793975 -2.196068717251287 -0.5121750301275929 -4.837749869015916 -2.2428580930207684 -2.0767708003761958 -4.311088002695368 6.746205188109628 -3.6117524103049 -1.310354089096138 3.5674590685909537 -5.358170055371792 -3.2055312849420385 6.9025830592876405 -1.1832602019144214 2.7049736913532305 -1.320757928585729 -0.3570124907259704 -7.937438575202725 -2.352270840014583 
4.160218608245615 -1.1874565840717204 -0.4825812726784058 -3.6660308835843294 -1.2088166959565554 1.7602789904505367 -0.6711131803689543 3.2252808734256972 4.715832282632421 -2.216141186448964 1.0406712282218098 4.852261772626888 -2.461426560533813 1.949867174874323 -2.3793451969701 -6.486338819073722 -0.30571976062572664 -1.8589284774420185 -0.7912616923330454 -2.146717958913491 
3.395628537430782 -7.387478801960584 -0.09611068306123587 3.873456876409862 -1.1982735923280745 -4.087220271606361 4.271916401678052 4.9844053803364385 4.918170268164771 -1.6745608621335837 4.01791084741404 0.6919156495762635 -2.664607876547623 -1.3197516026276455 -0.645426230271309 0.12755688113752295 -1.4859180980878712 -1.240056719246121 1.490686296907205 -2.727002896442049 
5.49288855861126 -0.3701817935168286 -0.7681259264379828 -0.6964714163008503 -1.6203972738610652 -0.6082995434436127 -4.389254452102032 5.629451289368935 -2.5980520520736388 -0.8413409220396949 1.5867810631492951 -4.279855803392793 -1.7488323975676696 -4.697618124171839 -0.6940846199838319 -8.532749671624668 0.5168411034719591 0.999151160206006 1.9535903213362256 -0.271417014115656 
2.4260470808774097 -0.6294143857862922 -0.44949371695548845 -6.328762132080082 -0.8153538708831799 -0.021865933523058448 -0.5692015787630587 -2.280240971034688 6.090459071510586 -0.7566492269141163 -8.367320219541782 -4.115608626735462 -1.7243718561757286 4.974678528707656 -1.7902671088172268 2.7030260219771183 1.2110008649832862 -0.7549820551521491 -3.6202453757414257 -1.0762893873088721 
4.532537890101395 -0.0720144365343564 0.3888250022821974 3.076494795249213 0.009271771107388313 -2.1874978614561815 -3.7795870396097486 -4.423052815318976 -3.4271645773963577 -0.02712199935966135 -7.669972211926615 -2.45752213283185 -1.377621595158484 -0.5599864602627498 -0.15864174733613617 -3.3988729675158753 2.7126382121985446 -0.5425679964948062 -3.3970419677699404 -0.03617711322548298 
5.38271566004629 -6.274505296745202 0.39665521482603205 -0.39161703297646466 0.02036835126697825 2.341473140996975 5.551782474728686 -3.194180160296536 -1.306362458402807 -0.9202972170720085 -6.745375447941688 4.998938703653359 -2.365857701161479 0.999148341871034 -0.9383162909824361 1.526918031379508 0.9147780873230739 -1.1375342464839293 -3.693035440919739 -0.9929864886787496 
-7.698652435757245 -2.374708204793173 0.7685779861898985 -6.260682673396237 -3.9246185975469388 3.0434750912682786 2.1390584196557145 6.193000842608085 1.4760301057890495 -1.2726931094475435 4.873605909642088 3.0303810163151645 -1.4309056505848208 2.9167746961626633 -3.3373059847887343 2.34705410782123 0.017572516306356086 -1.5982922549035397 -7.502467772554152 -2.2875468182862817 
0.8765896478553219 0.28019211933089166 -0.9128186236745478 0.6251773202944767 0.5225801574304015 -5.260416603071205 -2.4038423606810286 -5.483260930504545 -1.0495423512487334 -0.8370485987386919 2.565425473034091 6.862770566270058 -0.5204282215689774 -5.012160058375139 -0.12238517543471197 -5.12963316700038 -1.4673169268882735 0.5578513741552034 -2.551627866128894 -0.9957392223986795 
-2.043545717135987 -0.24843289588320452 -1.7350022505601341 4.701041051382839 -1.6344207180403885 -9.973686655635642 -3.2144665216571524 -4.452681171534574 6.788019298427757 -1.3743834644252908 0.0801258677600235 -3.134387280218578 -1.136068482570073 2.1551592373239976 -1.0441979289287968 1.9872277704451393 0.5405640549436792 -1.430577109844888 -3.2018830572020573 -1.0415958789654902 
4.368437521894177 -1.5427944164460334 -0.3769968780190002 -6.619632460462309 -1.179487250740501 4.497001906734269 -2.987877684004239 0.7175568150874009 -4.074511943675519 -1.9686182367489433 2.7140781656858435 3.181477588671747 -1.9718300614181572 -8.012378103528462 -0.21614650749911965 3.3873604975950955 0.5142350694794332 -5.972269792553904 -4.171230900174814 0.8610183131076548 
-4.525301267525895 0.010776862477733986 -1.661413600784778 2.719095236649474 0.06799239458989322 -6.151262403101105 3.086287942593684 -3.012611484823727 -3.531527458375862 -0.3045335951670615 1.5740583654736051 -6.131406823369296 0.1793645995140599 2.526681996719758 0.06657425936388871 -9.266908242540026 -0.12315771398008828 1.174274765314468 1.6466511635593926 -0.9944494581492483 
-7.296712643901492 -0.46756335278225314 -0.1614154890133779 -2.208820230964788 -0.6243290971333547 1.6616039096325939 -4.10069205526038 -2.19768084374252 6.826837341687066 -0.10449949244288387 1.6523197812129848 3.5506041802850867 -0.3118455031141564 -8.157047634283922 -1.4869184145870649 2.2079032961720366 -5.664667470922812 0.7877070450401693 -2.1802998942519602 -0.2358503249951438 
-1.2198407687385915 -0.9884417090129638 -1.3144663673734234 5.955998160774426 -1.8216788254814966 3.129469313097831 -3.8735071832347794 5.339566552727121 -2.6907049749798264 -2.41154056614987 2.769152521805811 3.5527831673127217 -3.3920516310736892 -4.796001463640633 -1.697275218915838 1.188932015536081 -0.8244778045553082 -2.0540517158381264 5.452273229642584 -4.92869508404586 
-4.5556442531303905 -1.4664215962038243 -0.6069956451870789 -9.611578080806547 -1.9073145333275094 1.13031455787788 -0.4623026356667537 -7.989062594123929 -2.928709140615881 -0.9138806722184256 1.659299795220975 7.504632647960245 -1.4028580814601597 4.643095187609696 -1.6561938226351547 -3.38746625831351 3.1938483081608244 -1.455489022137875 2.025386979327013 -0.45196678879859153 
-0.12942801190172315 -0.14313797087000432 -0.588228154024434 4.02333192497556 -1.3637488379643603 2.925256374836461 3.936855678533102 -1.3957034184663317 -3.8571202061054044 -0.541635604183226 1.848863242923052 -0.948876075594797 0.4105784826261697 -2.693193514298754 -1.3777367992639442 1.2544441317156114 -8.958572267293778 -2.6065117881589637 -3.5340808592044373 -0.9778770076249301 
-3.940802368026095 -0.4686953480526557 0.9061118090384942 4.632462789310092 -1.6804087197160191 2.7320773253372157 -1.1702297566787843 -2.1015236064285747 3.506055290549684 -1.6256510254718832 0.42783488904215006 2.700053993201191 -1.5003710640302208 0.5537634638532181 -0.6283316032540105 -6.893878666357933 -2.421989448377559 -1.020630749819514 4.01377033137441 -0.7617700530609874 

