73.07230331983196 
-14.228359450740045 
150.89223654693606 
76.76010635495552 
44.4931996710905 
186.25598673255925 
46.80216882708991 
155.1221883003647 
42.12843783880221 
45.77663339935178 
133.60781211502245 
28.372746253102527 
122.52755310801123 
33.49725190096469 
122.8253136971179 
41.38038108147391 
112.865213188984 
31.253770900696423 
73.48430099667135 
142.45522699608603 
43.82199803050325 
23.878406083237635 
269.81723738219256 
27.2750957540068 
59.38407118738044 
59.14237613194161 
56.306002246475344 
115.42135942073098 
77.34688287160067 
74.15930767059281 

2.062896030822768 
1.0266222056156762 
0.5078112112217126 
1.4221870397794654 
1.361639887032517 
0.23725215164224023 
1.590588292744547 
1.2323688918056035 
-0.08101696505919692 
0.5284917883541034 
1.9193939180400847 
-0.2657588727312402 
0.2475169168638052 
1.391258666864912 
1.4358253885075631 
0.9249641609398249 
0.8556117062706085 
1.0197842915551438 
1.8044485167430662 
-0.5498996445768459 
2.081765374819323 
1.1688729348725357 
0.747233512414014 
-0.9585194964963533 
1.331277715797724 
0.394610324304043 
-0.17366759874020432 
0.43875888243348826 
0.6367694276497016 
1.5742866646007176 

0.8249113251031917 
1.4338884602321196 
0.15269409397279077 
0.9738390010985557 
0.25987953320020335 
-0.7388720344920313 
1.5677769212394816 
-1.0815358305179925 
0.7332577673721585 
-0.4960813304107588 
1.3959314374549348 
0.544992561660045 
0.9505992730109816 
0.13297098667694704 
0.4069098881674128 
0.02220688014906545 
0.5289742828973786 
1.4194533644495586 
0.9935784556699784 
0.628286017696746 
0.14091604615654718 
1.1728978117993674 
-0.05550434772507567 
1.5341787715967885 
0.4968364066685842 
-0.1825572221612492 
0.5938496586844758 
-0.5159499294478498 
0.8563046736007998 
-0.012868847456369351 

-0.8868339232837813 
-1.6321632409663067 
-0.030029517715027397 
0.8259453829949615 
1.1776571729022582 
0.7341244534947617 
1.1259429971635841 
-0.2366554508058679 
1.10494808594072 
-0.031150330088308382 
-0.17957210091309342 
-0.10013081486359271 
-0.8374598602722865 
-0.1511280661358786 
1.3952986883388598 
1.047860346708674 
-0.07963496579009902 
-0.6805672240659395 
-1.027498546040054 
0.5506052436881711 
0.0724490889008194 
-0.6742486701138807 
-0.06962272112648425 
0.8682900159690446 
0.859925459296386 
-1.1738169750771112 
0.03217536751561576 
1.6265003045771693 
-1.3646079902363561 
0.18774951106928112 

0.09228504983797178 

