0.6567405310504747 
2.566489354048339 
-1.0004966367757078 
2.4144631895747204 
2.2024775066179174 
1.6108847873791587 
2.6176164940378834 
-0.5074029827821328 
-2.11555724758607 
2.478127552198841 
0.7122530010731262 
1.5259505235681639 
0.19796284736559214 
1.236208723572254 
2.3924685826735916 
1.0825237460121002 
-1.1775462639456171 
1.3470885979416811 
1.0757306178143793 
2.560691686566892 

-0.46827773625183805 
-0.8799573517833249 
-0.8192126959966868 
-0.6856745201293686 
-0.09871370194651288 
0.288201190581928 
-1.4938939755165668 
-0.5681222574547535 
-0.601612315104263 
0.35143516086852217 
-0.6229891913054697 
-0.2218007898748029 
-0.27499308885865686 
-0.9823114922386372 
-0.11661515165215207 
-0.5688020762868916 
0.7185998943888599 
-1.319936792052403 
-0.6092334250067654 
0.30192764240530023 
0.7777447235601731 
0.3753018632572981 
-0.31329511317198105 
-0.4315486782255608 
-0.05531288447767631 
-0.7855040461803295 
-1.2971833863123694 
-2.222667056694668 
-0.05977124173083627 
-0.7591276875714682 
-0.9922955435729048 
0.06608763650739054 
-0.7343723084593765 
-0.7249938157228543 
-0.7562882331666622 
-0.8107186419902209 
-0.10595834198733019 
-1.0103564116033747 
0.3538589465969792 
-1.2301906697064584 

