3.9979288677088 
2.626924620508816 
4.1005021635202 
4.203305490997741 
-1.8165348728760264 
6.310539478600051 
-2.7730758724372615 
-1.57860031691862 
4.412974988370744 
-2.931547729451436 
4.485259621426308 
2.733513083237405 
3.345887713649547 
3.855793268492319 
0.37727221368120406 
3.933574922122499 
1.043501231510893 
6.699510769474878 
-1.756497484406535 
4.850000397619987 
1.8906740743248758 
-0.1414181700295196 
5.481884220298052 
4.151234687888031 
4.55294617354695 
2.3991303390355685 
-1.3824416617524746 
4.927927157177719 
5.462212003921926 
-0.16078606244146634 
-0.27361129144188373 
5.033514551446041 
-2.3093125936226304 
-5.565365713878519 
-1.9183601559259387 
3.2310945023743787 
8.627559453003352 
3.8938746241195448 
5.322773595561124 
-0.772528918628053 

-0.7039949503966259 
-1.6399668244976477 
-1.1595516580885799 
0.14087342296430846 
-0.25942966244917226 
0.10838264803550002 
-0.17898900095417336 
-0.9778855882164043 
0.9331021781273995 
-0.8375310126603485 
0.3243636456888141 
-0.9824373759062077 
0.390775194008872 
-0.6157121708451015 
-1.9856196321029504 
-0.6258162360561802 
-0.7433623244855982 
-0.641178706962521 
-1.4378511335676325 
-0.4891334762501709 
0.03615048076804679 
-0.9416277709829087 
-0.3563827536756373 
-0.9433438177519075 
0.07855552334819949 
-7.349475131046885E-5 
0.29630602874049344 
-0.02871569556717273 
0.8080647023622243 
0.42204219304025226 
-0.9407567137690848 
-0.7797661830752394 
-1.1011054777867462 
-0.25556699295113317 
-0.5526182502370964 
-0.08260417074350576 
-0.6123899551352862 
0.4404535268539135 
-0.5397752436567742 
-1.0424080833968883 

