-0.4387668945983324 -0.670989554074294 -0.12040499677348349 0.18113496896681847 -0.3393385301940719 -0.4994670351475696 0.7616403589580519 -0.6364433693775999 0.12053525410923371 0.9200266245924247 -0.950601378519049 0.39795049294253926 -0.8396753243580031 0.5164308856082441 -0.09291897363459634 -0.6429748448045688 -0.40193153477797416 0.3261585794107478 0.7243975990966487 -0.8394172837690516 0.4184600214169829 -0.3576610293306395 -0.1822379448472895 0.7742258412877562 -0.2766731315034149 0.5932411352421016 0.032593468555720095 -0.10331955318562036 -0.5224657677450101 0.14258346398532962 -0.1713094935142958 0.35776214928240646 0.2566619384089393 0.5542909217585815 0.3788911987259418 0.9194178824150758 0.8051072187598369 0.737763524191023 0.970872564508203 -0.05063980818117786 
0.6222548845023879 0.56699951828227 0.5742131195824367 0.5154953538194329 0.04492510281435069 -0.732035945512421 0.8196046577214156 0.8605188008981552 -0.6986102291263652 -0.733254854345825 0.8343642070530528 -0.07868969316264329 -0.10125877722158738 0.5169845074479602 -0.6118272087551238 0.5866651444636279 0.35018211262175525 -0.7467049021504022 0.6252106385766691 0.7238154746643257 -0.2638125729638807 -0.6375028859766652 0.2936530718772803 -0.3452774862931392 0.8823138349098456 0.12103681441657699 -0.16926577713235158 -0.27402138061769366 0.04019415880159922 0.9160667348100997 -0.07863899922569062 0.8915901120360288 -0.1257363248532123 -0.2506711727501853 -0.7794742977395688 0.8157759866426291 -0.7147159878628225 -0.18289001655797366 -0.18547314701158468 -0.09669746043376248 
-0.8573417947369105 -0.7339203537757953 0.6932786519589791 -0.12220361607481944 -0.6481276818098185 -0.6551588151825736 0.01586356534711074 0.05383172959574045 -0.15363017313690053 -0.40046475654694325 0.27284707887318915 -0.7134954764446506 0.07789316247401867 -0.48783656507544537 -0.4131978569334769 -0.26730202073199905 0.3625066190240198 0.02994962346489083 -0.6665713023132653 -0.9798791402514005 0.04932723415442952 -0.19364474032787293 -0.9666710919962143 0.1995447750491296 -0.10826263225891695 -0.3408287495375044 0.03043712094889517 -0.0650304448342709 -0.7689391330647396 0.7382434168750851 -0.13896732576070003 0.7977978328245815 0.6415555443958272 -0.7916429545825084 -0.586375223077936 -0.7630163932015552 -0.4597819669079928 0.8678784886478208 0.9898791809005307 0.8209296716927676 
-0.06253126951574817 -0.9405389436489481 -0.8009808189701124 0.6933851847345498 -0.03726806723900533 0.4668209801608376 0.2529020364125071 -0.17406878212806287 0.12158537843322148 -0.043858291813214434 0.676235432620165 0.6196484881141462 -0.6860721004064447 -0.5165257918183656 -0.2938355811250031 0.6806784831174743 0.5784101341483932 -0.7256904851439692 0.7277270711491459 -0.8168192781678439 0.24863564372821534 -0.02526605389755021 -0.02356063416171872 0.13346762948006685 0.7496914522196455 0.28033038452043346 -0.5634620600160609 -0.9380079396525918 0.6168559369240695 -0.3318675894203902 -0.6268260494501796 0.19524690100154862 -0.5156516898408106 0.2885761480950547 0.2591174452494067 -0.0024680193052877275 0.7704993467412011 -0.18146327398998352 -0.008703445768618367 0.12293414366451927 
0.5767693801307817 0.13320974704672695 0.23976193242206034 0.28075157007158547 -0.07870944958701886 -0.9765338018644436 -0.4686019498917694 -0.7070082516534668 0.8445746813614501 -0.1320886125262597 0.24324446378921505 0.7104566217155144 -0.848372226238111 -0.8388751975089893 0.06408913184535248 -0.24571176471776035 -0.4018661698173458 0.10833629481029972 -0.3178045636461557 -0.9369519206131306 -0.8200434892982755 0.11496936142581604 -0.5356277375991865 -0.2504139179295496 0.8522240176899022 0.9301549729144047 0.7157969938556492 -0.38753031607300525 -0.5177406065002977 0.44960164848726714 -0.2562010904847991 -0.006215241877913885 0.13229099489640905 0.7379142825363173 -0.6036468788541738 0.7401517219180904 -0.12895209500626748 -0.29916234757555826 -0.9942340470464495 0.9996740825918637 
0.227357493993478 0.018298145696310327 -0.2597016701174455 0.1728035778502961 0.13366257654063274 0.44522599602910384 0.25123909150315565 0.23856821050142196 0.738724966656437 -0.6086342195873684 -0.7997926248723437 -0.11167255177195634 -0.1683153779714477 0.81235196771861 0.7612243861245236 0.425607789141253 0.779623566553495 -0.12499315416308443 0.5143683306661644 -0.7718104679029814 0.8618138821345847 0.6042313435520861 0.28258289713741536 0.7190355976747944 0.6742275216422065 -0.2245367725309071 -0.5895181946440426 -0.7444471485313815 -0.11853332174302927 0.6858238045435168 0.7437550281618956 -0.8779440413524056 -0.9907069029762082 -0.881291002997939 0.14004828560248783 -0.10179836869722991 0.19944803774367792 -0.1892747533131942 0.7269525601332982 0.8765530479883088 
-0.11053470831813089 -0.9634916252970688 -0.6799929431819804 -0.0846838155757681 -0.7662906068608593 -0.453895577985034 0.42338322894190855 0.13769119562599785 -0.2521259290393072 0.021242941235908308 -0.9418120411964985 0.22716434132892727 0.13768692802605265 0.4609453547078198 -0.7019266183495381 0.7184605522656052 -0.43639462737724366 -0.5364130453529843 0.8391394726159727 -0.35322957255221915 0.6967784391597525 -0.7583453293662872 -0.8091608956213123 0.193236873963671 0.8375801693743504 -0.6129316252613823 0.1468953326327893 0.5526208126322159 -0.9034721625697352 0.8991081950804269 0.07998854846271675 0.1494000074333109 0.17842398136147997 -0.2063989041662509 0.30124183517221437 0.5414808700415867 0.6640722863441714 0.731178914417693 0.23529820348888064 -0.1238963698206037 
-0.15002253007936212 -0.46587831591378387 0.48404888674785407 0.6003651775419818 0.18442090478938766 -0.7951702387500152 0.9867564051148769 -0.7207708585920756 0.13140496892301345 -0.8821782415482133 -0.5677730813870052 0.8367440393328229 0.893130540148231 -0.5780989412355364 0.8361966829974627 -0.6884810293169692 -0.15678389291021078 0.37574935505303286 0.7738722487363294 -0.6938829368362605 -0.25307890227466 -0.6679033258520457 0.1366934560791826 0.7075986335403406 -0.11202798096234129 0.3900032016639148 0.48416347980112495 -0.02454295605917256 -0.9260976410375394 -0.6410795190850662 0.06909973015657411 0.3107704996589082 -0.8406395864189288 -0.394668377192318 -0.5624286495434572 0.36327596776846316 -0.7954493043648249 0.5998086403010066 0.1394721858810768 0.7845880962630121 
0.6722964104967974 0.5360443908303376 0.5329446731166523 -0.10744110941232954 -0.8144289360894164 -0.7326622680326829 0.9256604938321076 -0.005670161141459351 0.26014632465830423 -0.018658883423769757 0.3680343434021698 0.49844536961654673 -0.8212328922282945 -0.4661441594418611 -0.7011088080668879 0.8491484718065079 0.6985024484704652 0.16534964810672825 -0.05998100670637552 -0.4719940528468786 0.6436661662569132 -0.5556671266696056 -0.15250414324756956 0.8943291012726187 0.6005660207317889 0.7139645268937398 -0.6514064868682434 -0.5280904198828562 0.909380679831125 -0.9390959775282484 0.7285008803962758 -0.5576757599719855 -0.060981345992692775 -0.11658312967835022 -0.021816149378921512 -0.43354424427855487 -0.7654272950769424 0.5040139423548646 0.6744871357031614 0.5309277320430388 
0.544396928067901 -0.04558719353376739 0.13585019114091623 0.8058803592244985 -0.04203933996376907 0.05338028243236548 0.38177463752405993 0.4987528084337969 0.4333908457584923 0.20632597816964293 0.621441256967606 0.403151079033774 0.8406015607733828 0.973343697536499 0.006659959671379445 -0.5334291748355281 -0.6838995155957293 -0.6153290176493553 -0.7934381255843519 0.23882263555787941 -0.7976441004166925 0.226504065658387 0.9962583196532429 0.5133977225899166 -0.8639636415572217 0.07678994840843711 -0.5010833491903792 0.33684930449391914 0.9529139165879851 0.7397142439175663 0.9804893143544693 0.8367244674368911 -0.00677646593307402 -0.09071608267014641 0.16859201460278417 0.906427084127601 0.11979427538769549 -0.613481561292998 0.9517926049951098 -0.314225825063426 
0.3023910310584488 0.9814966584710001 -0.987160524544662 0.9889522305913689 0.9745592050058847 -0.6499267926065386 0.4590552818879414 0.3569067418712055 0.5373444228616975 -0.5513664659704614 0.8359221042685265 0.24913478009482248 -0.6411486342432353 0.03069524138450675 -0.9572161469868994 0.040153090791334105 0.4144086518286565 -0.33004818822459936 0.6205869856794197 0.9494098426197914 0.3118402032682268 0.16162646778963974 0.6366850320116879 -0.1935320324296783 -0.13569627386410743 -0.16622095327773878 -0.032273537423565646 -0.35376115097673555 -0.3993280243108548 0.29847942610396716 0.16454773619393004 -0.4770234958096835 0.6457132406581751 0.4756718917213769 -0.7192100434350543 0.6487626704831906 -0.7448222035935521 -0.6559068439005107 0.05665858431327497 0.9885343713754835 
-0.046963067566076884 -0.19716351999839238 0.6715094968674369 -0.22346282011425855 -0.2911409054797336 0.2751943795981906 0.9137244892746798 -0.9245973029601713 -0.13468137199509922 0.2380312953411714 -0.9364987666741409 -0.5422541055954682 -0.3518194617310779 0.733514011216 -0.9556912217753075 -0.8324887017795765 0.9945660424523333 -0.9009921025203482 -0.5296947535732202 0.7055398591580956 -0.8305974620708712 0.6459781479394568 0.10267981129474868 -0.3152644092137203 -0.8205968021463986 0.8256720648556495 0.9244266303715722 0.012123867790741594 0.3477653048603177 -0.46230070079308416 0.5531848352822053 0.9817319059161927 0.578546320174765 0.6699890332695456 0.03393975978086905 -0.300684944542541 -0.18167867692557374 0.7022807333215277 -0.8118387401510321 0.4101625878129638 
-0.9855296494993295 0.26239171264142996 -0.35678141805491737 0.7650859409653417 0.470753714039424 -0.1069542296963435 -0.574305053441676 -0.16606313020523822 -0.080021324401232 -0.030880067089314345 0.5743556647740808 -0.23529523295391241 -0.14047967514300352 0.6995081025785261 -0.38623988240371765 0.38627728020305113 -0.2624507422996376 -0.5462383065665921 0.9258318439800219 -0.23421128089617732 -0.5686642670178246 -0.7268263429737598 -0.9323562526243221 -0.2425506122520264 0.12476090657465204 0.35809819964974743 -0.09500045762685616 -0.08363993528383373 -0.8290929744810265 -0.43360459379683136 0.06662842314404838 -0.19716216735699404 0.8162948363423491 -0.484526843875931 -0.3290579332594932 0.6646279385876595 0.7670200447699501 0.748933157056811 0.5370844782282056 0.7595313025709771 
-0.5059564793820581 -0.3889138490286986 -0.8357286259577985 0.17014598892392696 0.9002530121982042 0.9656912182643429 0.6481698563697962 0.8613147179178977 -0.4820406254536136 0.703413646253602 0.40042674650546983 -0.05517903248574352 0.7537893405310121 0.10006215783475532 -0.9531025284175176 0.6407671266384178 0.8676994252313803 0.5204915489402282 0.20303703126402461 0.2631978879483889 0.34947948955165176 0.7067399952606421 0.9588753263021599 -0.2924985674786878 0.14776700163021902 -0.054693906519089674 0.853908750012565 0.38088784365516903 0.8099021896177738 0.7783244143563544 0.881683354688688 0.29151764959099186 0.007187899913362848 0.6043947307019786 -0.3637971613680988 -0.899542217291107 0.14851936717436112 0.509375198245378 -0.9029519327056739 0.3411936476800146 
0.8256854205909724 -0.02633664650321429 -0.2526378714604107 -0.276557152836713 0.6893478967943429 -0.2776170725892195 -0.27137008024194226 -0.5355703200088522 0.017162263129334665 -0.08461007110995666 -0.4416472977494774 -0.07205351105011837 0.7178257460341049 -0.8805365287848658 0.571821614786729 -0.497736793061559 0.8029929337288331 -0.939387070574168 -0.3042192866382649 -0.3893631479905662 -0.5359676865928438 -0.9759942529978389 -0.5776146015903887 0.023999061561712418 0.8060564130421514 -0.04901069830258353 -0.07655197303671746 0.23236755925207198 -0.9796236066458196 -0.2239326227223506 0.13006749797852013 -0.4669033009011723 -0.6826819424036629 0.3540137080496258 0.2999089114393896 -0.2937811482661621 -0.7050267012740347 0.44600679739405313 0.10417664221850731 -0.3276498034774733 
0.5861819743786087 0.6657509196069362 -0.4114101885416197 -0.6325532858100287 0.6023372000408624 -0.9700114218031313 -0.5025659266449143 0.21800765333629468 0.987045397200403 -0.18467835327003357 0.39703540169105733 0.06397732321510019 0.9928436693416698 -0.20831928293842658 0.7947466841866171 -0.848363537911893 0.412367334153789 0.584804430875355 -0.9781567956242085 0.9067651300722128 -0.07704952276917054 -0.08588379236580868 0.03344007623227907 0.5987175015763047 0.7448975508730744 -0.2409814649254316 0.475848852682893 0.718987251659289 0.3671434474276103 0.12580798737890042 -0.6184630023015305 -0.07682966899260399 0.7600498142069807 -0.9809824874946773 -0.32587495704425207 0.7231629166970668 -0.02640732340793378 0.46515592618546586 -0.6993792246032162 -0.23316802333006592 
-0.689826314376965 0.9934318747649686 0.2553565111010354 -0.49476276797488916 0.364928314818334 0.8472322861487989 -0.9801399352004792 -0.6770687959754509 -0.8577808825831643 -0.6182960633502628 -0.984846713556041 -0.20528509995627986 0.18572661970330362 0.596993271516395 0.5477500592041118 -0.36736485205490355 0.2004158002484322 0.5632912514827841 0.42786510966377755 -0.9001080708821316 -0.0017537386603954097 -0.3870127557478522 -0.05185674559378772 0.1937315903685961 -0.2345141825988084 0.6068940039533861 0.2334592532244073 0.7372559775842626 -0.37199079110030775 0.3256111672542421 0.10711488635415023 0.6705142870329626 -0.718028146995902 0.09376651272887448 -0.4339756522066873 0.29410716720805397 -0.9392322736573784 0.11399539733716946 -0.28275680909687484 -0.006086944932478078 
0.22522547275176677 -0.3308233895910121 -0.3995374724307299 -0.9365217281080369 0.4924255317407622 0.34556142670388135 -0.29414307691213415 -0.3590444775438226 -0.14034018260362968 -0.2639118284089401 -0.8060671294587507 0.4904006740911169 -0.3665296480312139 0.7023252558628142 0.8338119536402628 0.3826122140387417 0.23976193920451228 0.2050979272593214 0.4986079846629976 0.1685869595345967 0.8694981168682308 -0.041990195055154445 0.6913720903365084 0.28907997567644406 0.30549693483795515 0.7147299762834511 0.022306701064414014 0.4265951125174583 -0.6206337020209801 0.8700155613487031 0.817734064840657 0.2815894308820518 -0.5763770591232023 0.23611758514821365 -0.8864346041634501 -0.9574774979992768 -0.1874407752348381 -0.6496647754333498 -0.8292174972928983 0.01976432163739128 
-0.7734619190162814 -0.5237940381800389 0.34771011174978006 0.12631581238928247 -0.37268292553747706 0.5794516210990663 -0.32643648641382994 -0.5863723313760052 -0.9001456320223002 -0.006864098385052753 0.790492016343143 -0.29126407073662364 -0.30891244301705334 -0.7726461322301151 -0.9355422993810487 -0.45075513966793024 -0.8285719080338894 0.4390838147280798 -0.3841507530870949 -0.9238866399900126 -0.7551145971305944 -0.554681838809538 -0.22362302608986662 -0.6824679842299871 -0.8485309011580381 0.8425837586480152 0.0543568592744792 -0.6104603213800117 0.8331492650520128 0.7937518575951374 0.07360836368340484 0.5337122772204933 -0.1232114348546975 0.3463818845998331 0.14892797552923875 -0.37120538186344576 -0.699613139027256 0.7681038705032992 -0.8291928276731431 0.8393614757270611 
0.9115824972511644 0.31406600153387737 -0.7056717797606127 0.3980109497279214 -0.5434253902796373 -0.9110366819922224 -0.43806243316953125 0.17322334083411017 0.05218797942684916 -0.7812952360779903 0.03706634652732754 0.6341995030047567 -0.4867129108896009 -0.5808260846019218 -0.7146847875047089 -0.898908436473228 -0.9064911008201593 0.22957293373676557 -0.887776813793826 0.7564623653203979 -0.1099402398085183 0.672433991862359 -0.6486402428396056 -0.20576120801095527 0.7032958532274671 0.9089422406720575 0.19378160194043637 0.2953626840719965 -0.5045689508988769 0.5773995914071348 0.059643049319559216 0.9446714854290073 -0.241256316282502 0.9342596792656515 -0.6649800519274525 0.5414703258688345 0.0821635509596065 0.6613299993043011 0.43177174318992084 0.40665975044473046 
0.9960957107196293 0.2593536220683721 0.5755315840038102 -0.7478790188716833 -0.2210233681307474 0.31736111829543145 -0.5133187024316554 -0.1464879585545371 -0.6751127521997411 0.6287792265682606 -0.30856745556591236 0.9554759022545489 -0.599760057237781 0.11945616409667491 0.5848996581000556 0.23867225071053544 -0.3415366234300292 -0.14060889782722108 0.565320700110352 0.8909300517983927 -0.364833764473923 -0.950901038767584 0.5683413400306909 -0.6497937081518925 -0.38773209811030807 0.803177898967016 -0.8474521273615132 -0.8750649799013086 -0.28189966693415336 0.7977949726568623 -0.07780137916807339 -0.7522703044732444 0.9215022056803315 -0.5945604834579412 0.520368371118908 -0.11869823795518619 0.6814410582650461 0.8094381165189917 0.6854882508900011 -0.12915232104578545 
-0.07029111738043102 0.7723634212660111 0.9365256674801385 -0.3749592351309665 0.7927695133072616 0.22660982893522919 -0.6631819623576958 -0.39183558853445843 -1.6819194399886328E-4 0.662058531416744 -0.5161598730720622 -0.061193858776619425 -0.7222552067063257 -0.5951287132302523 0.3819385694326525 0.11592566489913934 -0.8006624113240333 0.3131229739901984 0.17736041935495295 -0.26899474741779117 0.930326054573285 0.15910836140314655 0.8696321298238763 -0.8246379509902424 -0.8890655030223196 -0.9752126734929267 0.06064070856463144 -0.18536736512354035 0.7118894703271039 0.406002075101104 0.5625188591724901 -0.12221934109111963 -0.879531421492761 -0.5972852395721897 -0.7422936505375157 -0.6040987282199388 -0.0592041099226008 -0.6333298847100071 0.9893251199320219 0.926492363264761 
-0.9664342251184451 0.684513368148263 -0.5427294672048497 0.5117167765433819 0.1739770394029556 -0.00644162144656657 -0.8948129712005434 -0.6553868410932122 -0.6274536151725982 0.05901444773444875 -0.19423555632242273 0.9550738770081659 -0.6178946113491102 -0.2143638231762753 -0.21345086294804427 -0.6221881183975845 -0.7947697740432045 0.3934010629668845 -0.31425637319148847 0.727427828586864 -0.4801060658006042 -0.3440419009727731 -0.112782382125725 -0.11892761166854678 -0.14285733741164028 -0.7177758611127616 0.3562322454461002 -0.44289514326070556 -0.9068886503779322 -0.9843397879934892 -0.9178629810090511 0.9785200414496459 -0.641285826873886 0.8323864523497294 -0.0684310149737597 -0.47718148630531454 0.8238580022151841 -0.2615550359537333 -0.7745537177592201 -0.7146110480798866 
0.9790311545302934 0.09815074040497797 0.6753160053734208 -0.6786532346311429 -0.9843273485458368 0.16962502930274814 0.44938059606595004 -0.5188190793925975 -0.30231376868317894 0.5802312466782944 0.08579387282282469 -0.781560096647351 -0.27996761638186185 0.8437839918867822 0.7305808019693882 0.5230835199810118 0.966314232181928 -0.2969602638698001 -0.2501946485816082 0.2220169180886498 -0.6941977949361495 0.07511767125150581 0.15037129462766052 -0.711288324158579 0.6113544105213868 -0.31586054253144513 0.44110968810458906 -0.48328514426892966 -0.4667944476305983 0.08451940530365709 -0.42442823414462505 0.9372305612189273 -0.7703859817501906 -0.2900249947748945 0.4402106734079436 0.698853586625847 -0.26612823725243356 0.8274698809797383 -0.013597604108190442 -0.22207328738378185 
0.9281927468477649 -0.16806055123060462 0.5520206340667195 -0.14912282321332393 -0.801474351574714 -0.8132040436938264 -0.8219529385969542 0.9352871231709858 0.7603279111366397 -0.5031598644493793 -0.20203729966835504 0.9943361331601082 -0.6261180522528773 -0.30564018531482473 -0.9375649327936642 -0.40035068528403106 -0.29127373442726356 0.12582612515913305 0.25907447297154773 0.9604716305907637 -0.029695499520105306 -0.5542581869245184 -0.7031924212000871 -0.8475149553412715 0.5679441725499796 -0.34415825364512953 0.04667461314293497 0.21746586260415923 -0.4182038651064717 0.3719774127708442 -0.5343743388044222 -0.044617418350004566 0.5773777358797632 -0.542334789141278 -0.1228439386973319 0.6934175989957676 -0.08012001921899685 0.5324145301060583 0.5423877785083362 -0.9082159961794087 
-0.8435517025756666 0.5446220527647075 -0.7725330238109094 0.13411072365551702 -0.7370654571881223 0.5927498992130555 0.8578910598640169 -0.14945354742816708 -0.4066214225320255 0.48586135182951473 0.5478434129751455 -0.965366722545423 -0.7774559482556731 0.1523344271745387 0.3016758901400294 0.24036174899452234 0.039637125713069876 0.9387811632187391 0.5083547869153557 0.6839372305484274 -0.5715687617178347 -0.915367120083969 0.982687562944947 0.32429760145771225 -0.3392306570194904 0.21378933731695127 -0.24417408192721202 -0.6387749865215682 -0.7664462308667755 -0.4445703307657154 -0.9234012634705506 0.6628447517324235 0.2958261705286578 -0.21368447466690366 -0.8423028048138079 0.22375356977883465 0.04080555211159418 0.8819615394976712 -0.9145259155832735 0.6557653509866108 
0.47730724176654865 0.16978568430016186 -0.990614403719009 0.924237151445251 0.35305964094353093 -0.10207881937288366 0.23686753001975255 0.07057137060934648 -0.8385842807346675 0.0632656939184082 0.18170972831088306 -0.5022066635040088 0.14829242067109227 -0.012134052879344846 -0.7512579129383459 -0.4527754480752481 -0.9771849958014909 -0.8112976173897022 0.6849402376257434 -0.443034499697097 -0.31953048264477335 0.4552667816788196 0.18678955074805903 0.3682993578944295 -0.3368567858972598 -0.26907289331601136 -0.3739609037207081 0.33405791772049453 0.3089911854350033 0.3882455317798019 0.6407297655877802 0.28333185893579266 -0.41390665652878617 -0.20497145229629168 -0.9643503624871474 -0.3901694723403588 -0.5426254134190925 -0.312954721178895 -0.05386522786201642 0.676591873453301 
0.2902509921505787 0.7949751297777421 0.5414002344810711 0.0675990581941257 0.30306764074244286 0.4173137810470262 -0.32164944174456167 0.8672913622641911 0.33127006694173144 -0.8124317137110764 0.3640838382826168 0.11182011236781642 -0.7000910157733098 0.15325194821667235 -0.8549251720512396 -0.16869752974142152 -0.29500532385808387 -0.5341980659871528 0.6132761054489624 0.6902128998265376 -0.8652198526653876 -0.5253050059358173 -0.8958428563282066 0.13344916559584588 -0.5969470045331158 -0.17431907855965423 -0.6410457137492134 0.1584853553212091 -0.7799645385410567 0.28218288531725366 -0.5668227456428203 -0.6405653587707127 -0.5074960833913114 0.4205635018665288 0.4556799467018018 -0.27327750966849584 0.3232569065974729 0.09409164542369419 0.9773714956158266 0.8364591765947083 
-0.4289113512637121 0.6170908174289235 0.5959071442765833 0.5265057997340286 0.4359006003707666 -0.010121309426500025 0.3024646396507486 -0.06839881177312046 -0.05033564258060741 0.16676717552527354 -0.43102022902786374 -0.16217978525176613 -0.5176045765833401 0.3635110286261834 0.5789731876953392 0.7170188291571925 0.4133647438245265 -0.29274855220167284 0.2023792217937812 0.5148146667417471 0.9712636135705204 -0.8488652071443517 0.3245374930204099 0.2910357273941538 -0.08693786945997221 0.5074216016696547 0.9617859085799938 0.14947637852308193 -0.8101846537053284 -0.30294629126872863 0.23085313018562248 0.5441691614930012 -0.9613116953605111 -0.1297219960178134 0.6865165670083309 -0.9877141687227697 -0.9560131760008316 -0.0779285929507445 0.8017560336252298 -0.34082644702191334 
-0.37393906574760705 -0.8921762200336477 -0.5630996448435723 0.3089075942670365 0.14488196647598617 0.9582677187617927 0.028951341470877436 0.13415057333167524 0.3482200102306039 -0.4985608473871652 -0.06984462146418036 0.7919865323870612 -0.7564162352918329 -0.08565571501366401 0.83248899895881 0.6177160519776864 -0.35551432291883067 0.16344670645767256 0.5413292807225045 0.26718601214002746 -0.3842115143727387 -0.06493897331956422 0.49092204291638275 -0.6540929920296236 -0.16385292000259702 0.21121086919469545 -0.6541346294107813 -0.968011923413842 0.49791479114608006 -0.7795467906975115 0.7904216119062455 -0.5322028654596737 0.7823690690586045 0.17047271522567967 -0.8196424770679986 0.7879464626619332 0.17585428139808607 -0.8338204624964589 0.11669938250027712 -0.9473197058293976 

0.5407752877066813 0.18668635684644075 -0.8887817716723506 -0.5360054998085383 -0.3962138799404029 -0.34958978874288155 0.33299344289751354 0.5509527127635803 -0.24673902453891652 -0.9642040398989147 0.8633593990162084 -0.6243008355055699 -0.7786129010977703 0.5927685449232274 -0.7515161106989586 -0.7647188337816492 -0.8979314755583513 0.8535736706800983 0.32091217985020193 0.37657812651160444 -0.8678285784145162 0.5283843580550356 0.8680070282078022 -0.7496415538066437 -0.37350319864345705 0.08223848043865543 0.04410234307199687 -0.21309457518879996 0.8973512575574711 -0.23392804414374227 
-0.05191980531493343 -0.4978870185586812 -0.12564054826503807 0.27500412837252247 -0.1709372699654163 0.5495901104458061 -0.1626238687489049 -0.08007763197821137 0.23644623512947283 0.4534539305541483 -0.8146926872205312 0.22380325817844773 -0.9034548569862014 -0.8118669608210725 0.9855124159196131 0.19210832165307068 0.17653589664939995 0.515638662007894 0.6838156071871276 0.15695706149858987 -0.3124616776897695 0.04741708591849591 0.801784349517555 -0.9423052431534945 0.8820781791456982 0.3670100944795709 0.708252626561386 0.29586385634473 -0.582748745025335 0.731410991292704 
0.6238898457092033 0.8904572818918721 -0.01660223741597753 -0.6368509272644141 -0.09727496451201435 0.5597422650711679 -0.7608817091706824 0.1517904822162766 0.3315681291948511 -0.43117470893682064 -0.553006664716918 0.7025609866388859 -0.30184437721897256 0.7075214748048845 -0.6296563178720683 -0.8983243524563975 -0.7989316708406954 -0.3990183262331739 -0.0300560833308776 0.5118621379495808 0.4092522917477126 0.7059223081940796 0.23055352441532126 -0.23165886111405537 -0.5737704287691687 -0.19180820764283063 -0.9492994834225077 0.5146274331838552 -0.3261434617603161 -0.3872010476120912 
0.5451248399952568 -0.9008414824901325 0.28274942578674594 -0.8945793501782108 0.33783737558192417 0.4479001013377419 0.4612700169202517 -0.23520236274640674 -0.5352544236361836 -0.5652816627562145 -0.587791157404524 0.41830676552100726 0.3583168022804034 0.8904485112269567 0.3761122091755387 -0.4415908083701709 0.052775758180077355 0.32323162409894524 0.2024025374873295 -0.7244538014684554 -0.7731673353899752 -0.33317108778368115 0.48427406344569984 0.6134541631845004 -0.008033134297543328 -0.06973171164894253 0.7405531733680302 0.11575685472682509 0.43779923913988994 -0.508685396511363 
0.3875184541444483 -0.3919118638486769 -0.13794161948381833 0.9578965175695698 0.315932058790368 -0.15211691451577738 -0.6584592354047343 -0.9842483673487704 0.7733344751342232 -0.4256275249022439 -0.15989533395855604 0.4872727116668171 -0.051362919406694754 0.704196700479576 0.4062307792111293 -0.05454843683968785 -0.8334616638191247 -0.05651987159190686 0.17434053105734376 -0.3411978140207692 -0.07942705381114268 0.9249889099389147 -0.13273272233016087 -0.6129829613412245 -0.8908185961644418 -0.8704209433616266 -0.7157889720560161 -0.396217454708 -0.21400795824565869 0.3138898986616201 
0.8652719827082711 -0.9075416355735615 -0.504505502922994 -0.05840560730474721 -0.1628389527381166 0.541831428596236 0.8374536590811374 0.20330044490787952 0.6749031091564298 -0.23664274694377974 -0.7118229265063433 0.6114862225598826 -0.3454877920539768 -0.5420752144293066 -0.49590258827791983 -0.1319949938018974 0.12541178888871024 -0.9206735434069327 -0.6572363558611579 0.7288216264721805 0.7973234373758324 0.27325147233482466 0.6587451777878947 -0.07245962353421925 -0.1851122481793375 0.6147680400473094 -0.4334075781916346 -0.13001722145954842 0.6842831899080948 0.9238947194558879 
0.31036407057730636 -0.22507275300831328 0.21963104790095028 -0.691997906398515 0.13891752122446807 -0.7884891118358468 -0.4070164824102213 0.26142299745023617 -0.341520882902903 0.5716837229466832 -0.6997777535795547 -0.3531834238810537 0.018750798428474564 0.9164977058820912 -0.6038186826019908 0.18942141065145066 0.9860784929263395 -0.1520975096253609 -0.2941344474175505 -0.7654768402619074 0.4669795650721243 0.5831118240290789 0.8846070184879395 0.9500751101927304 0.36758622196003227 0.246492753324188 0.17855560087096753 0.9005598120930346 -0.19066993462737766 0.5443224585937079 
-0.4721199215079788 -0.025181519565609795 0.6684188154866424 -0.5493515382616511 0.2586176942852834 -0.9802854518842059 0.16673943941692454 0.30787074107801987 0.02511830786980879 -0.7868573619383139 0.8129383641655447 0.833603775165782 -0.10667412543595324 0.20402551803195937 -0.6203175756815302 0.9256141484705552 0.4967585835421855 0.3536130010758001 -0.20327073346516422 0.8697708777746821 0.04974125624718915 -0.9685546925095178 -0.1468814288267839 0.5811334989442128 -0.33085833552220034 -0.14885454833292985 0.4206520880295757 -0.1537876133618286 0.9339903692370592 -0.024772379781356758 
0.5483246305186028 -0.8150561810076964 0.9036587727457484 0.17471973559509926 0.22247893542686664 0.9137007569508487 0.9179592164217103 -0.8015318525641097 0.848627595114306 0.2660985008084887 -0.5787648622615299 0.18925105095788047 -0.4170337338162272 -0.983755949053654 -0.22472043670792377 0.37691157311144813 -0.47480882506919014 0.9494086129045082 -0.42466806916430194 0.08618673995728458 -0.5166374120599674 -0.26180077353514747 0.32788616749645116 -0.7842832956613495 0.5297533555754868 -0.692672127485151 -0.4770795654061484 0.7765637677426587 -0.11022093111028496 0.6082370209258016 
-0.8945880704440204 -0.17759054057730683 -0.15955928622730584 0.8753004475756047 -0.8531388583372218 0.16049891783921857 0.2421776465186673 -0.101585953174627 -0.8822154576313717 0.6014234936468194 0.08774106172169145 0.6204566279147637 -0.42021679810414697 -0.8124942992024679 0.023925108903830233 0.4593290719126913 0.34380103452504057 -0.1663150274866179 0.18683811826627314 -0.8486589024841887 -0.8177091558193749 -0.8785563511201486 -0.11142590869054847 0.6275080173982949 0.0365053082807889 -0.3945473487135013 -0.2970130026992787 0.45911781989624295 -0.6738459237865088 -0.07574287960549485 
0.3204878072929558 0.7468947591735823 -0.5527269938616448 -0.7495351466085662 0.17654438501705513 0.9784819367098843 -0.1655710086196933 0.1725622819667304 -0.6942221033961362 0.3418483319897131 0.06956303910647295 -0.03052683361402218 0.13385629401429053 0.25763214728539463 0.43003344850071407 -0.5789566433721363 0.9902472724606092 -0.5187419628343742 -0.994642972233437 0.7911209908307332 -0.9884383429958744 0.02626429814936485 -0.9558969099267692 0.42705469514073674 -0.19909237379389122 0.3727974164192612 -0.44620472656313853 0.5385138433871979 -0.2806613240122258 0.9508914118657222 
0.33640998486657103 -0.8500917122004213 -0.9926933173088736 -0.27388832548991654 -0.37456187621922593 0.965085805860447 0.0690183258819223 0.8657377684842988 0.2782006389794039 0.9395081549417724 -0.8002565086307935 0.9248220012233372 -0.9177492919928949 0.724279098477444 -0.20401929019988632 0.7701923857530627 -0.8497685533534066 -0.17196775283668744 0.6605424765578878 -0.4549689296922129 -0.3938799692617425 0.3368260521689238 0.3995019289997124 -0.6210513968923607 -0.19317690293704115 0.3388375237571533 0.10511051870129094 0.2607711442538416 -0.8034071933273399 0.8197845184253599 
-0.4713644258214141 -0.48326950752040687 0.557731920255404 -0.2733538401839104 0.769287019876749 -0.3253658508572662 -0.10025007391731919 -0.8586166627897253 0.14021134085302187 0.14498573376090793 0.5194948107066435 -0.936942850893722 -0.6803504856335857 0.11291325838180515 -0.13028433015326998 0.16574472305533766 -0.8445306065569885 0.3101679674776485 -0.21254395078657493 0.08148623886713942 -0.43691876369657845 -0.0757019549713481 -0.6355783212519798 -0.7485060854416625 0.8418983321557487 -0.19741890554891545 -0.7194572521030885 -0.8044868725146284 -0.5674513482423811 0.3211243232377343 
0.7769972378702634 0.1684333667715466 0.6468206163920114 -0.1850847686239322 -0.3901611437905454 0.6048198361694749 0.2253137685842121 -0.6975755177417795 -0.6952830162148519 -0.5037875334173924 -0.2902410686622706 -0.6106815240575053 0.8232414344535453 0.9026568319352595 -0.4297329575452001 -0.30250667031577805 -0.6433525415536605 -0.8308598304202983 0.7787065191825496 -0.0574952886553681 -0.6235777673544021 0.0990296176883186 0.10116889218128612 0.869372968465792 0.3017208044896093 -0.6688630497209667 0.7589845554172254 0.6573343034498854 -0.8165235544450825 0.4733919376981389 
0.31160397634787 0.11726301039416333 -0.34088881769839524 0.16517234109381074 -0.38068769779958006 0.03060613246426574 0.09730661789799476 -0.8282285414181472 0.5694553862272791 0.3166857173293965 0.33176557189522315 -0.13960564439446016 -0.11691941001960575 -0.6344141077331595 -0.327991709287461 0.9603361197983932 -0.23377556157467227 0.8367170160383559 0.9855224117212038 0.3824297269023901 -0.5696061772384838 0.4986095426728065 0.5586336556351681 0.052656139202187084 0.5785395144822584 -0.7267431403673713 -0.825436418145158 -0.7904433857519828 0.837878120595947 0.5488078919216263 
0.38608445757631726 0.4215566319704556 -0.1820475705724173 0.0373226592521985 -0.6846569132695945 -0.30046481913843587 0.9828762012387368 0.9797436169477033 -0.5216198270390607 0.5115798317100134 0.8463483227053465 0.33768822371308826 0.11041071889924166 -0.7489941090891132 -0.861587586614501 0.7627710609718563 0.26014939654995606 0.7654175027402307 -0.46801847012673786 0.5965678648945659 0.5231458466375453 0.9235285880190063 0.28575870569583783 -0.0701336814896963 0.701649156592192 0.8784613751243553 -0.2752492355622579 0.8375967236673885 -0.0938387626141564 0.6801181146550758 
0.8704596394988169 0.30651403982900904 0.6551978527771416 0.19579320205452105 0.7254035040193016 -0.9146628252422782 0.38373538644883415 0.9171159020556376 0.7296138999694739 0.7125623523070497 0.43457525633473243 -0.8351393300749709 -0.2730332396470441 0.3150143177047974 0.09041489444169536 -0.5563110462432931 -0.5843151679948595 0.42065132961479296 -0.5119688365679392 0.25933085515807686 0.7028743543109727 0.9918495763463759 0.3674597559452458 -0.4224384691802317 -0.3558891782689601 -0.8388941202456935 -0.48186030398057567 -0.7134053797572775 -0.2794334221431241 0.7387518874496372 
0.5180283233464029 -0.4811840052346951 -0.9086809666286612 0.4626008543405071 0.8984358589986637 0.4941901843892099 -0.8444298598463016 -0.8278417787251406 0.22373770159487605 -0.3330811178313618 0.2693045265097619 -0.38305834042793674 -0.2603045596176046 -0.6114585603600737 -0.21675044414757444 0.44339780722770783 0.22309035997163582 -0.955184338677402 0.7036419686827519 0.05823703708587818 -0.5437010061740365 -0.3196466009212318 0.2247071176956308 0.5272152986872076 0.3539808883271651 0.49413258162607576 0.14140454250651746 0.4443066361859285 -0.8149496276731291 -0.729357460465121 
-0.27665565279979804 0.7940354067202523 0.5615668351087167 0.8055599189093585 0.015506214310878605 -0.7698777224266647 -0.09233342743410629 0.6914774848194232 0.7287208568255789 -0.09350584570417357 0.9734604545531029 0.4484604658179786 0.892275366238067 0.022088854459324295 -0.3714547431712391 -0.08445990295435439 0.264179725757303 0.5788174213902506 -0.35713344742485176 0.06384731231613143 0.12816970317394835 -0.4976956865065991 -0.5404748658394319 -0.051618303271020606 -0.44519733571136727 0.23815313050006542 -0.9374487722040263 -0.6154043843556783 0.4631914628563748 0.21170421318321084 
0.9627373300202856 0.11778547069436669 -0.10753414817017419 -0.8729070561890355 -0.9499990377565922 0.747254462676653 0.7766857818703501 0.9816783746288194 -0.3961124629947131 0.47392835590069765 -0.7857657774015383 -0.11408362095083548 0.10628273763500344 -0.1407738214939353 0.7325005457260074 0.30198454477416353 -0.3332521342050129 -0.7853682336534427 0.37088992983320385 -0.8454904150257756 -0.15064836938720821 0.985552168429684 -0.45999390478439806 0.4159085177854985 0.4808969715878684 -0.45030831952816447 0.5620796961721851 0.2321284900685556 -0.37604840181682436 0.21930762878636598 
-0.4425047271018132 0.4299130177540418 0.3139910969903521 0.9183574362095844 -0.085419169654011 0.33460687168405073 0.8894265532978867 0.9996580459378238 -0.0353718767377545 -0.7720880008885103 0.7808823638829687 -0.025998604727728296 -0.31930196430890034 0.4878772230794555 -0.5129955081180041 0.5417842272527266 0.230328210362029 -0.5211213300917726 -0.8807310548836049 -0.7498311591061154 -0.9679168126351311 0.596970438913835 0.3884249803294838 0.34228746347951716 -0.3973236554169727 0.5268526845636402 0.18608202077053534 -0.07828707539938377 -0.07249210051012606 0.7292449752298437 
0.026535508209701412 0.42490755558780974 -0.6522850156518766 0.4527551309440139 0.5237303881941491 -0.4243383958375271 0.02940366581117738 0.15194352273158537 -0.18897490047873655 -0.5101667541103239 0.9635159515220452 0.09600429624238675 -0.6500751810820654 0.4052882214329857 0.1465355667885693 0.1607608220836449 0.929201415547039 -0.36886271593407616 0.09541013334156477 0.32684397457623227 -0.17974617375041704 -0.25815383468276726 -0.8205722836969761 -0.7580275863774473 -0.9656856043172943 0.7862239773151922 0.38037589694487234 0.35645375168230353 0.41741960306924336 -0.6622767993242054 
0.04449745505598125 -0.39597651650862614 -0.07707346982034931 0.5815711107592723 -0.05428787414657576 -0.6246756103262361 0.8171551530020917 0.315732898752073 0.5544149643712983 0.6193139371898778 -0.19749635760981454 -0.261806490409239 -0.21031316444356496 0.3082520331215486 -0.9170230488536278 -0.8029066333678465 -0.269692619370036 -0.7851864557985877 0.25118482184867746 -0.29803804650223936 -0.23019271410834327 0.9752745517147944 -0.4587628428604941 0.9244766586092641 0.5229502368609968 -0.24941400642285966 0.4710398017877658 -0.3382217752111387 0.4258656498225537 0.447557630791222 
-0.8119188306446069 -0.7080685302847881 0.41940714167490206 0.4252705584254467 -0.06340966469528299 0.6202839289765892 -0.6358717623651325 0.8872674727686178 0.979705374450644 -0.30290186443433115 -0.0889954741752024 -0.25233513189047646 -0.9603945378905575 0.680996916251991 -0.5707192659696696 -0.3395273115029129 0.8577172289664047 -0.37068405687076794 -0.6989148193417672 -0.8867487886707992 -0.1668935706922739 0.21587079741829351 0.39038587830977506 -0.9875965313614127 -0.13887244153540507 0.8078029438804498 0.8264289992927403 0.02518218239517252 -0.5259129013785191 0.07766263718600014 
0.3683434854588204 -0.9064648902201375 -0.8239887194485485 -0.6163792290444338 -0.42872228310720223 0.9981422170936441 -0.5316884282007115 0.5200851139626982 -0.270076758300129 0.6262399605984109 0.47576376638525014 -0.8794586162191085 -0.8509676991205171 -0.315257281416492 0.31786180118741847 0.9924638253339113 0.6763778667689094 6.332326507330777E-4 0.40122338107981226 0.9671914981308516 0.6286154506354423 0.26322818652478025 -0.32657288625239217 -0.5313151739129038 0.25221336418006146 0.08877282574785067 0.5349377486067691 0.9360065027467693 -0.3172200404694382 0.6253756659990395 
0.5920520300307234 0.47894658951691277 -0.9985842533590986 0.5665966199482194 0.7188077679977484 0.7025299880296075 -0.5662669643177479 0.4046411618995814 -0.9966194173190107 -0.4945686424229646 -0.0029772536681292564 0.03163891634678023 0.06848718289508963 -0.16107608112541366 0.9733511513394969 -0.6187577683967713 -0.015544360978295525 -0.09286268194490921 -0.5289498414171696 0.7072948352246397 0.5345353156060519 -0.9039619401914788 0.03442531951199972 0.3068552677601049 0.9455498139102948 -0.9623106004920163 0.7711879719649952 -0.9790157819601345 0.363004791208992 0.6479867075092915 
0.789455356211572 0.6845016648200792 0.32832164960270516 0.7202027408985613 -0.12914610426808018 -0.15369294342206646 -0.6934451166093539 -0.28667509881259867 0.25355214622816574 0.5447473062254815 0.917649730344417 -0.25673345277640314 -0.840968933141699 0.6979112598800064 -0.06224560582449751 0.466815491594555 -0.7319497183413253 -0.24340510390251144 -0.6306399940556182 0.5420807102329908 0.7368763246894897 0.6681608428141099 -0.08397118016713802 -0.3439595447273505 0.5414076649943143 0.9122451462916786 0.05449383626331581 0.7289161119428405 0.9469920061942475 -0.6052267294766391 
0.5601421126476143 -0.1633817053609615 0.7238618519387866 0.32466934657122504 -0.17746003314083714 0.6367679369503785 0.36252390183734473 -0.15186300190927102 -0.4228025018687837 0.6403812239240753 -0.007713736054516357 0.1774305789997774 0.7843317794305313 0.5404695745019767 -0.03761797137027891 -0.7718472131063996 0.3003314042674868 0.9904054903561954 -0.8774680595090142 -0.634854207874402 0.717328826747386 -0.2808276838513279 0.719046542008707 0.7585789260787298 0.28634362776145894 -0.3229693485505739 0.5246274039994748 -0.9355686645893311 -0.8064792663513062 0.024440946525145148 
0.32597204124543444 -0.3311700649818383 0.6247200970350074 0.20876413960634693 0.21851753006625665 -0.4262481308616286 0.03250544336824045 -0.8824763441963218 -0.7095728883287361 -0.8480795204466155 -0.18998394809662705 0.3526282246662145 0.22607775939492677 -0.538369159345446 -0.8191227460294596 -0.9589496988233853 -0.8809518694239956 0.5876408667453945 0.5286449640808151 -0.7228084114822181 -0.6434634501279377 0.5621126652572128 -0.38040361096970154 0.2873678437853733 -0.17778293345282484 0.8200540520802138 0.2121270805688522 -0.2868653562522666 0.8616285457237102 0.8565468597311092 
-0.599220821680537 0.029417085049329234 0.46404002003576617 -0.22157562559370178 0.7079754999177732 -0.9550031225327373 -0.06300320850864255 -0.21908927698538191 -0.5842916439991367 -0.3229272025550918 0.9843946272352296 0.23047450250766002 0.9200917056522879 -0.2517546122822946 0.5464935165093912 0.9973561458009359 -0.004623169509195439 -0.5765789440147235 0.0196056353086516 -0.042687975059998856 0.7699304588732586 0.08576142553518143 -0.4540653497977034 0.16960748909848158 -0.05472543744048096 -0.05503749184500772 -0.05160652272670245 -0.8612003994277477 -0.6697444799908621 0.47777598626740975 

-0.9080251624150666 -0.021777496140251672 -0.9781059669271346 -0.4808689009533807 -0.7631300034205297 -0.11076567607169932 -0.43377348524460013 -0.2520370540117143 0.5135919534042189 -0.8408542041246482 0.5045577035141454 -0.9308478909945678 0.619705268229647 -0.8469571217113265 -0.403230357302263 -0.061281342259073134 0.07497039034773617 -0.8627356274208005 -0.20900841782359517 -0.8255459207082937 0.32387487843340007 0.4027464679654238 -0.21568690742380772 -0.8495557477602864 0.9691010957005691 0.31665387742709994 -0.4743572092164573 -0.2647903883515479 0.8232361484564604 0.0018655412480176972 
-0.10809956225500891 0.2873154815203844 0.007040182154336875 -0.849575082122874 0.4661776047128165 -0.7650525279117446 -0.32380245475065195 0.5963917455139035 -0.144008190484071 -0.7080393390964621 0.12429183632806344 -0.2953643803167661 -0.6875236183139645 -0.8003354143017175 0.9885118404940365 -0.6223918605624462 0.5454723719741158 0.03522752826637543 -0.9246139180391706 0.5362915206245358 0.5773578652779832 -0.409979678124211 -0.07265588402934003 0.3039219950111128 0.23804274779062337 0.09580476120113701 0.6677916472641202 -0.20049995695110795 0.4755224736352578 0.6662474202933116 
-0.11147700905748822 0.4448399595933204 0.04102421242067974 0.21947243800654126 -0.6121588000325179 -0.006189646112655462 -0.6930063677474223 -0.6365571868155884 0.41801312558631826 -0.8877935365244198 -0.01815472681864283 0.7466100022140115 -0.23147448840648197 0.2688674032861524 -0.6875854272052929 0.7190377988176598 0.48973199195908473 0.941710038386835 -0.0036790950210936783 0.7971741563778311 0.3522359050419965 0.69946095707123 -0.5244950359990981 -0.6125077584032821 0.24096143113756358 0.589805300730576 0.5405887500570877 0.5021788561783956 0.5991950386245194 -0.5553921433112816 
-0.7495569795359263 0.7853865408958723 0.7665220665081973 -0.7908106131782361 0.052532101263757756 -0.929225693419735 -0.40637398263338004 0.20604256615532585 -0.30978971413408596 -0.0968918245500369 0.07457566363756984 -0.6325868073149464 0.9909470150162888 -0.018089163517150335 -0.10157329936902183 -0.10248046590318419 0.9523182338672622 0.3237336806552304 -0.19596646586823607 -0.4274756176795593 0.6774357700493147 -0.910312626436864 0.4112061547642456 0.9428259909096638 -0.34128459703151337 0.4872200249323093 -0.19403651286430937 0.06983376903904721 -0.3315687165284664 -0.0683109433403715 
0.5719347901530785 -0.8872156822776686 0.08668236986630265 0.7396633098351767 0.19095690082704808 0.07384275043006386 0.8835188471555907 -0.9714473681083357 0.7744887723904171 0.31766719622476314 -0.33361022969923504 -0.7936901938095682 0.9427695261979495 -0.9005213348650657 -0.7828237852259682 0.4653260566316377 0.3335022841157501 0.2683803690317361 -0.2371713027776557 -0.9725027215185407 -0.2989423052715966 -0.4435338663921362 -0.14050816233295615 -0.4580838643454887 0.8580154035015479 -0.5797459599194784 -0.7823627043086147 -0.003423263178204427 0.8141516777293477 0.2714414321657094 
0.05367160005591427 -0.21702926795437583 -0.6161021186847435 0.1139328902334752 0.628524264375436 0.13885396830834215 -0.7366659688356705 -0.8992487454918429 -0.48415421071307846 0.09581336025779266 0.11559642699463966 -0.6728616364407278 -0.1585843679674635 -0.7293158204901098 -0.43917513046822887 -0.7000408325760762 -0.7556560927918372 -0.6346107556094671 0.13001423962303346 0.9514733780418582 -0.36681781243349076 -0.9223355607376963 0.2219735801929627 0.8115261454921792 0.9447606888100001 0.2755098770358761 0.8932441319889655 0.008312953659629346 -0.9391590407328048 0.751105135891959 
0.9143792555543614 0.1370913156917906 -0.20256194281205625 0.6453087335153541 -0.057977430945201476 -0.28215566721947377 0.4539420042844781 -0.27823250853562964 -0.11528193419754354 0.9570461319081424 -0.2060866562875862 -0.9299715004915815 -0.418585512859856 0.8353195366716497 0.5267164346511882 -0.47003578251717165 -0.23486550084478813 0.16191506216978155 -0.6310966363736413 0.15519184098362063 -0.04970074473017975 -0.8314181604191117 0.5865341825010336 -0.6289334800397963 0.3607111525467854 0.45954349154972285 -0.44561793282282586 -0.8667812658430902 0.3062158393831003 -0.30907106539190526 
-0.6847589331514012 0.3554954128076437 -0.48042029039995554 -0.7778470062110685 -0.6176850958388057 0.1515523310475267 0.8811312565933949 0.1633777386785504 0.09993338781542564 0.02224808822682558 -0.31276267217706266 -0.2626725970808282 -0.2373870597254515 -0.9786431786923534 0.1596937907128885 -0.31961586561430994 -0.6102679795310536 -0.8549665524836185 0.2466293789465629 -0.47300793553432163 -0.4371301493796874 -0.2841539012977719 0.9315338153176009 0.05310008827387832 -0.944880425786544 -0.6299357435066153 0.24555514450356045 0.8984489008349281 0.11644468798046033 0.4073174185935602 
0.9691776189643502 0.4442196919279042 0.2264127696992887 0.724583187066239 0.6129957802171159 -0.608471098980847 0.8854465146552877 -0.6680446209232407 0.683148189060632 0.16838550110801814 0.5879072106680571 0.5351764741731622 -0.5341784984789396 0.2859465774056737 -0.49478831557341835 -0.7286814242989875 0.6057436104555527 -0.9274491143491723 -0.39567008533020953 -0.2050597065580771 0.6075891297932133 -0.167219094753964 -0.0632691890486553 -0.05993804412227315 0.0550938126247838 -0.5902151230501858 0.655834380770162 -0.48143392810166313 -0.17905318198905257 0.3746088910083349 
0.9538464450055452 0.06816156930228563 0.8314411759448656 -0.3788339426853074 -0.44097982289176757 0.12438175284998271 0.05497354365695556 -0.9827553158617716 -0.30860919840506185 -0.5325201559162444 0.2961505135457747 0.9394728356986586 -0.5509225691610002 -0.6175139438180235 -0.8903229652452668 0.01917676660578467 -0.5188034505455369 -0.12878400498353534 0.686316349307761 0.2288543000662641 0.5009728638572666 0.9679150355103588 -0.08189393260660277 -0.43994704856646444 -0.29766689918660416 -0.16440395924653434 0.01564941323227806 0.9745246809729041 -0.5344589493538674 0.1580272335911133 
0.028854318492018534 0.054748593255358836 -0.12780317377446693 -0.5072895750469064 0.4135230264027591 0.8365444675408832 0.4971977341565962 -0.28690796463264173 -0.6103026743630454 -0.32435242679979376 0.7050055572724945 -0.5563797194787398 0.25368846545007523 0.6817519278432398 -0.7501475581727904 -0.5208225447083514 0.03423237610744135 -0.752329110614571 -0.635734063982641 0.5807851336223946 0.9242285202180478 0.5079053990424987 0.7175686750890804 -0.24761598940452 -0.22696513112357264 -0.81995101603309 0.6357712336704212 0.1288744896157428 -0.40969169114661463 0.1741011559674191 
-0.20345953555998061 0.9434978396604556 0.49089400557624663 -0.4011002252323341 0.24769530634396345 -0.3069742737987655 -0.19871425404223492 -0.6484733747282154 0.04494359031343017 0.5821199072572574 0.15168969862030676 -0.6553254328692548 -0.9356578400006785 -0.3963894454663385 0.29374611274938617 -0.39138493392959345 0.6172254954161225 -0.8006644123083178 0.11247380480357015 -0.001465170058404616 -0.619883567453282 0.3465729479382944 0.8420203977289169 0.044660362838397825 -0.1506040434222944 -0.8720134525097906 -0.151682367460322 -0.3982778272248911 -0.9597241822106417 0.3684012433533877 
0.5077529065683921 0.3859572756619505 0.47188213876139695 0.7596076524105854 -0.3105103864483863 -0.7680162883140945 -0.38497228009299794 0.04479527743721597 0.14007848849254595 -0.04147238242330989 -0.07349166183358338 -0.7029082022240783 0.6725229660394679 0.10111608653533773 -0.6464656856833157 0.10209382757122162 -0.5220273240316237 -0.548502370157702 -0.23583484711429556 -0.4578557447360053 -0.8932614992327503 -0.662310940646124 0.14438546022448998 -0.7194771394133451 -0.2936632370889329 0.8851850738926429 0.5997282209352821 0.7565899765249182 -0.04221555343807847 -0.8809850566992058 
0.2091060849429606 0.5283210245690494 0.8173832425763671 -0.3020376918884839 -0.39921079618783545 0.13659577186880723 -0.35024661937081764 0.3164077588861945 0.7552501136756384 -0.4841534439320654 -0.3711233030639388 -0.6340443296251442 -0.013224007861732837 -0.06113665530856948 -0.6125594626597428 0.3178771110856321 -0.6843266851335873 -0.24139267849043902 0.8107871121799783 -0.5303556754614316 0.5149949749905429 -0.2020988215598234 0.6003240460192125 -0.8078884814016447 -0.9994679254894064 -0.8615238623048157 -0.22798308732817366 0.6214199458023338 -0.5698383437541374 0.2732821215861909 
0.6097605880397762 0.8581030885410186 -0.6115589282777861 -0.8880461712126695 0.7584413370250357 0.1681778777117812 -0.14593458250918065 0.16629102764646114 -0.8789397162114755 0.42431546667677167 -0.7162910138247105 0.3946636951859544 0.014392174490701038 -0.9170434621916413 0.09169445484764877 0.6445528581505577 0.6419669273105405 -0.6387318840768246 0.06573030686367763 -0.5889016743758888 0.35856787595782086 0.9598718909647436 0.8308395764235038 -0.2859736530771729 0.4291308302527645 0.6721215821597387 0.8577187733300965 0.2986842460497725 0.026198107900275654 0.5258783308296183 
-0.2889124606940618 -0.9224972020554536 0.0637092163732372 0.7247534353515195 -0.7597318543711098 -0.24474716197534988 -0.8707724209161193 -0.4153775955898431 0.23943846702766577 -0.08170772886623584 -0.7412165948263221 0.9097455930879913 -0.2621265819192574 0.51890184993965 -0.414626179491015 0.8042823010279612 0.5286212733429279 0.648566630097805 0.9987669236730014 0.7882204603048607 0.8035339190252863 -0.23056113129050673 0.8688014736486016 0.2663476725823992 -0.16509241612661288 0.16112695860891324 -0.38669876039661893 0.8936086088432614 -0.4712545939111338 -0.7596574370212705 
0.43268483394160256 0.1867486629422735 -0.6280805520655663 0.623827852421166 -0.11314284726222862 -0.14859068084262703 -0.19472354136925 0.3303477454601725 0.1560739817096465 -0.2749614750233649 0.3769972340900233 0.3556548525010838 -0.19428545815890833 0.9809876718243383 0.16527143131552396 0.0038897415251175744 0.6663785077029205 0.2948513580326292 0.9066551265933851 -0.17647010317920442 0.043777535426304554 0.04360021761567994 0.026321332963663163 -0.23106765660084563 -0.11095801600437191 0.2903300331129774 -0.6620226399935003 0.29890281471303953 -0.2111870699812615 0.3002698233412442 
-0.43214786608379285 0.5220692234950018 0.6756033400985488 0.6420232756880573 -0.9483537020547016 -0.7867837491395222 -0.9890971694688873 -0.45536560868859727 0.965745389049685 0.5491792580513825 0.8627205050491539 -0.8833439002677603 -0.725438355243823 0.7512353099888054 -0.2259578797572697 0.2728842294663157 -0.7885916823903176 0.47121300013489653 -0.3875310107547462 -0.22528090865678535 -0.44268076704026604 0.7214194356931277 -0.3064995063088559 0.6574592863663462 -0.7579462972451347 -0.5761204205230552 0.386315737917153 0.49995857762810403 -0.13621951359864753 -0.7577097309999435 
-0.860646693113647 0.4861837590134317 0.6086987477986482 -0.7395428040636283 -0.5959567293578552 0.014827386231638776 0.7491428232683921 -0.7160894985013475 0.28852284543181467 0.7322885209223013 -0.5915650921554944 0.06672546505724752 0.9392092290100764 0.2959616546581957 0.6030714590795831 -0.39645836238886367 0.6266037609346409 -0.08107714586326599 -0.2924476609745258 0.7770943238226153 -0.6972753543020382 0.8037421059814964 -0.5655519104390194 -0.885488309666876 0.0010796190469418944 0.9422834563076613 -0.8179353360872255 -0.8190081983270066 -0.1338971184571677 -0.5599912508581467 
-0.8256831171017177 0.22737789484688276 0.8274963352390656 0.517425222786079 0.20220543027043814 0.10857294818821812 -0.024057703859742825 -0.3520303792264994 0.9735696624360727 -0.797526182109745 -0.44985383054809125 -0.0891855396922869 0.08746811262594327 -0.9151942027690367 -0.8887931895122986 -0.4315452132085815 0.4719680839289239 0.052783709409305456 -0.041178762995903305 0.12368835829988627 0.7587250832987987 -0.7589562987883443 0.13488401698379865 -0.3336410666094399 0.5150473636815452 -0.9635879240881564 -0.5367011591394503 -0.8097192925221738 0.5139908066946582 -0.22701447123285887 
-0.00848503961327016 -0.258343524206804 -0.7046678411012719 -0.7224952588361254 -0.07319483855253986 -0.24501375320736277 -0.8455228342948151 0.7344736808444675 0.7022800928681278 0.7387552972919169 0.39479484541731724 -0.44519200257867153 -0.8394702821429809 -0.40750052153135596 0.1872724084340865 -0.544517135241353 0.009080799082064378 -0.7315580353835708 -0.2953356169412037 -0.20311290950361205 -0.3197200376660061 0.23503373032225014 0.3315925782493714 0.37431035260645323 -0.4807495050847639 -0.743624384015702 0.6994541673785825 0.3230717736534603 -0.17291696892771913 -0.6293600705935339 
-0.9452560427986025 0.5721657102020898 0.7024367083734712 -0.36775055052558403 0.041662026351326806 0.36919227120108383 0.8532426698362829 -0.8232867956629362 -0.6353549454830879 -0.20027544343792483 -0.4087825083378162 -0.5263400702578915 -0.006278243025465279 -0.06283248485363635 0.07540935014904265 -0.7472568606815636 -0.41463563289289307 0.284540039630808 -0.4629839808697503 0.5187506921666788 0.613767405193444 -0.49249041916535724 0.6962305135442478 -0.6836343801303335 0.3422535038271912 0.10840394591478054 -0.12712239587626026 -0.5383067445335996 -0.7882266903949694 0.6538019490823253 
-0.6038594120919182 -0.6732122839443664 -0.5167667779578182 0.4437139478351067 0.8346634375265866 0.9450673908500242 -0.9573654004994233 -0.9017742751275896 -0.7031426800343836 -0.800360073475967 0.16280685103025833 -0.5620865265553014 -0.4077622677806139 0.6632025723317636 -0.28725579567693543 0.24717597792815385 0.3981430918425191 0.7773229977213085 -0.18465082417004047 0.03506466258997508 0.7421973204121849 0.49054528648810225 0.27663985924260026 -0.25394354204021435 0.089396285064583 -0.7810901761342529 0.24424361350215082 -0.47638198920677405 -0.8862871025594028 0.04911134505287585 
0.5002713519865232 0.09229319487836471 0.8376329056156641 -0.5263341106571064 -0.4465753812811721 -0.900559058729375 -0.7609561239983202 -0.37090955747500853 0.26745907621347387 0.8456404436561716 0.6534244830089849 0.0022500702953248794 -0.8521084571989871 0.23316716125217757 0.34028738235699457 -0.1233418640807955 -0.39389740808312007 0.47484044287886856 0.4363507338112689 0.4096588758771678 -0.47024645849411933 -0.8690702084302215 0.1839262365682766 0.16306779036145502 0.31070281598457566 0.3796963174255555 0.80153103215996 0.15397609043335897 -0.8836300139950364 -0.922457646707162 
-0.345263024300919 0.04907079857797729 0.6377618174521735 0.127623753181755 -0.5112030044077854 -0.005009232131145824 0.8071469888541957 0.9511766981759533 0.4006153056004975 0.7587636633802006 -0.9493826631474478 -0.5562578589879345 0.9560786738887643 0.3467408775845233 -0.4744470964904365 0.6986625746906938 0.39990341691807657 0.07683256650904027 -0.5097293878347079 0.993568544256879 0.25854491954729203 -0.8019206602197358 0.4629299215544713 -0.9396860708821702 0.8027693116857898 0.5834083467224745 -0.851155746694554 0.49737571168582934 -0.18493635223930907 0.7652071560153245 
0.250611529512206 -0.6664190748184926 -0.10189624907116449 -0.3595568179668487 0.22200345343493685 -0.7847170992681654 0.16360697339579747 0.5405273143043486 -0.21299588789287854 -0.535651450300705 0.5577677361822974 0.04376357336247228 -0.3827378858285269 0.34212801910119617 0.30699628056301964 0.9013153333210114 -0.053914037606677165 -0.7448383723716654 0.009428040521995097 0.754829848673717 -0.9055853214350151 -0.648816104714548 -0.24918371231533085 -0.05690793512127056 -0.10605161722906933 -0.020769573371616317 -0.7103003409080387 -0.37372828188145457 0.8148298063752952 0.8258546161998767 
0.8348009171102713 0.7009292107007344 0.24001227204123923 0.18945270491989896 0.22928043574467363 0.5352556936352728 -0.22392655686564897 0.8181777672206337 0.4593760001671484 0.4233199812410387 -0.25075546053003933 0.011418337410143756 0.3213332057653061 -0.16123947100984642 -0.8914302732967581 0.2736779574385883 0.8089379125047409 0.062382558436794515 0.8422261167831844 0.7094897388847663 0.3249660015206872 -0.4351834529669241 0.7106248732956328 -0.4390623402254932 -0.8266120273670917 0.6446313379730655 -0.3905178535280636 0.8150150411767277 -0.044780101267054596 -0.7462709663258149 
0.19861773911523126 0.6456396144134106 -0.5305561854382218 -0.31374555324653547 0.5665722360669143 0.605740846660168 -0.48880289107757185 0.8635044200574965 -0.3512068430530003 -0.052327194502339 0.5634464906730463 -0.6829725229449933 0.8766995317883154 -0.7745197293012535 -0.20620138005908684 -0.3467986103111494 0.1072194231418299 -0.5793757044522909 0.9970385079694521 0.2769046713704741 -0.7327794077952186 -0.766911705187354 -0.83521937877562 0.4587914347339823 0.3445009518384781 -0.10746266056013706 0.2173433424516374 0.44935478339051815 -0.6332820557862721 -0.1301142475389666 
-0.9014412697634777 -0.7249519976569296 0.8318799901105782 -0.7928546811381574 0.9133581650217973 -0.9045025626291913 -0.31087515539627997 0.8343848973350564 0.07837416881843437 0.5578668467233288 0.41506889151626986 0.20455989384897377 -0.4402029657346819 0.45312682162326456 0.9916050226181079 0.8537231207112455 0.1883837961112358 -0.8389682485703893 -0.33733453001011504 0.08050294093210345 0.7702741850267435 0.8646070962148479 0.23249064320855656 -0.15948582577595563 -0.7467830902422652 0.3213364549596059 -0.6345884247609763 -0.836857382890775 -0.4387667898227231 0.09790428260026643 
0.8561818859704506 -0.07563773104677549 -0.12327943714338166 -0.39368240663837767 -0.8367318880508173 -0.3534140152412779 0.1281255076694396 0.02436652792634764 -0.36875011325843415 -0.8528446642958885 -0.7689508907381082 -0.7614631517940387 -0.2236761920260929 -0.6798879561654145 0.23565190877835002 0.31817120445012625 0.7685379132507479 0.11096678152191933 -0.05185434690196418 -0.28947970715647076 0.8165779537553959 -0.16778907072498217 0.8232327646478 -0.6597438603359238 0.545717122467501 0.36794308134330383 0.9649536962451284 0.10440740098207585 0.6569013738552553 -0.47163221827144797 

-0.7328083162157982 -0.22657760101863234 -0.3599622817934142 0.04225591471935373 0.738400977479015 0.667512983849222 -0.03038065583584087 0.45649407299315004 0.45261520026698654 -0.8705614636801066 -0.8572524450056827 -0.6354239591304857 0.9195793991500852 -0.9171424082504913 -0.21250740708168103 -0.7145453611129741 -0.37562598718635404 0.45080216316189176 0.6313037265722028 0.1406194018247742 -0.9540313181994604 -0.6689811976983104 -0.29975453244394257 0.2575509124564382 0.7002690806280452 -0.17046203186853812 0.6144322745166858 0.4233357976329656 -0.04511625151220314 0.006840977640203481 
0.9734335551881667 -0.11468011013078683 -0.4406286243384255 -0.8961101711050106 -0.32084467136748923 0.8146080519251653 0.8452235192548563 0.2407949658273131 0.7098085819353368 0.680117346270885 0.3715706393569355 0.11863632376951898 0.33680843896111684 0.2247820478427321 0.4276188022339914 0.9054070819838194 -0.9322731825646836 0.29232698039132493 0.2500388694716935 -0.5500305673605663 0.7017934325207774 -0.3779188563231538 -0.9267161135266203 -0.7567474502363116 0.8005158642838446 -0.08903514295800427 0.2030717181193698 -0.8661580329245642 -0.39553644121909126 -0.06407315018365087 
-0.8119437365091944 -0.294513975669793 -0.03167651928918025 -0.6632517313925277 0.8619630629282891 -0.5630509006171297 -0.7601961427693457 0.778262223179824 -0.46177445443679804 0.2900179241888525 -0.8259870312160751 0.6426907567552329 -0.03855970771835316 0.20936841237044837 -0.04656231162860591 -0.8530673090858188 -0.24528921554406558 0.1683864008738716 -0.825333256312323 0.8362801043320758 -0.950779897682706 -0.14207319063963034 0.26652130471137175 -0.22481874161233728 -0.2578578781500819 0.890386686871656 -0.7797337308170662 0.43730811463173475 -0.5987432490933242 -0.5206412532269118 
-0.2589035188765327 -0.7086729677142263 -0.7805865483197535 -0.04447775880884073 0.9711051120906831 -0.6145876851496584 -0.3807603750991459 0.19231642533495705 0.7874562788098194 0.8526847716420505 -0.8817334191579072 0.040339615602247664 -0.654499004796468 0.19139150358903886 -0.1130949001350962 0.20729516589140015 0.01509265488771536 0.41779302530524076 -0.9335299479460241 -0.32928921253293136 0.1493674125158198 0.7463579278126993 0.3617227422740154 0.673536008972292 0.2287833900890557 0.32100689926921133 -0.31784405720932907 -0.3718783325672912 0.8392083507523281 -0.2972098856512939 
-0.3214622647175797 -0.1579896581674476 0.6713935438888995 0.3135700156325069 0.9058857548492145 -0.12096614131363606 -0.7299021469222338 -0.15845439022997004 0.04164236523635227 -0.4167423464379086 -0.3851075334327438 0.7349014308946642 0.09693598834001864 0.31639910820410155 -0.2197364518563129 -0.6610989754991483 -0.11792201362649793 0.8000114521315022 -0.0986760650411227 0.9791496533180885 0.12058941130675206 -0.8977388550377693 0.4634557701672622 -0.6523253564620192 -0.4437520999055447 0.7722583289285329 0.5350433122194644 0.9193618635740856 0.1526360170064938 0.9008985735422337 
-0.018213481459597742 0.8064892018289902 0.06312888461260137 -0.025027855719467917 -0.07221106352000388 -0.5448590138267254 0.42788309578224204 -0.2091681150334152 0.7687655332181266 -0.10866406404695135 -0.7439209838157256 0.40761242381600427 0.8988428051097159 0.8467625717025976 0.6594257729064541 0.1457485920278957 -0.02413440001651552 0.023171561789367596 0.5255941067256883 -0.026940959193392917 0.03041904252834781 -6.019847379621781E-7 0.35473307952053723 -0.7275956127185341 0.013257471705580528 0.846169173658091 -0.5695080480338983 -0.05301741758240231 0.48136928519080097 0.36592197714584146 
-0.24462351937529747 0.09532334945735503 -0.9636493107160146 -0.9097942233819774 0.25330483180222857 -0.9247963534871635 -0.14016094683472194 0.6197074059662893 0.6272938251196534 0.6769652803600253 0.22989206619305627 0.7316892386366283 0.9565034076850005 0.33880492507830606 -0.7433746053639869 0.7822410282920387 0.6275243513151518 -0.13746381166142033 -0.7587585162706688 0.36718946957360704 -0.4833916617072864 0.9259679349044174 0.04103708092332422 0.9489692574506536 -0.5255773664067835 0.8385033460555948 -0.3859482968156471 0.21343699169140226 -0.8878169884487346 0.449442915685309 
-0.4794854119679923 0.2897616742034234 -0.35224172567590695 0.8938798213581606 0.5742396147312412 -0.3519438988006403 0.14261257595654991 0.9488572248770899 -0.9342583496948977 0.48392252241761813 0.8452705540312 0.17324268351284927 0.0196472138818992 0.7050029220963602 -0.4458664576291174 0.7168650530027906 0.8028107598440751 0.254630721208152 -0.07770451504196627 0.7108593405297687 0.06505424818425008 -0.561255495544022 0.44957860619304424 0.4882138272664994 -0.5261271805169226 0.16643937223963942 0.5409461921543646 -0.4655534225565443 0.9939872873122574 -0.4286385091282856 
-0.5412555343650406 -0.9692116473356891 0.5680557097063831 -0.6497315975664688 -0.7445837645625303 0.12818936417093105 -0.031035213656956075 -0.6635912735405239 -0.15463132339923488 -0.3223062287703324 0.32403322050298744 0.3199220164732766 -0.7398280906647153 -0.9562546817681898 -0.6481955651510181 0.9339034412398407 0.8278540826406334 -0.16055990109843982 -0.2942375321319695 0.5438812172814074 -0.47281723011336046 0.9483398561755094 -0.014646135894843242 0.5101921925138431 0.08995961877885152 0.0352958376910527 0.9532061811552422 -0.06317082394685376 -0.4408177704762848 -0.10087555846810647 
-0.7115893055004633 -0.923037437412838 0.9581240374517014 -0.5171698407673905 -0.19064636366278387 -0.06527952478146248 0.4852619138294099 -0.8672365587683741 0.515339594119894 -0.716435076932579 0.22201838939156834 -0.21503971812379907 -0.9747419811819562 0.3175295290635459 -0.27459749683062246 0.1593432060873248 0.03179562798687588 -0.5439347543519045 -0.9252448846411199 0.752800020262136 -0.7555294034790017 0.4438279779029872 0.9507931539457579 0.4496715004841362 -0.04150660741748045 0.818192551009667 0.14950442680932724 0.9047031678210014 -0.1312959888039511 0.060945913340815006 
-0.4343833398573725 -0.4949849717798517 0.03401320388277982 0.3073081360325486 0.12907872227514036 -0.32084389910765637 -0.9938922204838223 -0.6446410085931442 0.438324787225607 -0.40164426262493974 -0.9513330943160688 -0.10045929503990722 -0.0954715251374266 0.901424313151289 0.10355256869141358 0.4065888264173092 -0.89248985222826 -0.023790021305117988 0.7010942957245442 -0.14107809392652687 0.7603518714871127 -0.45708703232676795 -0.6349992442758302 0.7094639496839457 0.1898087429629024 -0.18991519376122767 -0.7714834311632284 -0.1763836765522625 -0.4381959042737281 0.3120192137653936 
0.5569533316555401 -0.07182320425246544 -0.7838986074950182 -0.31340559685406133 0.6628077728190317 0.1439130715416147 0.4215174604688301 -0.8842044325716437 0.30293058977952836 -0.4532660019317264 0.6226591629376711 -0.07444885570545544 0.06374856231819064 0.38582185627574267 0.8217396680015232 0.9313907317918798 -0.5317280078436241 -0.4209012843795925 -0.8763383272087434 0.514327945673373 -0.4191152921660002 0.414462440504712 0.6690657889194511 0.12634082835287658 0.7371892526674113 -0.9958186821063564 0.1918467050477544 -0.05112455736812039 0.695839789855329 -0.028984524539470955 
-0.7426250639951343 -0.23322714594940577 0.9830836455101479 -0.9111726821878046 -0.126159377899987 0.7690673010341603 0.49645637779323837 -0.8421419944966987 -0.38304475907211566 0.9525956978844136 -0.46586114839947623 -0.7370505643627229 0.6662299190833665 0.07826483188803494 0.3341681775007873 0.745190766792259 0.2249568430163868 -0.28128336500924256 -0.0641436922451162 -0.28839326124417664 0.6799496047188445 -0.16393801817709394 -0.2833254291796074 -0.2860134275752548 0.5545921341939944 -0.45862755913647973 -0.6885232732943114 -0.6528299510132403 -0.18149737032938837 0.21299203503918174 
0.7869036190155588 -0.051297731223664135 -0.5606513345523388 -0.01142170852794393 -0.07756693544089584 0.3262031334020502 -0.8027951496220902 -0.20348229958109007 -0.7597514993849573 0.4943883918883597 -0.27112568374476714 0.5540572791389912 0.030208868518923456 0.7749189345163044 0.5297556042421852 0.9372608783289635 0.03130803961091418 0.2913663120301457 -0.7870609699207001 -0.7871872743022496 -0.33899504993520363 -0.11258485913592536 0.7090744221382412 -0.9754420881057168 0.7221500319296916 0.8028415419203996 0.2902597855464864 -0.26103359806889614 -0.6248983293421064 0.06039589523050371 
-0.6920622256448105 0.980391146160138 -0.17700491486039008 0.44842269866709533 -0.6412550455974803 0.32327655225527846 0.6422654661203961 -0.7708842906787765 -0.7723171322877899 0.760780226595691 -0.02257893712566433 -0.7422914951320438 -0.5968826731181394 0.5303841665192417 0.9245669704570579 -0.932295520690885 -0.7801604366449665 0.15366482998105319 0.3437753414032368 0.6588939629600524 -0.24231133174744995 0.13472977861068586 -0.9312180399764332 -0.7811476166545719 -0.49172472682440765 -0.3376274263077914 -0.9763825788238831 -0.1846513234858762 -0.48040358439595005 -0.126132573541685 
-0.8907243501487698 0.2162501339853452 0.2380772066844193 0.7637475920332384 0.8894706936751345 0.4249131512126068 -0.4101811274734139 0.6585468402185731 -0.9167112776157845 0.2640110072249832 0.9777451515454461 -0.6702208739120546 0.6630852583847718 0.3957640280800103 0.8183179399093907 0.27850249438275043 -0.03979298960172719 -0.4623695229650809 0.0013800119151521724 0.5024922543357737 -0.4040084773104426 -0.6871465760735607 0.22964610240096334 -0.8569674724143216 0.2860670735907171 0.16957017994016413 0.5772519010641685 -0.19004682440711135 0.6036470929490966 -0.8907434835253619 
-0.19363574272782227 -0.9045660850757515 0.6453675976030777 0.5843679330857894 -0.010678838000538907 -0.18627460693322068 -0.7950896881597382 -0.14402613097850134 0.8055272767530643 -0.15965519032690176 0.5413372853415654 -0.6527376650013216 -0.4812634145394158 0.07607901035459665 0.11854978144089416 -0.9150550029050036 -0.9138951598585785 0.023072815906101572 0.7961244976792912 0.18970365262939512 0.11094095145613038 0.7361091614636271 -0.13211160067025227 -0.4413681795484467 -0.5768829829107707 0.4999590631944138 -0.926958742711629 0.37667946318630663 0.9559127961736434 0.484081670117962 
0.24565230164785443 0.9007682298397813 -0.7146926191782977 -0.16115453400725016 0.621880027110088 -0.9206216629296032 0.7075240041879363 0.2228364878452451 -0.009716854728948612 -0.9979422876863974 -0.94711993083751 0.5887058821569208 0.8490967613621242 0.917435691796963 -0.4312310554361096 0.205399675355762 0.5253721303664419 -0.3850293669791932 0.15186416189926913 -0.642492199219503 0.8143889935928195 0.3347984424878459 0.9694022063438589 0.9378565054414726 0.11376834878769204 -0.9483095381330586 -0.9183356964371818 0.23736100542550967 -0.7447747110359902 0.9732692449938035 
0.06255006378021746 0.6365575179302537 -0.7220752514422144 -0.6007127039669953 -0.18763301190436496 -0.38397961222752747 -0.7591077177754488 0.7077944484412843 0.7668321672472516 0.5286297337703709 0.8380264054910197 0.16607649667217655 -0.47166042755240195 0.9138094600915134 0.05763844916154244 -0.4924422706768514 -0.41936918012782975 -0.21486760680075617 0.41951813934220455 0.7735420257168854 -0.8052429654561652 0.28498690465290144 -0.5736439660604024 -0.21305866643202773 0.8949171625825926 0.3754685704926125 -0.21848435693763588 0.8073386220487136 0.9235041665685361 0.8227431913667251 
-0.3452825374610163 -0.589596093881862 -0.9685743358326141 0.6324788028164965 -0.18233917479685985 -0.5579862255197097 0.6150911185333621 -0.6933462850849716 -0.17523535472884716 0.015443315648693803 0.7325742779430485 0.8173703825390136 0.5812240351764966 -0.04684138435531929 0.85319142022611 0.03196732308701709 0.6180186384767528 -0.18261976458335913 0.3295813017461638 0.4728505125873629 0.18550379802108996 -0.2688579101911752 -0.47170112504453887 0.7594733901073327 0.8795000824785747 0.5605624755745939 0.3156974575321902 -0.14542234720874048 0.9316653107608467 0.7104574175413739 
0.16686727107940924 0.32525531647515793 -0.4779371787294896 0.7796022725978209 0.5508647496967916 0.229054255940644 -0.48477691605416195 -0.37107907474606916 0.44306128364472513 -0.05077060611711155 0.8728037142423454 0.03470030584193378 -0.17579430238866559 0.3275238515591089 0.6627461633537782 0.030446622335073652 -0.15095566951041084 0.78169270803488 0.06319172786695174 -0.714352872211145 0.001433775950901919 0.744852552102962 0.050532976209686865 0.42583795729186696 7.183468802189515E-4 0.7267322215217312 -0.43587338632821776 -0.9321690396333103 -0.5168373749110122 0.5723765485431125 
0.856698255426941 -0.47466437688366914 -0.4445623516733321 0.08169724267566039 0.46778270799713917 -0.36511715973579983 -0.7989675454970704 -0.9462065624829775 0.7981840785629613 -0.04263747766813835 0.2182361715663701 0.0320391256664611 0.6178320501918085 -0.2682561481306159 0.878098356267949 -0.4467390653223023 -0.9956956841653997 0.38679966342234784 0.8129725817572192 0.5396508596542433 0.18924828415652284 -0.837648972544752 -0.2197456122803445 -0.3753786809144222 0.5785968866897344 0.4479709014521634 0.8952765130081334 0.6653063776730609 -0.18025081893351505 0.8157546327421409 
0.6844834953247627 -0.5290750373358198 -0.7999676941710823 -0.5945393612093822 -0.11626870952786479 0.8627224647465368 0.8941261397118558 0.31525818334432737 0.29189444978215 -0.41673416574878996 0.6155949866498679 -0.043091482172174934 0.1853864726452347 -0.715805046546494 0.08289898510061797 -0.046115267246419525 -0.18933184994285385 0.8479970643671441 0.37590965914199487 -0.9073791125670425 -0.7067985839712319 0.6367611281570895 0.7373722509590259 0.08101873428101286 -0.06365252903898665 0.9113946411467585 -0.3351657798946897 0.42508526701682875 0.3308970607546347 0.6276665849863012 
0.2420902139444084 -0.3963133913217787 0.9557456101334015 -0.9091703558838421 -0.4248071743900729 0.9030608485113404 -0.9775674260096531 -0.4615453825800648 0.926585833562186 -0.23314613709812096 -0.7989270177920388 0.6215157464122486 0.6819550256109217 -0.6758996264986623 -0.43754549303689205 0.9666472428390618 0.6378875335524395 -0.12329863550904763 -0.41915719713893157 -0.4721164744397893 -0.7355448349164895 0.5595949981466416 0.3643052065647546 0.27408671028953674 -0.42464839439275964 0.13095711416867256 0.41412692171042836 -0.09134350942460366 0.029227896841767187 -0.0935916082677558 
-0.8378393382060725 -0.21899352073043704 0.48938708624456795 -0.7796541658967086 -0.7052845649727858 -0.07531622239732257 -0.3149854976680671 0.4791586851245468 -0.5561446159156723 0.24489372004973942 -0.15436525108273033 0.8652212117585769 -0.7882525149907881 -0.7214057647242533 0.22150409723022899 -0.9427868189263743 0.6909581051332208 0.6631997381486728 0.05616211670061273 -0.04856346324217633 0.6533728880324804 -0.5246647915375828 -0.7566247631460664 0.30045705509713894 -0.5973377368778586 0.9389709680602792 -0.6207618687601009 -0.5704725597263874 -0.07998983833019374 0.652655626272822 
-0.7888076123017259 -0.25210112403246304 0.38005050397851914 0.44845459412226685 0.5892505174397822 -0.35874210097701675 0.3737609670573528 -0.7293990081846657 -0.05926758976485103 0.513176540203904 0.24729830058804012 0.04974319769626275 0.018323478529951955 0.23759824789425654 -0.14945682903797272 -0.5509240604882966 -0.7877091472939718 -0.9089770562724563 -0.3136193240235394 -0.42847582571660575 -0.9287930470826377 -0.6478022738478529 -0.03849090641291378 -0.7574560507430053 0.8415388611225635 0.1887587012515401 -0.6381609072733387 -0.6790061956184374 0.8149913660733186 -0.8055893382892044 
-0.48968329441664027 -0.35904425206035023 0.06349595752949479 0.9969090370988034 -0.9878141383265098 0.6499972302522141 0.7452155268626088 -0.2740576897183166 0.7527550443694351 0.5857296806295534 0.5811346682914734 -0.18726322120310535 -0.3155591495282637 -0.8815241555964862 -0.6700267376870558 0.5851746528058417 -0.27452614822969207 0.7905730173548314 0.13032523516552266 0.4315847840480585 -0.4114424920846445 0.2941767755020576 0.43326823195977854 -0.07676562715337527 0.3699844375453348 0.6550241636087135 -0.08752849507636037 0.21865256353773815 0.5479951904015404 0.7280122389303552 
0.22010485849081932 -0.6841617116471963 0.6790934225522611 0.060740974835860106 -0.2535959525106418 0.2767849660183943 0.5232009035468178 -0.8564849969528456 -0.3566145469308753 0.41519661052131235 -0.4081123508276846 -0.660229946288371 -0.7082966616640664 0.6234145732941269 0.18469467667876044 -0.6197203545977961 0.11554704597824862 -0.49464206646632236 -0.13642316059666929 0.20224185225190472 0.19372243136479808 -0.2090659101643205 0.012072201076020563 -0.8703846882294666 0.4659499093176769 0.6261787550876337 0.6376370191169567 -0.08503839573479446 0.5033129884240511 0.7645533448425099 
0.8951884501008431 -0.9978979203843049 -0.21469318943596188 0.4290258615838499 -0.05384053514947773 0.5178652363951564 -0.7780678208864528 -0.3279811950009632 -0.28477761153251246 0.9657936816905826 -0.7408546411901306 0.4283575324206258 -0.13528622158772788 -0.6315144635544647 -0.6762477009214717 0.1385687003454198 -0.11919769457947665 -0.30578694121450783 0.5919770366780063 0.8140365213432789 -0.45068745577728975 -0.1966445807321879 0.10683935205671441 0.7219802103922243 -0.7033590153077138 0.8632089441966522 -0.8769201561684042 0.4874491282371346 -0.11906943085323089 -0.7948863578629435 
0.22437323677628493 -0.6588454239871608 0.7409406092317519 0.9357241726810637 0.23608377853895568 0.4861041544108464 -0.055190759528866415 0.2646469173349422 -0.7521693582158145 -0.8873697251313194 0.12817454712979964 -0.5264554240297216 0.16365338171369326 0.46057129950073455 0.07088631806016917 -0.27277628618934263 0.11357255347880249 0.5089745773355252 0.6338058479323437 -0.4849191501621853 0.7888723418383318 0.36785054182606725 0.6619479866772865 -0.5883006505980822 -0.6955799794569687 -0.7468548573084405 -0.8424916030504953 0.05826274669478782 0.5448969324133444 0.04523260900924196 

0.11513100796214595 -0.7029617174493613 -0.17762284832442923 -0.3709866516500708 -0.9731643495543681 0.4037216289907583 0.44708199268590826 -0.301330098340402 0.960469370860545 0.7601277358294947 -0.7346521673470353 0.7423414007395884 0.4258158619292718 0.8871190526958261 0.36809854478973464 -0.6821061356267661 0.4429350534240626 -0.07463174871318558 -0.31002427920495906 0.37496672253118024 -0.14866747191568067 0.764810091114001 -0.949579103597533 -0.027998291307238916 0.6189964920552342 0.27477474495861365 -0.812463275522006 0.7853226069211753 -0.09128288064203975 0.9159799173802617 

