-0.25277419832099923 -0.9394541951074624 0.41998756153987077 -0.9775683682643364 -1.2096092862915102 -0.60331351024242 0.7184483861741741 0.2742501472593731 -0.06607210799286047 0.021591645330111032 1.2958188127391514 -0.8714704100970223 0.12867548579854352 -0.36098692624214335 -0.42141307031080383 -0.2933579389036454 0.39442708224641737 0.57476532600015 0.5295814335698177 0.03383585023747933 -0.2201073798184837 0.32232159855971365 -0.11248462530683397 0.17000387670962325 0.5179573476636461 0.7691782234397587 -1.0417967385982982 0.289753165992423 -0.12718595159003343 -0.6246061921511095 0.2106750817808964 0.004503423840096278 0.22750825339850214 -1.3059425288084576 0.06302971039419225 0.4399771315211282 0.1413649559429176 0.5728168359091098 0.3654177699639814 0.5494802200994658 
-0.5065954173348344 0.24512231421088193 -0.9935038988794928 -1.0660611270627414 -0.14857188270455446 0.007609275024458928 0.25319299245822 0.1556880360155364 0.36512881610663483 -0.2532622905782819 -0.14811728699563 0.20189385967987494 1.46134535746374 0.08755387207166482 -1.433656629475001 -1.00056355876911 -0.7117356562867659 1.2661968604289835 -0.31828764871461607 0.09796951378383723 -0.13533507417430074 0.24401441139627 -0.814014202815091 -0.7227628354166935 0.4275696434754955 0.27054186871962443 -0.662221669846268 0.6480374357919558 0.22736970321994232 0.8488344703295795 -0.6444831987371922 0.26302592438356864 -0.7977652928004247 -0.5445093210859134 1.123996944606488 -0.7337433143870078 -0.4090339657403822 0.1977379194753098 -0.4897544842591738 0.41861482288217594 
0.7870335022362611 -0.37688567205082113 -0.443712445154072 -0.4560605619053671 0.617521838703038 0.4776612291826962 -0.4805694969044 -0.20768427591182118 -0.49263663248750117 0.2235858352866795 0.34160587697901856 -0.6641105400055947 0.501563671292525 -0.5611419517442745 -0.10264738155033347 -1.042362796384444 0.9456896734047051 0.735817228244713 -0.7163750494037958 -0.7813264766905174 -0.4592512617642906 -0.004690710516948692 -0.6620316174738253 -1.0268401452047824 0.724637949147179 0.18840029311595538 -0.6936992106473809 0.015129616476466172 0.5534064364344001 0.9027537004785009 0.8261920656425097 -0.6890215866065228 0.6098114365320225 -0.6598939657043172 -0.17912180913838824 -1.033675858667471 -0.48401252437815956 -0.2683341866931572 0.17652143284107 -1.0568842111339705 
0.2478607299328536 -1.1309509261664932 0.5221593789633137 -0.7882142701281684 -0.651118823177054 -0.4808115556758602 0.946588334967731 0.7736059677421334 -0.6410278567262297 0.16654809540605178 -0.57812123574608 -0.6026004754665311 -0.4951935008530343 -0.4563124746749876 0.37015105593497377 -0.14139096574414023 0.727843269652251 -0.8141078925336119 -0.8026225412238716 -0.24619630357414987 0.8461157022918931 -1.1503133423676264 -0.5774929200332345 0.407331070900371 -0.4768184152761736 0.11296465822963234 0.5660910453190389 -0.31905422946201645 0.01588960352413196 0.7473163030049068 -0.846620755203341 -0.6224002733857563 0.39720035441817053 -0.6264325790395482 0.6676863438755736 0.7087916237220501 0.822425207526303 0.31758985567726067 0.41033656022209564 0.47933158039110024 
-1.2859415372155387 0.37135432352010045 1.394388907401177 -1.0452375745558666 -0.17844893787634092 -0.23577047427531334 -0.21106120269804746 0.7824413602792929 -0.5101482465469963 -0.8500718055191063 -0.16555977233372302 -0.9556455236539755 0.5975968441048989 -1.538143898138364 1.03257758728689 -1.099165897083026 0.307617989985852 0.5819780139269877 0.19138350958000339 -0.29666303667178984 -0.8496312791292506 -0.1990110926955451 -0.1856210992279899 -0.9175681273360091 0.12821002361604392 -0.673684079205624 -0.39561157418104304 0.6149369357731505 -1.1860934165119288 -0.5643618191264141 -0.0035424050065576912 0.7248476596164862 0.8010069352523719 -0.7077149465180527 -0.3325213104094448 0.6023734744425254 0.4221669856102022 -1.2366363882204001 1.172798583493484 -0.6521557481298486 
0.8429806878780431 0.7949804622087615 0.694719610582701 0.8319725977016013 0.1235121239578549 0.09082272219994388 0.10654030358370725 -0.7169232069187441 -0.6055876812875103 -0.798698352161475 -0.8439491482248511 -1.0414298579034127 -0.3574878779273053 0.21758222553737147 0.6867095612955163 0.835763286070056 0.521671726053012 0.8211573727958289 0.18301809655789567 -0.004291730364122094 0.2573393888139954 -0.32027780198641675 -0.4160433246533251 0.022362104986762395 0.5725890689353955 0.07628769847995072 0.7678490922829445 0.23436149919615087 -0.17288178002189064 0.17089304124639598 -0.19569989489557432 -0.5265463815996057 -0.8254835743975539 -1.1105102283907036 0.753319733105064 -0.047528903235775403 -0.03897212540175833 0.9055585453374381 -0.8575382096408785 -0.5646383833140635 
-0.08849341454442113 1.1155791697491886 0.3867376284377399 0.6289835627322317 0.05435460901012769 0.22371753489252616 0.715612289759193 0.09754416972841004 0.02818791010589303 1.0172079425618414 -0.7804786376067193 -0.4027025310834216 -0.3689875483726783 0.8669205338216931 -0.26168053157439186 -0.7075461450828296 1.0201323927338608 -0.5323977508684017 -0.398285904877697 -0.19285159764131787 -0.5382574850417139 0.43766038175389543 -0.02843580585229299 -0.7678809282671323 -0.417789484559113 -0.9961410184027731 0.6412970720707422 0.36655479572417266 -0.27876229292563603 0.8867710681626407 -0.773979000424158 1.0051520665230167 0.47410180240300764 -0.26129550502038035 -0.726862284281312 0.7482329505512325 0.6959195327303059 0.567655706615512 -0.6483803467651684 -0.7464396014322767 
0.32124173401555756 1.726524310373368 -0.32544613440262626 1.311268705463458 0.7986992716352953 -0.7167543709800438 0.6824478457009391 -0.1531923734830484 0.993153971373599 0.7797247253669386 0.81815145116179 -0.0668672342384592 0.1261606062125335 0.026053837714912115 -0.7446220707053992 0.36460370123134295 -0.7565908177972913 0.23122985189073503 -0.6291316982337064 -0.08487025798995794 -0.23241024613083303 0.640375553404923 -0.45705205944679894 1.2172132264181121 0.34732930824097463 -0.18127232441685293 0.3227110320975195 -0.39293533168722095 -0.08487778853745764 0.5533117016061256 0.47021665928931605 -0.8189031195586203 0.9614153255100624 -1.1733424747284693 -0.05071253517390336 0.29319007452174467 0.1683217007590665 -0.013799626957074224 -0.5970399680768644 0.42695456624165906 
-0.865736947945809 -0.0373038988164524 0.7762295764217992 -0.9466340058269221 -0.02213844148184724 1.0903096593985502 -0.6837411835726542 0.6469584892817898 -0.10798635738270329 0.3414136224549873 0.09841969031322528 -1.0065127643488407 0.4272269592596041 0.7268135422274786 0.55798389885132 0.7234645465471253 0.5920014907340518 -1.107577982501875 0.7374876059145444 0.2165683760054676 0.5615127938131907 0.11812112623620089 -0.031996582976322116 -0.07251424188037714 -0.24424204545682596 0.7065308282812288 -0.4178911764616903 -0.25730566819999295 -0.2509884502304202 0.31450443692491203 0.03784472067575895 1.042787364998988 -0.1896715581067554 0.05725740154172693 0.45764455676955257 0.35609794862540856 -0.5172514410713911 -0.7939989783521989 -0.023544132383140258 1.2357843999669618 
-0.03278188715322455 0.8963897293074242 0.15877900420218036 0.8205191197226638 1.0609821534196766 0.2629041503453921 -0.34512795176280026 -0.08618061412117005 0.5587378218923944 -0.4633079649502319 -0.3088262334355487 -0.7067347343467838 0.5530101415150165 0.45146751514327016 0.28552164218468784 -0.032643244909242544 0.6277488561398639 -0.04014511750465352 -0.7127539881159033 -0.8801615353161496 -0.2910843616584178 -0.3058618421127748 0.39562230027729584 -0.8093946567248018 0.5931314776133216 0.0948280532171934 0.8705031457371091 0.43834133623700705 0.7409950107809077 0.806508013211842 -0.12686369603943837 0.45169471312422305 0.13085836565659056 -1.2542864118612214 -0.4420129443454671 0.8088985218346436 -0.3404886411577068 0.5694568248615455 -0.3519357450923854 -0.413156370890625 
-0.7497645225547089 -0.19904373071425524 0.8387121193123003 -0.48416355199255723 -0.5716233224416641 -0.5903147259037745 1.1787745153140086 -0.9098555197633196 0.6533095994790977 -0.22972144046895918 2.123993299383593 0.3337961724964527 -0.25148397167595293 0.24261782419253053 0.5708170466060977 -0.8168184277150641 -0.03464507326187141 1.040614294302049 -0.5380506125629602 -1.0566221621067642 -1.645902059985165 0.2846509909776732 -0.18996255416946695 -0.3137889217196974 -0.47694070672793076 0.5882349207044356 -0.7766316027495308 -0.4984633622524437 -0.2567893198596265 0.09290110948572594 0.6832132086475381 0.12835944204436203 0.48339707936907844 -0.4808805683147813 0.8821578916713769 -0.7930353505032646 0.7110885259787006 -0.38978193608690187 1.4889983371508688 1.6296280929025724 
-0.08472581380957803 -0.45415865807526434 -0.8190941678601138 0.44794940564641555 0.3433267729974287 0.47217564428892106 0.36944400779469877 0.37526308242761275 -0.43606592355800394 -0.7169991356269788 1.0279636528638048 0.9361532028676426 -0.05656683911276108 0.24748552811212057 -0.37258987333434385 -0.8018572072840587 0.7735487504981898 -0.39578438781575753 -0.7081430976122485 0.561226316795317 -0.6905753038970909 0.6706091633037193 0.7195832886501258 1.1938827419979612 -0.2768478139362544 -0.3356918249436079 0.06477134168928644 0.5857907174457235 -0.5256855833394364 -0.10454049836101702 -0.6244430196652011 0.12876391104924792 -0.24695614398721658 -0.7427148697433218 -0.3384954538553345 -0.11215921564499139 -0.586652364407038 -0.12327148809974382 -0.848990390570351 0.97567741100718 
0.46600179173079764 0.11050683236469767 0.9035630301669244 -0.872701343851091 0.23940853672940732 -0.39404651600198815 -0.9659007905589072 0.6510191067345519 -0.4371614315994644 0.037045448936965625 0.2403991123032815 0.752553038639825 -0.1278246072868417 0.2674406305429283 -0.4543439227134666 -0.27733610388060115 -0.9298928308812062 0.144965970872426 -0.6140641228196171 -0.1587318736824979 1.4552052944262317 0.7791282135183011 -0.7664267095914513 -0.2454848838351676 -0.4637135037020461 -0.5177904930631647 -0.01482142838279913 0.9512385813862574 -1.0416884753483204 0.5351035839772162 -0.39092662779840043 0.6527923342299314 0.905937768846224 -0.23272777670247705 0.18270209097868595 0.143302163354978 -1.2889503354198708 0.3242021511584762 -0.10665122956902548 0.023572312582034346 
-0.7623872007515589 0.9919809940019568 -0.8803144164452301 1.1076019086654547 0.7510489410352674 -1.2631922070761938 -0.766162017844095 0.1792200547159648 -1.5246142453522262 -1.0945311385587841 -0.22214929056848084 0.3177768779053993 0.7585676628751588 0.30104539277478615 -0.7786905027085544 0.27559842617804475 -0.802248613467573 1.3986970405684263 0.3620660180875861 -0.2453082071393706 -1.1128864374205794 -0.286065391752072 0.5362047830947996 0.9416575265832274 0.8119633493171828 3.58016395351728E-4 -0.6527493328715044 -0.5971395477837748 0.7533108375177481 0.5114348260116801 0.24038016017139358 0.15401172519321588 0.17864291031598098 0.09956022994088906 -0.48223299700319683 -0.4009092546949696 -0.5783190377837302 0.143292631498314 -0.010677340852542669 -0.6056752294835387 
0.1308077796052168 -1.1586593073020661 -0.13507350138232938 0.3159707077554246 0.599640392654412 -1.2445449936487099 0.15280980332247307 0.6558253760818841 -1.1142550560179456 0.557695449097503 0.11781212668532562 -0.9199745143107572 1.396364561334117 -1.1373911871972322 0.054084653497461097 -1.0503331909969895 0.664047177947092 -1.459605808489372 0.7775440748426087 0.5334217813046817 -0.5420208532138935 0.3878737376482402 -1.0327531060552 1.047341929218071 -0.4905722697874178 0.014130330417471757 -0.7022743975654464 -0.24692050833802626 -0.648455545142086 0.8807847875223773 0.08110662930538494 0.18060540858576118 -0.4835768823410284 -0.09332591118511711 -0.29670274991265166 0.4381090935249502 -0.5682579949959621 0.39812688575398586 0.45987737143463636 -0.7953286028825788 
-0.37492782310113265 -0.4109724190217425 0.8313857108953614 -0.08301989437928718 0.35828102942903356 -0.0065417195513694185 -0.34413361989885327 -0.9031613210257456 0.5557009551925723 0.10738658195537197 -0.7901325937712994 0.4403901400240975 -0.5938846755308069 -0.35708753978220925 -0.5794880682821102 -0.6025911297490838 -0.389404499569209 0.8364502732445072 1.0505069828537872 -0.7270919662965183 -0.32014714984191744 -0.5690130728920885 -0.40627805535529893 -0.9061849863710474 -0.07257993638496336 -0.30240944917432055 0.06195029354671895 0.19508773751313319 0.1258593277951272 -0.9509082283055896 -0.47919124593608603 -0.12510831898512303 0.913449414962544 0.6032278553279975 -0.34171127889172026 -0.3175430959680722 -0.03426700234468643 -1.1400574204402585 0.7061668356056847 -0.7422841446708749 
0.6727641308997748 0.9780056802892735 1.1381345132196463 -0.7122455818039792 -0.947813558684574 -0.08958692164944777 0.47798452923115703 -0.8364185146658522 -0.9612967858822328 -0.922835763666058 0.2943286117989591 0.5161735557231953 -0.9885227484744168 -0.8630340271044584 -0.9548937338773731 -0.9057230884282613 1.0858950423403293 0.5609634995518854 0.7278368531203921 -0.7012500445404783 0.8715410017358858 -0.5999988961525801 0.9813103029511239 -0.0892286572046524 1.10891870010949 0.5718763229164293 0.38404350581032654 1.2042681071347494 0.5146071244505893 0.72694602519389 0.044906635255079895 0.9398817479016959 -0.9539620570763611 0.9876270543456108 -0.25231752929937484 -0.5016017913021634 -1.17349858805552 -0.01698758708901586 -1.329450273960536 -0.2588658268825422 
-0.36365932499827075 0.3824667819970332 -0.05325442725421124 0.7370593217591683 -1.0145424313197964 -1.5139760181777926 0.6403287579723813 -0.5771811359768096 1.010590549366584 0.6545157457153086 0.5924101869971284 0.11201810854784106 0.8797983866271629 -0.5816844925844145 0.18344043132016757 0.010502199510294451 0.3171927910103386 0.8747500492767709 -0.19238196666311827 0.3758191253919518 0.3096595628207248 0.9190491736161105 0.16775892949415816 -0.5016142250519641 -0.8659421657250121 -0.07134675292948633 -0.9346286607224005 -0.6357007813370161 -0.502993155874285 0.28030887355324585 -0.17306286989078545 -0.697207819009509 0.6504895567456366 -0.9008686216355105 0.6520305767399334 -0.961434008852632 -0.42923978117701844 -0.3166048861486885 -0.4169444001826822 -0.9328924369638751 
-0.9636942111248673 1.0175074717488115 1.4289804843217002 0.9339203721435018 0.6620119168684059 0.908223506072607 1.0049550623999843 0.016456364224880442 0.7981976679372212 0.08465351754060763 -0.7592566903109631 0.7268385158031594 -1.2859908972714384 0.42612041437888964 -0.7800243151712247 0.8039024990579778 -0.5095546560010523 0.6664550146437099 -0.08261178451525578 -0.03168969602016084 -0.40535079112665623 1.2888653914719486 -0.07550095322723126 -0.07991295893381437 0.5538876966698774 -0.4255102470443096 0.7763984159843089 -0.6227323907011023 -0.6086421866027296 0.5894091906225492 -0.1080138186368965 -0.7917049238870332 0.12673368863125054 -0.115636647081258 -0.6991628008519991 1.3059693283387521 0.1787699762312309 -0.12357846823298373 -1.1206713667983075 -1.2709829234706207 
-0.4149969835915536 0.8797175820452336 -0.43103736379711227 0.9555506969763805 -0.24717349213190862 0.25356916146463354 0.6157350948368508 1.1743836337254407 0.3918168393049653 -0.3429688364067636 -0.9909175604119681 -0.3835139413929238 -0.46218870118469035 0.06485938798242469 0.774416714515097 1.1996688276323262 0.8695599904833672 -0.8312987512009686 -0.007951889240924818 1.0699168815204145 -0.14441125639156885 -0.7236802348526561 0.21083363704600902 0.08639452880387413 -0.8603465507657745 0.11608869498696622 -0.5208149155440398 -0.024901952760893773 0.5015054658285533 0.4966065725949251 -0.9807820542989092 -0.7695328554348605 0.2884308743690658 -0.09700641676796035 -0.871120189688751 1.181440134721965 -0.3220775080387559 1.0196266578002433 -0.24763695259143342 -0.042350137769391796 

0.680454553338462 0.7944397808244757 0.5952009659566527 0.19509901395698806 -1.5369079526090987 -0.2763810014579387 -0.7500073893712799 -1.1974082864309026 -0.6568669455336945 -0.5581606515713637 1.7042307898761224 0.4879075946527644 -1.0396027293104284 1.2714536139944652 0.7340125294594404 -0.4198004720164237 -0.6918807431149349 0.9211814774270352 -1.1091466517344708 -0.8146965910053137 

