-16.073450327396422 -11.171362450726145 -19.924426950820884 -18.644342132478762 -19.158851510130702 -17.307054333968008 -28.78682902389667 28.230959228568807 -4.961712485702481 -22.520889652384618 -18.397444819827 -71.34553537786117 17.28667457301724 -21.68023126459121 0.10172501815939317 -23.524182880008862 -34.569391781619686 -16.002263963392835 -20.33807256696139 -20.718969905697357 -25.774584310800023 -21.38110510120025 -0.7369364107995704 15.62917191258292 -28.81681399461608 -19.10283046950824 -3.8075633930361503 -21.246733093352248 -22.24694304961238 -8.4162942219602 -17.534913422314265 -20.21543573401161 -16.003728584214485 -16.768358968773168 2.0107705276928947 -10.52456309751707 -16.626856607533085 -16.72928650585739 -16.030446889034632 -3.0865796054927848 
1.1342558713054127 2.4549975091747176 0.27373990664782305 5.775405169990484 1.0176365870003337 2.6325048294233673 3.1856758181485834 -1.5442031145313557 2.344254539695061 3.2973732990883784 -1.040454795692054 8.190761257192694 2.0438686581103247 3.3234943828022674 1.7369568417863834 8.982430121031603 1.1897700900297417 0.7011415431856522 4.2796089597412275 0.37994517256954435 3.2891473812432466 -1.7064140452320262 -0.03139429823033524 0.032164393352695234 7.288083035857387 0.6808726165692941 -0.43274904798463165 0.9826034983307984 2.1052827122096063 -1.4816278933958842 2.7169143846532156 0.8709833403978642 0.6677121218121959 0.581560784702954 -3.519255140148577 -0.7291761879467477 -0.3164755782504928 -0.12678380340389064 2.679171612971774 2.9527373509873844 
-50.40848637132277 28.257456128892102 -2.399890687253473 0.19478357765599652 -13.791049378134643 -14.434778592796162 -13.846813303157663 -9.48826599954215 -18.07312386791187 -115.05605376157126 -0.3931425219341192 -39.969277387822935 -2.849537755003105 -43.924128584379176 69.46093088249046 -52.93562153140256 60.69833114030434 -44.53393652678351 -1.365510222091079 -3.3771467473418024 -3.5958986197317606 -11.91207448545448 -41.29315995050691 -9.358716480442547 3.0782713803155346 3.281936773656871 -14.685103880389226 -3.261852304501136 -64.58740929227832 -56.60800093410756 -4.019988861722649 -1.7736424981902041 7.315332380171576 0.3201569779474837 0.9953869721350979 -20.053085802037945 -16.393630455780073 46.88928980746685 -57.06107747213057 -19.049232863935 
-7.480231794630081 10.626779823982213 -11.043175895691155 -24.071338928318404 -12.555552767211811 -2.6068788175534228 -10.537317428027196 20.722140654893167 -18.98561027522485 -5.134176238536531 -9.861328692947701 -69.50960348684511 -10.988297630594067 -2.2334262243229768 -10.487016773019242 -15.168255524689167 43.074133605756316 -18.689978375761267 -7.05013902750783 -19.825143683976723 7.702640953985048 -2.0335165258292935 -15.530938865693146 7.194855714367883 -21.107932044455232 -10.561963490062793 -12.066125952462937 -8.713795916187136 -15.610406294532645 -7.071012242638105 -8.725520596106787 0.5486708799087054 -13.018655018942207 19.658411440000137 -16.905441470513672 20.015019953457575 -6.36300030567053 -12.450501420550912 -7.191026694962676 -10.707855368688676 
-13.680545501660914 -9.433268334760239 -9.661018592040495 -11.623377866089303 -11.861855980637579 -3.355577355568996 -21.00188281846705 -12.929406262222892 -1.1564562494064476 -21.812890957430795 -10.639609098366776 -10.810149278560091 10.348090379679865 -1.1914494281252423 -9.940731361442474 -3.606354774225098 -6.679191430161366 -10.90185952094638 -13.273759110240585 -13.317417351304334 -8.656301452505987 -12.386040230426147 -15.936666246100632 -12.134479924608671 -9.297598501918841 -12.518918594093213 -9.542081748114098 -12.355968838041676 -11.642833662546593 11.0076686031036 -0.3561937400678399 9.47938256918943 -7.939061307992118 -4.353731078682068 -12.14765628082552 2.082442017451714 -9.391540560863401 -11.927955840494647 -15.241567568129163 8.890386838534805 
-50.365255752210274 -46.488828559789695 -39.27216424097051 -95.77520947893723 -41.757485718796424 36.40793850582853 -79.9715183616601 14.219479436026042 -41.772744725678116 -87.26703452896118 -9.826871485648825 -161.32697064076103 -2.6016701997034057 -7.073200219004743 -33.80878022723514 -49.28745660444666 70.51481797441946 -17.556479624212688 -57.28914298705557 -97.9438794959232 -44.23383336328466 14.722332778793614 -51.995664519684055 -40.76547831155987 -36.94121377066591 -1.358013817804223 -0.8236539383028711 -3.3316719273090416 34.413169617758555 -33.64840101800998 44.90657581135307 21.911120820451135 -47.81511516997193 -41.21182128486268 -41.88158304464153 -29.522060294137987 9.624069403466452 -48.84563048864782 -30.832178954915573 -42.27888709540463 
4.657188260243167 -9.23173546450101 -0.8983258484288754 -6.272941036188839 -4.45672593487437 -2.7006520560455027 -3.5852925514359764 0.26938507809216955 -16.315870653826295 -24.885861495613952 -2.2088283212202073 -4.426371766589333 -6.493880446313529 13.51192398515043 0.22083032232832692 -0.9388131499831466 -29.469739993336333 -17.258371781423048 7.821011494167246 -11.506887613845592 -1.275729279868029 3.8899900489521415 -2.879133094825906 -3.4366933289956902 -14.269324885821424 -2.7826524643038604 0.45582083833055625 -1.7725854529198621 -13.84073738447313 -1.9234587213964294 -1.9289158534144801 9.581538747788661 -1.1846330087239525 -3.9330176613671415 -16.368267646706773 -8.097869176323442 6.841624014679408 -4.321809609306252 6.6134436671728904 0.3512590958442459 
-86.80813314114799 -36.99874842300344 -20.739265138840558 -24.616788075442845 -29.971397419629298 1.995272657814196 15.901414557319882 -22.072529419455865 -82.72918187825688 -105.08591957059994 63.17711590696117 85.54082140965482 -59.752826942235764 11.868560821315358 -17.75011287595912 -35.162174599090484 -35.93804495278992 59.88173060016609 -13.244142308369783 -34.683446600158675 -34.14110473944642 -7.583587179834737 -21.616643411107525 -17.80214868500854 -150.70702072530833 -14.303130102853755 1.1075095489078866 -2.0751734164606064 12.941973860258404 -34.97335885968238 6.337936727154707 38.032558626482874 -14.944934593422449 -14.46214956388749 -30.228513530709822 13.553607565898817 -98.27176506163292 -32.50548814064912 -38.94512393956297 -18.34334580140582 
-11.50467525140767 -7.287731686095405 -0.9807265476270748 -7.5018744226163285 -2.892519197371008 5.4761085169006485 -4.794680780093954 -0.20747011714307195 -0.5284082838829798 -14.830662681901133 -7.662407693369237 -13.022001834140886 -1.3810394624963138 2.9786144061163613 -0.7850527870853622 -0.8590406970413063 -5.469394994439427 -1.2403291677986443 0.9331378257785303 -11.545707180653674 -2.7097432829656896 4.87806695986676 -8.825338651061118 -3.225332450913483 -19.96263814845836 1.0549051898403525 12.396243063234241 -2.056842225326471 -3.4512504362652785 -2.3056752119520016 3.680160706560117 0.8842716145801123 -0.9482924131658464 3.5146268513544925 -1.8186658874388204 -5.305451312473387 -10.21329902430504 -2.7875206518086735 -20.654417913912262 -2.5851382902336884 
-5.333544096692096 1.0452857618754885 -1.2502822556243745 -6.031135159827097 -1.5939035326351305 6.638038309801895 -2.7277641788140228 1.2836705781558249 -18.66791103846266 -12.375125874805718 -2.88024849526427 -17.564036176842194 -4.912393709353442 -6.692150420112775 -6.4908128283346 -7.464853679655125 -4.430053448324335 -4.326185654452921 2.932311317781383 -4.481638957275456 -3.7884325656895217 -5.282194895715103 8.009891287340938 -2.0947642078301234 -5.3461690527326065 -0.9447454057950178 8.870660763709722 0.16314145342778705 -2.457771998372277 -1.2607005965589595 2.413274867391431 -6.127576628564389 0.04845146573816796 -3.4825737346151855 9.744090415615732 0.2036194431172642 -1.6366790821853932 -7.046429430913756 -8.055107342036116 -6.874598351953105 
-51.88494413513274 -24.633278070521847 -0.44568975262837784 -31.98847229107342 -5.246872489164046 -4.814045420674476 39.48152868714317 -29.157175295204304 -90.81118537624039 -26.315876470643683 41.687071006525 7.320995159441867 -82.78653766004051 14.322253506726979 -9.707341111625036 0.017934979487246584 -30.94491681187097 -20.509306788587278 -18.213706674188522 -19.38977027590665 -23.468359421919345 9.408875188320813 -4.101657303791926 -4.622466876795275 -79.7927274589674 -3.9194064330707477 -0.7921316196002226 13.749337002524975 6.910861613350707 -34.99797771272244 -23.7618380259986 73.05004260510209 -1.6762881275172987 33.82671972340897 -8.197795980824347 -36.450204665290954 -42.75882794829897 -5.949202656596399 -17.575627344674995 -9.505924272960021 
8.631730831191636 0.09496900491323856 0.08837822398173135 -3.525613066038167 -2.6543528218252077 -2.2686847931471594 -4.034453148591879 0.18083897306440033 -0.004933974377412221 -9.917169034786575 9.547019902580603 -5.614404081655747 -6.272766750141365 5.962851694501548 0.2399785042024314 0.4419364667411464 -6.894709802652889 -4.75993581331864 -2.700912730765791 -2.543256176892013 -1.1134057329416716 -2.1369916153774047 -8.995565170262452 -1.3669190114746255 -19.165454428040686 -2.58404219664176 -0.025502250471555476 -2.32524208788599 -3.183816468304088 4.025673977217155 3.2788790707715654 7.053124934037102 0.21240855317433455 -3.2739384567378136 -3.5368294234685638 -7.459781309891141 10.279760061437814 -3.813329969491192 -13.928739759557255 -6.1521391975856545 
-27.7901864324189 -0.9248583002203052 -0.9167306393954378 -5.74185357362 -5.315781447724673 -13.719814116886848 -55.25632512999774 19.028075472264533 8.707696232186581 -33.87909492955361 38.576396745199915 -29.146359158442664 -25.125387081473292 -26.635549179456394 -43.79460930405917 -3.4098032312127486 2.4070352702728472 17.976932515421964 -7.098466681096641 13.68618129168915 0.4049040781344089 -7.084884427125018 -11.711927271831556 -48.84221380330001 -44.13524626469067 -5.498063633741291 -2.417295635862355 -6.668539942941535 -48.35585419419434 -22.998789954433025 48.07443338827836 -19.909444329067846 -0.7550952258395317 40.27645540236414 -5.076629879530581 -1.3375064597840272 -20.859507346841294 -5.662358210821965 -25.693173055333723 -89.32606357565433 
2.3585575552178337 -8.283424247619399 -5.732241113195979 -14.06352493803227 -0.8917548102796117 -5.2859406044579815 -5.631339960357707 -0.3519095537413017 1.1128952179887799 -6.580766447303238 3.4330066433095805 -26.29876371014945 3.498410128341805 -0.31209926161390034 -4.525429513531131 -0.08552356948302867 -9.232580367340514 -2.0592125725122377 4.163881963280956 -7.536294535431883 -6.112848818279559 1.566093194560497 -6.963345409929326 -6.918979276438271 -15.698015860855833 -6.991489228144747 -3.910241006920281 -7.617455639583094 -7.3894869516779655 5.155613398393298 5.860661418090942 13.42698375587593 -5.129397597576198 -5.866678196462083 -6.010563638874477 -5.406574101856902 3.596071681476938 -7.051556852871927 -10.749189753547014 -6.222980793409655 
15.565810354078154 -16.741883046311656 -13.31686951178326 -20.026018832552115 -15.59349919146872 39.06018799469148 -49.77452535242721 -11.410857449828777 -77.54650428935194 3.392210676759962 -3.5324671450265956 -31.56384041941965 24.239486280962367 -13.064608037761808 -14.008341858892123 -15.384280851110127 0.5981272963455417 18.83007028325135 -14.632289272444918 -15.395523880540598 7.556089761754081 -14.294363967286124 -15.43222263100347 -14.394364809742124 -39.04524219457761 -15.824626344902834 71.20209169366193 -16.222742673907685 -13.044028333548946 31.287006208507414 -8.648181695852374 -4.206312463406626 25.987954525611553 0.4504803541760989 -18.328486019744382 -16.459972210805564 14.943335263794275 -11.27089380161136 29.813777520477217 -14.272472728545218 
-4.267495099629456 -5.619065180940732 -5.5136858031636695 -9.816837556835518 0.1471423051429069 6.648155895091078 -5.480569132381335 0.46609333126542835 -16.773543067146058 -4.4238453045397685 -0.10709576341602679 -39.05771875652163 20.41926306236249 -2.365566009553014 -5.042449015362121 -8.042678387076393 -4.709752740778333 -0.8514629653515384 4.608721467137896 -4.620382166678069 -6.432130737017538 -0.17170443331430743 -5.4857706000665125 -5.023349344766839 -6.987004922379997 -5.3190143611669765 20.676286591419682 -6.770730300075227 -4.76581432573441 17.269611285383398 8.63852183955591 15.665727505014406 5.773554282244473 -5.430088412380707 -5.648354247035296 -4.503791974990966 -0.13617479593910142 -3.0794631453564647 -4.957566782290919 -5.741743611985366 
-37.91677622139633 2.1290615382069062 -0.6860488671709634 -39.885486446805054 -38.67633906954914 -36.57974061792688 -46.45518932446993 2.8775188077342055 -38.96046818628058 10.57209262077655 1.8732559609251411 -34.19193377479945 -36.636151318800714 14.46521102045465 0.39811422427902415 -1.0508062199591328 -75.30369416436938 26.12647208635205 -38.06321184953371 -41.20995896972701 0.11266083559702 -38.11212768917476 -53.4443645081524 2.018186023435078 27.674040651297886 -38.75356453049585 4.360503383458348 -38.75024649007678 -37.136133153152905 -25.580584299646812 1.6789350452361584 37.42262829908587 3.185604509525376 -33.33082900699122 -33.22374952601226 -14.39445063355645 -2.650639130121083 -38.21188874609996 19.721693260381457 -81.76722343602712 
-1.47127450088012 -8.904549145893919 -0.37015709815909137 2.32620664851712 -1.7647181586584462 -2.268345462422635 1.8071431551485777 -2.867887867686501 -2.790056730923724 -7.15943373532787 -2.0874690393798887 -7.236020296008883 4.160080900168221 2.055474656849293 3.5324759578623235 -7.551232435748533 -0.2841251977831696 -3.32624004396365 -1.0832095214580193 -4.782177213535264 -2.5616584373583184 2.3949215252308176 -5.6270213159277125 -2.5180756743480113 -26.986140847347546 1.898136894707688 0.31107885691075055 -0.8245018409236693 -4.953018569703192 -10.17746175480196 -0.14173167125847372 5.07997165519762 -6.984692735902432 -1.1055366593811724 -1.11125974085546 -1.0287645526019884 2.9944756915293427 -6.565199647878895 8.494338282322097 -2.918437457341353 
-2.4031678403392016 -6.663187735358684 -2.837569740273909 14.982741488010973 -6.113532695392777 -1.9582052512174322 -7.487825214048039 -23.114702865342657 -29.983693818456963 -23.316404528923627 -2.476991645520985 -69.09416680261454 -54.55981751097885 12.687011796561329 -2.427436217612289 -27.68165583065624 -3.404240278463383 -17.112017102338946 -3.4805285699047257 -6.0947379234726915 -2.6616975508504663 -1.4178756706399205 37.812230211798166 -1.6771704460942674 3.8108821716049595 -3.038684212832074 0.2438756993925292 -1.0593823209658635 -27.182969596432795 -16.469593067784217 -28.22477080624408 26.115021335424135 -2.5039376088483785 19.315371074263656 16.856558854085534 -15.674431117730885 -2.8812326968142514 -6.119259053149539 -34.480789475464825 -3.0113899746552737 
-8.627792537649421 -15.875664884466786 -13.205228789343712 -28.575295506510347 -1.688156896856971 14.375266993754687 -13.300409201419455 -13.450046186314962 10.141912633436462 -12.529778587644383 -8.45706219320897 -180.59242713351048 139.4936033363968 -5.761865039263614 -14.785289378279124 -15.012101589737238 -18.050034128867406 -0.7777775855173679 -13.472184859061837 -19.247313201040534 -14.773738806258356 21.821160487793424 -14.943272958313527 -12.368402957760512 -17.423062343293594 -14.996284844025546 -24.514212579310737 -14.579749598591404 -14.21428207257885 -39.23292225008615 67.88363650473144 89.1925573766105 11.445643000752963 -13.524586571922933 -12.326612579632354 -14.590086278670476 -7.199649574297887 -14.09733425539019 -4.153022321726477 -14.993432068984887 
12.166703607986843 -9.723956042191011 -2.5243385916350602 -4.176446350650348 -1.7636607686846864 -3.703146078884841 -4.784191575432146 -0.6384214656074286 -2.7061746303139183 -33.70635356531668 15.313455665414923 -9.946285812112965 -16.468199582504703 -4.045865708988316 -2.16747506514048 -5.653088077569701 -6.966567905121118 24.508835558058433 -3.101153396212712 -4.847441051769902 -6.698009465422729 -1.4286835144983943 -0.06402430919239488 -3.2856926461147657 -28.870851051734903 -3.5374312872227147 -2.199601207251883 1.6732888411476166 -2.799107021351184 10.511204904175035 -1.7750311068012607 3.1555103091470778 -3.7241608875725114 -2.6589663130364256 -4.849539161771219 8.999873318979075 8.740988759835085 -4.7978276041010925 1.1422145093022682 -7.105410358931436 
8.525247136742411 -7.404578605255721 -2.1425665211678053 -7.094684427304122 -0.6609568813411489 -2.9246290786227034 -2.884306609698485 0.015816804584222258 -4.287275676760626 -6.497787914427321 8.140652505727294 -9.719651779913224 -11.691740416077664 -2.3510663394010742 -4.093447290991881 3.677209312158881 -6.791674693308147 -0.4452478424096777 1.2245482224773525 -4.470997993329547 -4.576146359107035 1.7906741110171045 -5.1326728517314555 -2.8231334649623063 -19.717809574881095 -2.5798322452665867 -3.125591142214748 -5.195261055549127 0.31729920603425954 -2.3269398823986047 1.4128844323969514 2.2496465816817826 -3.0620838214159143 -1.0604674768287452 -4.52292928245473 -4.225105041248057 6.386819702927515 -2.8174952756675573 -10.327223737866253 -7.28633814668575 
-14.248258293330286 41.11276631966132 -96.76714244601506 -30.688204091504094 -12.673509979654312 0.029276434789088465 -141.15783604194448 132.80018484893 -97.01471158783255 45.83273428944659 8.558185459512671 -304.50588059690403 -7.146866202737022 -14.218020419657947 -85.87550561164953 -13.240232310026187 184.56788863749176 -86.61250701596401 10.923207462775043 -99.93458244161451 -99.20128229908093 -8.062938335201647 -19.362882122639288 -96.83522403451299 -27.742607764800123 -22.439230730640368 -22.692247248022767 -13.921590822177226 -31.182282215397137 50.482052317281834 -19.114259908234146 -79.08343327716148 -97.03530531169596 -96.7230900898345 -89.98988309126487 121.05476867693703 -87.66686935431721 -75.47640584662854 48.809793181769145 -88.05669342309832 
5.221305135002036 -5.75917660487215 -1.6720474901841174 -0.516180762491804 -1.6475629030826613 -1.2387386388808166 -8.214702169192956 -4.31604543072922 -8.660779036334873 -7.544887055160525 -2.8143453366699736 -10.749939311552971 1.86003874342298 3.3859003173587294 -1.334241902032837 -5.1846364494665425 -8.17554349490215 -3.6363227134476124 0.8249404114747149 -0.41311146820740885 -1.5004383847928413 1.36864077651031 -6.323367337920931 -2.064464222281197 -15.794580902141522 4.66528122464837 -0.48188409780936153 -1.2176751856945003 -0.00815742022743425 3.4043789300061458 -5.726391360124816 -0.407795055200913 -4.8447666820777116 0.31730444879500624 4.634274165540771 -1.0755282607979346 -1.9750713613573578 1.0614629570178007 4.33743407087199 -5.090274612506914 
-9.19193326241199 -27.43350496974108 -0.615099658504172 -10.675638138318448 -0.5523568772784496 30.744880508036474 -0.17197065228074 2.555299704917976 -63.35927564590177 -17.701454106122373 5.984579031241508 -16.319347810786468 -1.268976317717454 -9.449894073104405 -2.594322684582612 -9.271469651264425 -11.407332081358037 -10.331034068927542 -0.8647567671825842 15.180288516399443 -12.133919690109296 6.821285813410783 -19.69998128366955 -0.8566775961900583 -13.04761841863085 0.27261921084418667 49.68763165630514 -11.031144064945925 2.2081165597443264 23.10389293106057 -11.52537579946627 8.26330210543292 30.05955500378537 -1.37397285329531 -11.110477112819579 -11.879879105883635 -12.95039145336624 2.2967735756677508 -9.842048928079107 -11.149189417917015 
-16.162339796380635 -4.02027237801673 -3.9661029525519025 -4.474323122598144 -7.122824086910308 -4.537650436284137 -16.821101783479147 -3.6340140137205053 12.825491476099213 -8.66817088544414 4.1073289316957 -36.52216598146317 20.65685111382433 23.00237487602626 -4.172889058460053 -0.1556951271948223 -18.75347236368386 6.2523923267476675 -5.774311085036517 -15.575553363647789 -2.805003259309477 -6.270923325515255 -10.366046225855639 -4.9534940672582595 -17.25400912413957 -6.586838630636805 -2.887201128779321 -7.775170168494022 -10.047340558613529 -2.4760997577603368 17.44789522302999 13.000214883230688 -2.68382183539493 2.5155247047145783 -1.9735918117962155 -5.549092164252258 -12.61423228651351 -7.349474725242571 -16.300173591138623 -1.968853778069305 
7.466389292396415 -0.2901570398016872 0.4702968054116168 -3.511673522502722 -0.8730429635005362 -2.365327180675457 -0.5855168798312964 -21.874084064798662 -24.637442249248156 -24.937925341387015 -24.592110830590265 -36.789197049832765 -10.186708185296284 11.68471069483745 0.2915388485639593 -22.174770325946547 -39.07489593200064 -35.5502211030606 21.33651371015285 -1.2769400057665363 -23.202261283941475 -1.2151489824417208 -29.330380760734023 -1.3790120340208103 -17.478884758211706 21.205282321621088 -0.5259697638724514 -2.6498365880000403 -10.803275999240054 10.223910218103292 -21.88220071966419 -21.13826244976592 -0.9136051681479044 21.466772736126597 -18.19748819187259 -11.43943480399136 -14.352253994634196 -1.9907609819726895 -15.401685228817678 -22.365551620578486 
-19.26930711814379 -9.696751796780823 -0.2565455770570139 -4.679709091732801 -5.777470729888617 -32.139626338079665 34.23655461738713 -32.21017710926865 -69.61995274948602 -37.03169167800885 13.441593681318583 -5.154490215470496 -52.71386309524896 -5.3178054547705775 3.9120409313200377 -40.49662706000392 -36.77189964686257 -5.09614945829891 20.45236132902064 -11.718728723285649 -35.361265556894 -2.6251836277721425 -26.257293413714553 -0.7088460517094145 -82.58278668311648 -34.24783596529827 -1.5071829912440968 -1.2206636473013694 -30.668264781766663 -31.050650445286525 -27.926565717517917 14.09794862751142 -7.742130765525319 22.470411013987214 -31.94615619663076 7.552990734815983 -77.92510506635038 -9.433932868392505 -47.07689954906219 -29.088072613445338 
-6.311215160225661 -31.42419529218045 0.061865694720382836 -18.682013917257674 -12.595550301478392 -0.6756358217598173 -13.286958884651847 6.44174041177362 -26.810927354718324 -63.48222738151258 6.847120643863853 -32.61838615289437 -1.2058045627209404 -19.050284980586998 -6.1964344125921675 -18.975660585562057 -25.225058326467227 47.35229235526383 -13.87424659410853 -14.957409344951987 -24.856847951767417 0.7677909668008329 -4.061277364016413 -1.8857412898770813 11.189892369646309 -11.776450394991963 -12.09897481253788 -11.251837445744378 4.764036634280842 14.752894516905327 11.300928370954628 -5.882024713450188 -5.409589488762126 -12.087254992957183 -23.674576803330247 6.200616738631996 -25.901518354915567 -18.531631243369528 52.9749094776308 -15.163433201025203 
-7.2520547961778155 -1.8125740408475086 0.6511589578566057 -11.570262969421757 -11.626388969141297 -16.543668112397327 0.023775376810179553 0.3414267841301353 -18.75326628409548 -16.892673931275805 -4.88370672351507 -49.38538324811867 -13.05164334185923 -5.419081054262137 -8.466387909607137 -10.925783953474955 -13.9692011934127 1.1680869269426095 -1.8496600869085704 -8.3766417354224 -12.630949459926565 2.80934613256688 -2.3843506469003093 -12.978536573090064 -2.8192857335702834 2.9318695808266644 -12.371384266716136 3.4145235271193033 -27.42368111912011 -36.24661256957276 4.348321671924857 -0.679433084817454 -0.2625707299380221 -3.905507431375819 13.62164362191814 9.385747880713826 -4.611545336758815 -10.147338441111522 -9.205571646485732 11.8859530588506 

0.42890980684589 -0.6373041009350638 -0.2617288158550705 -0.315743511263632 0.7533056640367211 1.6634188669602124 1.3299745303503991 0.7406040536483505 1.7677625903462988 0.15855467728113853 0.16124177716694557 0.461309290966162 1.1343016095617358 1.250420843502071 1.7513769462028619 0.5267783818728415 0.70348851164213 0.39482059024833704 0.7616032424116036 -0.1611105736940869 0.7000174187580152 0.6400319198717276 0.4445877952081936 1.1090973620512952 0.6996094317346805 0.6864884802229716 0.5945429743486335 0.5252683290667037 0.9946204297848872 -0.3791837966352408 
0.5772784729010145 0.07330702121364982 1.210810006594383 1.4884152477876478 0.9594590818113684 1.2598099838443313 1.055778795582644 1.1983601367570698 0.7582861663256293 0.9711398617780773 0.12853341922220876 -0.2865254222436202 1.0684333836014905 1.239302683367889 0.23002023120522794 0.9781424674834042 0.8958677250588155 0.42238898122863316 0.1952459782939233 0.42770794518281585 0.461109597287681 1.0607060742859427 0.265636837145709 0.11962048731035013 0.8087467634642433 1.0594992560397494 -0.3837246213840581 0.9014491762583716 0.12564867770918497 1.1477356507184568 
-0.47013464908783986 -0.3031218814701698 -0.030166228662583543 0.5607316443394289 0.4162466465946227 1.3873899958158953 0.4741860117863424 -0.056653673072566774 1.2589626504577158 0.7129997893451284 -0.17554131658932456 1.5679558934207058 0.1442066255331507 0.4297380188451138 0.9971897094805587 0.9708443348572249 0.9857554378065206 0.37387836578829614 0.9820672409467796 1.4816575512885442 1.0319106776143756 1.471745604425365 -0.16376902337156787 1.2740731921705064 0.9636282951377283 1.016291943407217 -0.27267156962422123 1.3766641422780357 1.5462206170474506 0.7058240773195411 
1.3638345634976312 -0.9274742707208057 0.44890837938704475 0.26177630812993075 -0.3009713279201125 0.8904245671601253 1.4540379436601982 0.3248251684375191 0.23634803618901862 1.097788944041058 0.34694683012949745 1.4824323798488763 1.1202692526693259 0.6964009626318299 0.026500851463153237 0.1900067210472511 1.3633817173487308 0.5995382613472728 -0.279889520655783 1.2981106612065891 1.1071943160068094 -0.04472502591717152 0.26391071018354595 0.8636839466973063 0.6292429080381153 -0.2735576761650925 0.6931498482419827 1.6448545660600133 1.5833860053834503 1.0188993402216808 
1.1044971325815096 -0.383092142335123 0.2911515249204085 1.3633726841334064 0.23851436579229265 -0.1654958807469649 0.995918732113017 0.9964885659371481 -0.2506831503062191 0.21519981819366363 -0.09397909258059403 0.9691441265120526 1.762561472510363 0.4113236620471208 -0.22781435081809093 1.237539825710934 1.2770595370752786 0.720630940064289 0.859247860277649 0.3113732785262843 0.44843078223982974 0.2251100327987931 1.6824026113701085 1.501825856050175 0.7774606636360643 -0.046380109935178465 0.24005609885222084 0.13619068786578636 1.3278583884186692 1.853861444760837 
0.8637104646581586 -0.299934724965575 0.3614245813387518 0.8944863672401283 0.31117338329121896 0.6980088889876763 0.1951278744715969 1.0216434647073358 1.4198314960425296 0.9485768289916665 0.7765869924178966 1.215994943880866 0.9375914052274312 -0.3003912204392711 0.37272472835549664 0.11407114725319638 0.9612959901409452 0.8302756028438376 -0.22907090629570154 0.6398070961289773 1.3261033268005462 1.2504672773772307 1.1608411570386463 0.28024631103692044 1.307027832608048 0.6594380047097628 1.2403780746543718 0.8247012144822897 -0.10732340429463333 1.1941396660724233 
0.3028782439410901 0.40514456102710644 0.18393861351946816 0.6567873221917401 1.5426068855092046 1.2474840777646763 0.38395268732764887 0.8137646737648636 0.8461135303774273 -0.22863520180362237 1.6078389773800519 0.8227494519149269 0.10199993246054712 0.6236708270902654 0.6622124233259069 0.2772354042500859 0.15037233700681413 0.3167976337637306 0.2522417686431762 -0.06099379763878051 1.2104766073967164 -0.14890243557140317 0.7730954389466559 1.2781809417455756 0.22470302314798624 1.5593567115400706 1.2719872944089767 0.6614841204790752 1.2786317256052002 1.2377640761676838 
0.13556564149702832 -0.037088856495585264 0.4103105574540867 0.04526444307757551 -0.13398076020754057 1.2007664041888675 0.7090557168932398 0.7315087300127742 0.37369013508644516 0.5661564128156362 1.488437464834129 0.912726714887125 0.31904943464381663 -0.013473660663239045 0.5634488462962897 0.6314457535605684 1.4746939636645613 1.5330042364508933 1.4269739333775866 0.18197507469403362 0.2920305087058699 0.9062211560712233 0.9029178492962093 1.0981119804305575 -0.09403172258161167 1.5828105269925075 1.01544328765118 0.13454089716953943 0.17017124083784513 1.2956585781756116 
-1.068831589157075 -0.7772418043835359 -0.4683915764198771 -0.2895536532791268 -0.8832564567200549 -1.5327437459425906 -1.09327193637834 -0.22804006484775735 -0.2861666298008483 0.3227291641506388 -1.1594402154290633 -0.8407907679666423 -0.43437497431831257 -0.5191163450935582 -1.4320917916357272 0.28481962966928603 -0.6790808107033796 -0.8897690289330499 -0.14940586764229052 -1.1125986492002777 -0.773506197502936 -0.9587516566713911 -1.2929607410025294 -1.3920554758283863 -0.7675490352344192 0.27165323280980674 -0.2407810591115451 -0.11978354729056664 -0.8246192579415583 -1.1801363311942974 
0.32976750516687636 0.8261670574180079 1.3520363717354356 0.6533985153989411 0.4792341577366507 1.199466133167719 0.8950871282841933 1.2920256597137736 -0.11589755102611933 -0.11748070413068043 1.4481288604050084 0.8006700363595558 1.6350457903464772 0.08409448092477922 1.162188620613816 0.704182276832238 2.045544128740021 1.2252751031757207 0.27379960079917753 1.5568121285518994 0.3059490128264618 -0.43829041463225527 0.8115761951848861 0.4292157859074934 -0.1748126095282784 1.2879762522040676 1.6726514598766402 0.5081308583014541 0.7900320205930523 0.16266236272738405 
0.3117351922547595 -0.23095603097488143 1.0935402423922618 0.9833335549274782 1.2500083777044861 0.8184928191668137 1.1078110796519183 1.157911800456623 1.316163247391869 0.778106972927158 0.7570811659371319 0.7172861675756513 -0.011970113390361766 1.0170992880778642 1.0856600032228352 0.8503169851126621 0.549718434736695 1.228386672119728 1.218230079886267 0.35912501345554604 -0.2084475268215144 0.33645702109519254 -0.42291782905465836 0.2541544909838737 -0.47237891788577296 0.49671068107752825 0.026203983166177593 0.6140956212191394 1.7494874231623376 0.7647929608734906 
-0.36804302557356133 -0.19430463520684263 -1.1963131644497846 -1.4041813961510339 -0.5600665777578975 -1.7305319670531443 -0.9274253008428045 -0.7530574546617318 -0.5521405754745193 -0.559710259861019 -1.038119354511504 -0.04834171412541085 -0.01004098756729558 -1.273198075362064 -0.011367032791704403 -0.34105522432392177 -0.6666320657623026 -0.45993370341168166 -0.648391863540086 -0.6012601691537968 -0.7515436449572538 -1.2954889769326274 0.49789807453817775 -1.4928624381330617 -1.192573679702797 -0.5410317093696468 -0.19401523115503977 0.1168245369984013 -0.7054178049870586 -0.7834167858982028 
0.8711172980605899 0.7959774400914154 0.9230623678988829 0.7846459749692397 1.3011272918858459 1.0841631492139 -0.3059259198656875 1.3112773896809922 1.62160296859458 0.29877893819264667 1.4029281750762825 1.0108563923692657 0.96081357225954 0.5783084151314789 1.2432037549569843 0.018159617778006357 0.0385491931243648 0.8366866915945488 0.9971061842160541 1.0574793085898826 1.447208833739167 0.36158646428730884 -0.45619710760924886 -0.1028389806037147 0.6542146619148715 -0.3093823852368902 1.2159562814681086 0.45321196794035723 1.0523409021590506 0.8408474161613844 
0.24403240712940075 0.010145126910051207 0.6448237961880788 0.544981426680503 1.2955961853232776 0.365324454401687 0.910126255491319 0.7912990221932427 0.5332433623107694 0.6585749230383715 0.9095368758756189 1.1764339333352472 0.9715067008774221 1.2953534551639936 0.3377355711169765 -0.1677560009176578 0.8012582294726914 1.3284072818137966 0.45496815042945765 0.548989590538808 0.5902146193904786 1.1096131910267688 0.7567225557297557 0.06495820081159837 0.6001074987337413 1.0784846448666028 0.4177145542293587 0.3057311179880245 1.2410989545668587 -0.05095704931960698 
0.5367143729969913 0.879655427325684 1.1186792948606779 0.25774716567238465 1.243552889157724 1.0958322550419397 0.313900475510562 1.0026347089437566 0.34095034689623316 0.41809149641553756 -0.17072365883412874 1.4679736274539712 0.937623018997442 0.5361979525207071 1.2127431621013558 1.2144256815599224 1.511018932367586 0.3758533579536536 0.012413975336991604 0.010266341636396422 0.6211626869651691 -0.26816992518404015 0.6612537669409962 1.5416165036359502 1.2702227943410642 0.1701699914448166 -0.39033487174040726 0.2347264464619867 1.44967246513756 1.2244205415869234 
0.9738533100494214 -0.38840380618232223 0.9586700446034423 1.0824119225715012 0.6885521203882412 0.7987129563822516 1.2591108692429747 0.914064131391917 0.6902817291655508 -0.48927927029530877 0.8187365829237914 0.6367861896379549 0.461354284569248 -0.04071323631901439 1.4397165625292734 -0.23458518881483056 0.9063911837041082 0.9684548260784694 0.94056217660592 -0.3009148405247667 0.26446494588540176 0.6932746747462637 1.2306605776048956 0.3147443886979825 0.8710617102765603 1.5963793675923712 1.457778801154402 0.6155232895194326 0.9422667779020814 1.009115483904993 
0.7823626040624577 0.6591495240916545 1.4082627083681933 -0.06804459364347525 0.6758052326357918 0.8061699064112514 0.9546129909228922 0.4981455998591131 0.48911130682793613 0.2797952126185553 0.2532203676517425 1.139668617985805 0.5081132749729357 1.3230715897622591 0.8777428343438273 0.4889607185425085 1.3808921045780842 0.5167669546348409 -0.22548260411748722 0.8975985712455482 -0.13895659682781267 1.6522600353374597 0.1715149559263229 0.628559461917133 0.5834233705090409 0.3981237981842654 0.022940926079646023 0.6783539777959084 1.1983989322340047 0.9652684395411276 
0.8104667348098032 -0.7717264174336548 1.342259980993052 0.8371240079245995 0.33022643966578624 0.7973269133705878 1.4586864134777233 1.2390463249372987 1.1058204691918445 0.5515907644086289 0.2550809331365787 0.8062753114793567 0.47879142476515885 0.0717061621971357 1.0523122099797901 0.006371359165709523 -0.16811727925660175 0.22715621239373032 1.4196621221318504 0.4405247914175897 0.4966751106886537 1.5271652135977374 0.6323127730513391 0.7315542711593861 0.4951541280702607 0.45622104407161074 0.3550470383832766 1.6743535316876317 0.4875704879763261 0.6900990137949433 
0.6538452731181207 -0.06243539095241458 0.1314259530862866 -0.134832208630677 0.167582691996084 0.27064554622265136 -0.25776042705703395 0.11759013015072864 1.2125643949665623 -0.13938466233165153 0.24215281186982468 1.0631234464405281 0.6148591188318916 0.8742282099679421 0.49282806684517877 1.1385700297068295 1.6557328669086437 1.5756898686959018 0.945768951304367 0.3265554162681906 0.10922433482834681 0.7409781335634447 -0.35969893021913485 0.8510818219002819 1.5789454156940042 1.376136968933581 1.5659048876987076 0.7134423629725086 1.2641338218472806 0.6227588177204105 
-1.0705937945572512 0.6172485166226227 0.1789209872551644 -0.15010561534084813 -1.1847526230096683 -0.9938457565648918 -1.2426665780962909 -1.1356510245247775 -0.5334240906985626 0.20316343925171665 -1.443038565731293 -1.3258830316608834 -0.7532798026827433 -1.5088270662162424 -0.47646288671157355 -0.6471852605678159 -1.5837745167948831 -1.1920785914165521 -1.1525994490247131 -0.3092224505800101 -0.5174236656665466 -0.3290507796452453 -0.9863882507953633 -0.7244259107367904 -0.09462658776364435 -0.8595099052251515 -1.0249221905664139 -0.4972363968671126 -0.6568659298189874 -0.5034593152122513 
0.8711122029849793 -0.5260610686634917 0.3748842617260294 0.6102987254569943 0.15579733245251415 1.4662904198199311 0.1386271402760738 1.1053235894755433 0.7312007615928567 -0.06515090121253983 1.5538537804694175 0.5095202070506539 1.286227448375823 -0.3155274760447874 0.5844647382596836 -0.2674810165898495 0.26348395520989054 1.101175527931108 1.7553416156825006 0.07216704939024664 0.5387745111253462 0.9192665481493938 -0.20798535514791266 0.5236216872311091 1.2632779728062813 1.4030946739885808 1.240535448182218 1.0069920639331942 0.36150093047934734 0.5906395911671883 
1.0195579599408486 -0.04557031785492428 1.1343957591986944 0.6867227731838533 1.175314503479093 -0.5098615544814861 0.2941561082626712 1.3302208543636522 0.6302897279254391 1.419580667065163 -0.4224472745726892 0.7696762741872363 1.5727742468244639 0.8911098720708105 -0.25486088665392614 1.1241905295810648 1.0781820502676494 0.43558454946259934 0.5018379494967756 1.318080466532505 0.396932745701543 0.8374379779319925 0.2005768402700433 0.2340407508549525 0.9606657904178983 0.623088436659628 -0.26048667777094464 -0.3495414939440058 -0.1457959873688281 0.3792814889860987 
1.1066993887172956 0.9474861811891673 0.3162418665038621 1.3574672367819431 0.8715012407686156 0.8824411650665306 -0.03233632638713517 0.3527882877411126 1.3293646337636917 1.0897603532965483 0.13435404868536435 -0.04969662320448136 1.1997996199088714 0.7535831723253431 1.680706212308203 0.8453297130095294 0.9821662142256051 0.7696246460172238 1.3819191573103013 0.17033206953428123 0.6891643686552397 -0.17062684051433022 -0.4350537646895564 1.4982596188657151 0.4807851358961835 0.25519146926901304 0.6148787899467977 0.3847033985942224 0.35803318206768375 1.4854890111643908 
0.5019740109407759 0.13789241643312775 -1.080053909909452 0.008317802186454304 -1.1558337463630264 -0.42172805790620643 -0.5394414799195568 -0.8371804864189579 -0.24187500703755194 -0.7003069159088652 0.007642548617005183 -0.431184676352201 -0.4987099884040027 0.10616503018577712 -1.744595841170361 -0.905775332257344 -0.8358767319588046 -0.22474929391015885 -1.2705405213491325 -0.12482616347822999 -1.1160472900715432 0.02210596542146094 -0.9746352888551716 -1.239599674699118 0.3341251501477562 -1.2933376631990667 0.13292049077207063 -1.2646257326537647 -1.7646100589190998 -0.07603015360186685 
-0.13229392623349734 -0.6523838741944964 1.2309260662340373 1.105459944592543 0.8696377516252529 1.630132649735567 0.018788148890582848 1.1669139664581158 0.2841623005919701 0.7095790129100347 1.1045980633650299 0.30751414670891775 1.0823983757603026 0.790197639993466 1.0911844105313333 0.8212664152520751 0.9680188311421556 0.12639275640755215 0.2018537915184764 -0.4700387717872135 0.38884568022518035 -0.39693802158144637 1.3411103110931057 -0.13340998507746166 1.1109399414891574 1.2776470025356346 0.7727857067060242 1.14825076302827 0.9377351143800664 1.1283266938493715 
0.10799529864657319 0.04016556208396625 0.4509768319840445 1.171356181856391 -0.12062824678068577 0.5781085194829568 0.4848256406782667 0.8535921018550039 -0.20097509519078957 -0.020205762010623414 0.14041722481232866 1.979880581754345 1.2630223337423603 0.3211970614469926 1.3644101893569984 -0.20232657550155286 1.8227768119196872 1.5794767239057157 0.9796454376047538 0.6733974973515895 0.4692920550149903 0.7073888530490896 1.1031773948124854 0.039396467704407356 0.9604321087829305 0.16990584485969334 1.0265880624674282 0.2067350389540091 2.11763600759054 1.075831570163707 
-0.47867099705489174 0.054519412179806076 -1.135277622216796 -0.296285726862663 -0.46098380561374935 -1.5428743467985537 0.09754671291704005 -0.8492135286629581 -0.47818084818384193 -0.5000818232633233 -1.076293093858992 -1.203263853632788 0.3496015839031074 -1.3580068038012163 -0.9223295303757297 -0.1319808100537416 -0.43551663445288447 -0.8890174314782617 -1.1148328216569083 -0.9429807565167488 -1.0917796745137507 -0.3870972393960848 -0.5416870280203696 -0.6587831034223054 0.6104604853337662 0.35485737930425754 -1.2588228923374232 -1.0940595504987454 -0.3146695435512589 -1.0201845180465228 
0.5813191068179646 -0.016076321536347235 1.5655762995222993 0.939821562828737 -0.17672726348495768 0.3909531052097851 1.2304665328168232 1.5918241911700324 0.4424770711329838 -0.034801969222799316 0.3622322593528312 -0.04421027857853606 1.5427274760029859 0.10033685991385972 0.8712351825778886 0.29258959850599703 0.022301655246136136 0.7701648787626516 0.5982730790918142 1.4869206630405283 0.8027176124383317 1.6460237482487228 0.3721578466676163 0.17365433778422687 0.6139918968578582 1.3496988285060143 0.8206074632337677 1.4409203794377674 0.01129421903851991 1.3917620715232062 
1.121037332589926 0.18720111698228326 -0.26432674308295756 0.9180509925757363 0.5532802117697725 1.6036574219536464 0.0994512330362023 0.44449284770527553 1.0888815038861195 1.2514896780564695 -0.03965197255231339 0.20460099882538182 0.09816097215513787 1.2858346633240902 0.9280697747285088 0.5763034463634132 0.5075626469095545 0.8365722866025618 1.1630998428420694 1.0341149811239168 1.4646316618014281 0.3975191836911887 0.9206669270274896 0.3617286021114445 -0.21517081152784887 0.647398775280342 0.8501489542862158 0.15598233159180083 1.5075609317832628 1.4065100729537434 
0.9569336464277316 0.04414002941686868 0.11613114800576028 1.0541439690931071 0.48409587625839823 0.21999393626289726 0.7200584492957653 0.9608965290327421 0.3279495651332177 1.3139873632452226 1.001760319224987 -0.019181845858929344 0.9093086145972106 0.11688137141992272 0.09922983448556573 -0.10537508525816322 0.9631313777220921 0.8895467344705957 0.274311972594951 -0.09576450251649146 0.633981532754844 1.6069115887958454 1.4034513403860933 1.5320512865902698 1.362662353658461 0.4519460672511035 1.461645730096168 0.8293129176042047 0.7127444178354309 -0.12128245727711437 

0.6008724161500655 -0.014538765064428787 0.9624847557224284 0.6580132153766215 0.11628494428304532 0.5936913351710281 1.0436136841702404 0.798252739635167 -0.35141358457349925 1.1733436472745191 0.5727678141244132 -0.8727801803865247 0.6789045966817769 1.1773079236695438 -0.02192173087540799 -0.07453820220519317 -0.2263059616651614 1.1091376449514672 1.292010700093164 0.4126332830805419 1.5958445536491255 0.5202781736437493 1.4676282889108183 -0.13214952831805718 1.427273295909914 0.19609188926883106 0.4922277476030136 1.1869311749843565 0.043059384039218614 0.6114772547247508 
0.503270642300836 1.062070143951039 1.4917763679365608 1.1381098949232866 -0.45665538876860795 0.8916179282604783 1.1055198054054172 0.24108741183256788 -0.567360354758894 1.011817809565844 1.0977439752277096 -0.6627906904458215 0.5006424153712385 0.46454255170386016 0.7169541474089103 1.4373253820351857 -0.4723664253959809 0.8387759713352145 1.1682699122864502 -0.9656181845005972 0.27114722063220387 0.1499574969096165 -0.019991874446687086 0.698925810775874 1.2657461483060004 -0.11993942196242091 -0.6216146972344478 1.2141867810639635 0.03931401738742198 1.3310322711717848 
-1.0180488310131266 -1.2532885186320777 0.09225075959604298 -0.7990119864655328 -0.32186047455983996 -0.4621023204525847 -0.9670601763359604 -0.6871257457434948 -0.18894117806106642 -1.2793657129367413 -1.4578689460310725 0.09016549589138899 -0.1258630691755137 -1.6986701707768213 -0.6445348486416621 0.06803628557158613 0.12785580057309362 -1.559581401980113 -0.2111137167888333 0.696245795956353 -1.0360744537055397 0.351563894168865 -1.2950027322528028 0.8294918563163154 -0.15435942420234092 -1.3814516174746347 0.013430955327543993 -0.5289025265598422 -0.677537702400905 -0.5587838678489714 
-0.07533444120344948 -0.058001975180035976 1.493956337945654 -0.2701493911957883 1.0854532885171115 0.9341797726465262 1.101510800064725 -0.2709852041955347 -0.8914384952647111 1.075683296046308 1.6136210853918254 0.9483486875476381 1.1627915884505031 0.04965266513642691 1.5597219696617992 1.450777881098864 0.2970267810015117 0.889451120773481 1.1793392597894454 0.40380522991596235 -0.021499726377946695 0.13829307158455995 -0.04577514686364834 -0.347263095518264 1.2347351071683592 1.3982799202000098 -0.8052149162037938 0.35794326253949393 0.2826610133647218 0.6370614136026252 
0.2725975431033083 -1.2901578886072218 0.2516834577064203 -1.0919097823620074 0.3287971337807783 -0.9945125563946704 -0.9646323767092809 -0.6679612522523869 0.8715145495529757 -0.25134637635516277 -0.6679496785862857 0.9180207630048713 -1.2217992288249266 -0.6463417696456154 -1.4699161614544465 0.32739164466032805 -1.1144807542069248 -1.0401265603620984 -1.0466494218014784 0.0314701710438804 0.3809144158044597 -1.047680502392735 0.35820525601253606 -0.9628577566192043 -1.2240199729464745 -1.2032102905743491 0.44858183063758894 -1.4495302016258829 -1.0276347544993842 -0.028741548560058065 
-1.5285643948717795 -0.8057592312748453 -1.3369163862504119 -1.218040092104803 0.21004178287327108 0.05122446200607231 -0.10818125784909763 -0.8136019772083148 0.5678114023526439 -0.6945864072018534 -0.6593770789248096 0.934990238313108 -0.0766324948841113 -1.3594777163199923 0.17761707819313552 0.14773329254003578 -0.881418809291973 -1.088906953181803 -1.2402443515566062 0.26670472480299634 -1.547609168534111 0.18558153272090547 -0.16495371585807708 0.8974226105113817 0.16039430948358532 -0.47089310743341245 0.04396504782049693 -0.2627215219639091 -0.26450501308362745 -1.1452057339234862 
1.0421115290332157 0.6187728499406506 0.7321583606509938 0.655122252692287 -0.12177300057580612 0.5702050790327281 0.8260573006850875 1.792686577266059 -0.28650915307448366 0.08456342553762619 1.0379945246411086 0.9737890526066999 -0.10049930247896868 0.527707606849005 0.8626847334703509 0.6306861896747327 -0.5482525158416232 0.7172384756329593 1.2281827560421654 -0.6720927538905477 0.9607900867995234 0.4777606292344004 0.2029091511536247 0.33153809005026036 1.5865943564241136 1.4600378273383947 0.17558682048287616 -0.039184020244687326 0.9865802860940132 0.10185910207078602 
-0.7038083974940277 -0.7634926554093223 -1.3881503107485205 -1.2291479567219346 0.21532229352621893 -1.150959181426964 -0.59886940166801 -0.9195640094054159 -0.14470063897686816 -0.9794633347539183 -0.8094664874641749 0.10465346398268668 -0.7351133574952986 -0.06245689132326177 -0.77276248548877 -0.08376449033375896 0.34109118715551706 0.475613275377708 -1.0605044547731561 0.24677352913568518 -1.4113894629060206 0.25866308662222803 -1.2296725857145776 -0.3967654805515778 -0.839895196451314 -1.0877070911940747 0.6875441648141226 -0.3424455526208252 -1.313145849938201 0.13557059680150224 
1.0467556581442297 0.6464671549703486 -0.07645736022003477 0.2097359899343858 1.6020836774982437 0.5967977128233488 1.2606979375682503 0.8647910300688 0.6219865819516938 0.8869520499694136 0.7318911361375698 -1.0068893515996955 0.0020869369157913687 0.44248289014269176 0.20508708331191847 0.6588600675230992 0.6321459300552241 -0.136261499272063 0.24071010671506834 -0.9893851470062682 0.3194394987361583 0.18648471100334546 1.786906721103555 0.48206629313046534 1.673742750543298 0.9627011662494821 -0.38618200952164805 1.6692346618725387 0.3737660157535448 -0.16277497559156354 
-1.0978714496340383 0.43497042133828684 -1.4939355916976391 -0.45151175198312665 -0.4103115486988593 -0.2059562455247443 -1.0642075144560645 -0.3631215875881821 0.9057919200444753 -1.0124711984020864 -0.25245248783764385 0.5406341499354625 -0.665643871868037 0.24699400733029997 -1.3232649730843546 -1.2317840860011617 -0.6500493675013121 0.10928986682288376 -0.6640459228310255 -0.9713030383054416 -0.8008142792909261 -0.49464969065518555 -0.827370093782533 -0.29234223240559293 -1.2568263446864556 -0.8197474199556132 -1.0086989324322622 -1.3183228670811096 0.0338316616449222 -0.4127645838888825 
-0.06310363886472156 1.2498262089330066 -0.06229860776491727 0.5753860264135411 1.0396269430932579 0.4025970586924279 1.2888094264863645 0.35275758364586896 0.1853444329194868 0.6921662509865785 1.3760411506233081 0.5385027122792128 0.20059003249249518 0.3480222091726166 1.489307790671252 0.5155452583307704 0.6366795904529569 0.7443308338510428 0.6710401530867307 0.010694431891506298 0.4334121525808773 1.0278350042675064 1.0385277829043285 0.6489826444424587 0.864061730601045 -0.21194874811795017 0.7683506252800718 0.2646454369240868 1.1835176518947566 0.9159645944429291 
0.10505203443837824 0.25825839868102457 1.610243889274061 1.2217978281953175 1.0984979771309125 -0.10108495824343858 1.52087921238901 -0.07357392619005206 -0.2303644231849427 0.5726361901555482 0.31421862498847647 -0.37797789684677224 -0.19066639084058476 0.7157949309579372 0.24865022757837485 1.2520389107978251 1.9118475336251657 0.06726401122209112 1.198418367670748 0.38371304704878856 0.3306603284391103 0.992134795550623 -0.011967482455578767 0.6260783462907861 0.5151632819458867 0.36653292345512906 -0.872036963242425 1.194097807628191 1.1217176708733978 0.15893210621036422 
-0.012953050242165809 0.06717563018659815 0.8460196017629488 0.07849362815980433 0.4922742081638851 0.7364087064961553 -0.1340238466436733 1.5812275639760456 -0.04934022760597132 0.41529152774113576 1.2763967719262803 -0.5382546204090409 1.014871809080614 0.44164833007432047 1.305182707864933 0.8220349566120256 1.150887147040812 1.459685706795108 0.735394851390356 0.476083437246191 0.45680652481241996 -0.42017864267879534 1.5531751160264489 0.9525645541610602 0.5800892808562875 0.6251215675202522 0.07060048139828684 1.4060145628600835 -0.20726830620141937 0.8397902886909141 
0.6061422647656388 0.30138748533705095 0.4008372927763544 0.9321828066696471 1.3642051403541653 0.8637920870744736 1.922168624200017 0.7929484034306196 0.964051209399865 0.23557241555415545 0.0383761945084964 -0.830416593383727 0.49584918048677057 0.8649187380207201 0.8638286383903022 1.328887591492691 0.3221951527482845 0.33306216911651365 1.4286867759297421 -0.9578639980256087 1.2144785914107825 0.23096468585236563 0.1285827483113733 -0.3246307954097936 0.19146073724028362 0.6905176730293394 -0.17969385107476765 1.490276645184037 0.019339121411335532 0.2272731935833553 
0.5010330565395086 1.3698482295261303 0.9182150804618704 0.4276237632038494 0.7219042593155554 -0.2942797919320318 -0.07856342460518008 -0.2435995173907016 -0.4263418507199668 1.0700318363789676 1.4322117688887197 0.17969424034027487 1.301431550027782 0.4125934815126192 1.4653687771801547 -0.2316834405604853 0.5359814611192634 1.5530199334306494 1.4285234649699765 -0.4938979919091572 1.109643804650629 0.27397062320557625 1.1785276336202104 -0.0053114096558984384 -0.1673693356997506 1.308569546559153 -0.8100590120895684 -0.22660408011548205 1.4715140603868053 0.6607341194866533 
0.23940930380734188 1.0593669532998378 1.7153202712312312 0.656652942022524 0.5983690990057144 1.448047264209538 1.6225288851425015 0.46300543078789175 0.6266347204015795 1.2864560929822948 -0.2114426045060577 -0.9981229902240639 0.19447399356155218 0.12200985406270357 1.0258621417318454 1.1723373953944871 0.008211997417972874 -0.1388298276645016 0.24482204699434693 -0.28681553347967537 0.6085063573282138 0.6699681821459584 1.5404083549408103 0.2318488777622384 1.267505974257424 1.0402613780892667 0.04848785487531087 -0.1642451201388923 0.6842933443137513 1.0855260076578521 
1.4981747139561437 1.5090801161475738 0.2675600420561916 0.18916147055674942 0.5431585471954236 1.236778802059342 0.12948134834977765 0.9632946465369999 -0.19373496295700487 1.0267649441065112 0.24312322169234007 0.4004873374338531 1.6534125829056303 0.4952919117262511 0.2210036716354133 0.06580662451204215 0.8747733793386362 -0.29361959731606424 -0.06576795715554568 0.16396332483860068 0.1319434456362318 -0.1714792844301375 1.345583096332736 -0.7869567380724882 1.4435871006960075 1.1550568724687467 0.45407627667053335 1.3332169016329571 0.1957540776052879 1.513808424907397 
0.6063425051328528 0.04622399836596709 1.3799314253070398 0.6272832849052119 0.17638366735648486 1.3978214559470434 0.15292560247088988 0.45706037597684107 0.9483844385528178 0.7091689779201652 1.0381885154486787 -0.29900079079031877 0.14486287698657246 0.20390401893685317 0.8897771991593347 1.4102473842496541 -0.49748939349412424 1.268975772184382 1.2759114185989435 0.6078444367300473 1.3062129690697841 -0.013028346044197118 -0.019418395417429606 0.5400801918216552 1.234784683296802 1.0060594094182693 0.4051917487037519 0.4699176642148746 -0.13802523197252 1.433106627809711 
1.1559003809936748 1.1314859808035949 0.28769997924543483 -0.28828998877998574 0.7678681789835934 1.5601552107430061 0.6635251811848276 -0.23458021832994216 -0.07402206341786732 1.3017734359770927 1.0726899166061987 -0.04124103069206676 1.3840676531902831 -0.20890172421315656 1.419630452835067 1.506445009329053 -0.6905244366241472 0.8596071187790226 -0.07240868688687821 0.09768874921289045 -0.11583649004495776 0.6607208064915088 1.3154194859312818 -0.9706146642028132 0.14402221687450525 1.4818969989867758 0.990118747894507 0.330052527155153 0.657311266353237 1.3593173422734492 
0.8920950468380794 1.502162658340438 0.8081561955417444 1.3254337716312237 0.7835913447330588 0.6243468165424071 1.0833792205370867 1.3051240071443637 -0.7518402980252467 0.16191086647745065 0.16524705945344736 -0.22058487073615202 0.29831650767587736 -0.07247196909920486 1.1597364107302488 0.3830326801082833 0.5245520024810406 -0.3598341741751908 1.1355651746061932 -0.2690859656850127 1.4195019376254474 -0.2994221757076457 -0.30144132052144945 -0.7107709279197139 1.445996126506841 0.6614240644501374 -0.8534159254918615 1.5236585111260557 -0.10486625584947877 1.374148269937406 
-1.2978228786648858 0.01636406480947027 -0.5243246887629359 -0.9898208638894276 -0.28504698745334794 -0.6579008197191825 -0.9989760927677229 -0.7312916233636347 -0.5356343924221235 -1.3787891602034597 -0.5234863894248439 -0.25190163246238445 -0.7602128039978889 -1.084539052767758 -1.3077660364563672 -1.4395906001087069 0.15231188826426575 -0.15930237740387587 -0.0898184440210506 -0.9656966675365799 -1.48806827777345 -0.717275086822668 -0.5033070683313454 0.7903618782426035 -1.2396786051280717 0.10987168046812695 0.4630289838107335 -1.4466639659311165 0.3941234132938059 0.07584646221244608 
0.6016672091198763 1.7466471424280072 1.3476208765588245 0.3913174134636326 0.7894746388283843 1.2444069593448686 0.8825519309559389 0.24396823749105453 -0.7341401050887673 1.4229661503867401 1.3037772482643182 0.44823554592294573 0.05982709890162596 0.03788361076023314 1.3458495637173298 0.4510761769182819 -0.6352211788220032 1.4307658106657155 0.905557248158375 -0.6015987226973942 1.2148809869100117 -0.26994578508424005 0.626285421300244 0.3889472130597422 0.11506533552169211 -0.06822844461052839 0.5426947226430539 0.37018962320449605 1.2130155144698715 0.011727944986988146 
-0.030489071591797874 -0.25691312770694924 -0.9266418820610041 0.21176195093635558 0.4353429035374803 -0.325714814536544 -1.4550460874673519 -0.535150482230333 -0.02928803275911107 -0.9057272465009837 -0.08298041084737887 -0.8060784670226975 -1.4727081224527037 -1.3999023019304895 -1.4567328980676826 -1.573258502950823 -0.5768888807076019 0.1842701501496463 -0.6844966712656079 0.4734480301798265 -1.2419725538647828 -0.3694506303822462 -0.43560686434961415 0.9710374406744157 -0.26704242993654387 -0.6691323931149542 0.19746013266321416 -0.4426350120937035 -1.569748900041553 -0.657282688533891 
1.4553739217586408 -0.09268421803937513 0.9633706386343663 1.241316455891898 0.9190710540414925 -0.11352841959656199 0.40075873211777846 1.2847575626997652 -0.6083549793687231 -0.08518520325063296 1.0503526367990332 0.35385115038480935 1.2871471558923044 1.524227993647582 0.6062636841956214 1.0171859661859237 -0.39928011867196933 1.2680769040699802 0.8990577408006959 -0.3629696292737254 1.4621243328738696 -0.17750900605401293 0.45278586956998756 -0.19496227561750143 0.8027656935070417 0.6764962140218435 -0.04200364584645104 -0.15484957567896293 0.3398470986408971 -0.0582920413977717 
-0.6635547633469633 0.15922653416847465 -0.8064797697462095 0.2487360900794314 -1.0631469207172695 -0.4294674108322722 -1.2368579045377777 -1.0780153894715272 -0.6354259589148619 -0.4805357382548517 -0.2039745883472739 0.1123713393886966 -1.1442581842821042 -0.2794002433122026 -0.5570714030160615 -0.20626370977333663 -0.03862297885591984 -0.16461403200995567 -1.228767098969639 -0.6552788270630082 -0.8639260627740721 -0.3913640866262663 0.1341310655493154 -0.2593434710636386 -1.1641618346804012 -0.7523485689159852 0.04591552114669404 -0.8790422439612424 -0.15536363625053976 -0.4582721241972659 
1.5315794335443096 0.30598866431678706 1.4954898806149188 0.5567706545521761 -0.11830043884982089 0.21954739275718577 0.7436250326541456 0.8790077598292592 0.7389190583584195 1.2559886757354306 0.8009152463522055 -0.7678858846101697 0.9535461060179862 1.6154770738215014 1.4488967036570797 1.516995325374569 0.8491317942977595 1.4906453024949164 0.15351423339849762 0.08045443569295457 0.14734082923615688 -0.791769615696543 0.19331216517585953 -0.8235254706632367 0.9606181958763845 0.5382008178800695 -0.7658289458595867 0.6154712086771358 1.4593371021652535 -0.4268694968420906 
1.8140844065830184 0.8746909263943031 0.14712149001554015 0.8631138161590551 -0.5709311360878054 1.3960900384178552 0.23139034733602912 -0.17179234570639718 0.46797948835112146 0.5456902994239349 0.565607633585359 0.427212424123875 0.9313545083205115 0.8031959136742977 -0.12558632024580718 1.4937244272083998 1.1161804112764815 0.41366408095759805 -0.17494900136971933 -0.36472969157110313 1.2857813487276926 0.08779533289034168 0.9567226403885886 -0.6439451071179101 1.6651091401950666 1.622459909332599 -0.11702002932045408 -0.23889064396353346 0.5065607845532121 1.6323410115699748 
-1.3423348095318748 -0.13293736889224603 0.12395944001721658 -0.28845630839124303 0.5459536158912788 -1.1934425239229935 -0.672633603608643 -1.257010826397353 -0.24625576632455431 -1.1085443315234302 -0.9579976587954356 0.14427124819599219 -0.48227112707200126 -1.0900516337177277 -0.3387861496399149 -1.264408683489994 -0.4449224934460952 -1.2931774502841933 -0.3195962337187406 0.9792831922545168 0.21128323491216028 -0.2429865008977904 0.10187261656263222 -1.008128793021172 -1.6175171144536098 -1.3104282184293505 -0.42521290042351756 -1.2361532740559562 0.40951689997410196 -1.0506221352172807 
0.528237377664775 -0.06344393908509571 1.677801307682579 0.9871390695254477 -0.5966816188209089 0.31712869754519674 0.7071401188465326 0.23348406655462198 -0.20338903613254997 1.3903037020137734 0.8176168395208412 -0.3370350411964262 1.0460821161264477 1.0738478449927649 0.7581851549639217 0.8624521782768937 0.43608776737380145 1.0252695277365358 0.6875560143302418 0.3515963079986277 0.22360762006044496 -0.3865734843352098 0.72644454896076 -0.5099648441980402 0.13430379686596866 1.428541941531399 0.31435213884786806 1.5040146508997172 -0.033240929148311255 1.59980532134413 
1.7319990086289245 0.5959026417387169 0.093974844790612 1.2070010236208581 1.1298664891424959 0.3293190188235316 0.2971815085272634 0.7977221468872295 -0.9602013214505117 1.31686331237128 1.5556484365487657 -0.8131331899817951 0.8132946964829246 0.03942165172105767 0.16376150868783185 1.7476333068743044 0.1584154272891925 0.7689389440970288 1.685126390633562 -0.9336629697885176 0.948000097754748 -0.412406827295197 -0.09862082720616863 0.7790025298072879 0.5842122897993902 0.38369864931641073 -0.23410823973338024 0.21534594951802843 1.2510012938737882 0.9394114048328779 

-0.9738777734132782 -1.1607858873832946 0.5909313126458032 -1.0029301125296575 0.03449996795222578 -0.18869480321022394 -0.892406094162321 0.7368990569326841 -0.4088714128453218 -0.8275797811105872 -0.3879805818873278 -1.0524549839816628 0.10328611449695227 0.07103957829537523 -1.2354677870992061 -0.45323670975697905 -1.4042318362855293 -1.0925269564760556 -0.7213872656637005 -0.18571830889310617 0.8350423035358574 0.22526506866824753 0.11163648056317049 -0.7839237424303919 -0.03343037382662601 -0.8566485711815895 0.04356687544808993 0.8705042962950775 -1.072968862260777 -0.7590614658773791 
-1.4610817727651761 -0.6672277106680257 0.8365053603936783 -1.0034477019034143 -0.26060294326842903 -0.5222099910222449 -0.44138712183456524 -0.7686353257808648 -0.6949373091375306 -0.8122111153867617 -1.3529541950493948 -1.112432520841024 0.05311360612264455 -0.8521226644763643 0.23018785386498464 -0.5853154877026424 -1.1453575789463546 0.04242519732142148 -0.04349202264039792 -0.4192836494560644 -0.3007111796637831 -1.3272527656665944 0.38196598681788196 -1.4554814819714232 -0.03811922666618879 0.05724128153526195 -0.9235242104039723 0.38635367955202704 -0.031742418669912766 -0.252401421463871 
-0.2839086250648229 -0.4921349680674757 0.0365012359970591 -0.5132536383411916 -0.14519679889136816 0.18141798543280807 -0.6618838454623702 0.48723144006746655 0.21093894566087154 0.602116520272728 -1.298831868520943 0.10849468121696333 -0.24969798862848566 -0.9871550538192903 -0.5074704044341677 0.1831144942095665 -0.616569900640036 -0.9589721476236942 -0.3920368073340557 -1.5725314076511399 -0.14877156743528586 -1.3695266864158995 -0.45839518533398615 -0.6038598322612045 -0.08363407559683919 -0.46753272378557337 -1.3950768689228008 0.05074941926422709 -1.5858353333380064 -1.4380297481191908 
0.9388463295518151 1.4204398078044282 -0.7210727661706859 1.0529530182433946 -0.7591572005830522 0.06680187456730619 0.7349226792076053 -0.8250401190668085 0.14258423051226224 0.1618588223706535 0.4641669974996985 -0.20675997380376024 0.5158541884657567 0.4656432202511627 0.07139432001339198 0.8089176798316982 0.011756277924854616 1.782563694898586 1.2404779086414275 0.12120190947337797 0.22863278927458333 1.2004998804723905 0.5608884237030313 0.9464768551062743 0.9916142186233066 1.5509257272775776 0.20125312911057067 -0.7563898311325248 -0.10790034905614658 1.3538554240277187 
-0.05854128226523015 0.33397273994604904 -0.20120839626210948 0.2994915483505197 0.8191918540600097 -0.42238134947466355 0.9405275632402218 0.15065211314160276 1.2815580445089105 0.9225259105250783 0.5038311270355419 -0.30982708859383856 1.348597750493914 0.3695524828533399 1.3215417311623001 0.9175426655200567 0.5533507359145752 0.3787889864163649 -0.14556876330496538 1.0328499555953357 -0.08962530572704544 0.6873465670822734 -0.5722036660561556 -0.1788926644435076 -0.594409457909882 1.1965643157144266 1.5142738169626107 0.1348363494568962 1.5322582087252499 0.6963959150672617 
1.3017523330869103 1.6400749969171073 0.6119159865254159 1.5280877549559162 -0.6306122691814169 -0.8052068972859243 0.28227122752229994 0.6554969281417261 -0.12723438993147926 -0.7721374489383195 0.2241690465364842 0.5468696073094622 0.32040418276359195 0.7517312067386513 0.34777370045230754 0.19986740046412071 0.46461556671111276 0.5538787652815116 0.5701486048147854 0.7997747108696779 -0.7692582158914821 0.028601796416633893 -0.8246434971015537 1.9019593788076719 0.5117960346498226 1.3320175318773464 0.5176558468410414 0.7999934339933992 0.009952965665862703 0.5123464942652703 
0.7977927605760387 1.1648713087112872 -0.35560622394828 1.5689806538213504 -0.9565471199148357 0.09127875589103646 0.34612909517242085 -0.15168858932176718 -0.034886848703140544 0.08429536972677887 -0.05460021995164644 0.9759221824843292 0.4658788843730099 0.4218602169928203 1.6950113851980713 0.4038222894008768 1.4722160107592008 0.3950812338554425 -0.048779309109215255 -0.02444764810533857 -0.2721250964655489 1.5826479248922485 -0.748217573636593 1.080696514457994 0.588255028985553 0.6379852315492368 0.45527982707835574 -0.3879748994087742 0.1284418735805067 0.22572881017986945 
1.4456824207552574 0.286840468397602 -0.8496659162085658 0.03893079031464744 -0.43035698163609454 -0.13626823078096448 0.5030719469465532 -0.19656145926013274 -0.376689930075333 -0.6031710810862988 1.4188319011528732 0.08749568527786641 1.2602055609810494 0.5436805223036032 0.1676886566626906 0.5149627111561168 1.2014809545037273 0.6898144421382828 1.2983135548239202 1.3151280924099598 -0.17577061360688523 -0.2191029759078486 -0.8871309381558822 1.2315296068204913 -0.9589511248913621 1.500640376358221 0.5525698988864683 -0.5700242651950265 1.2227690050251947 0.8096893273026792 
-0.012333592972839556 0.8594660853397265 -0.6524761324430549 0.11801187165325347 0.7293392823091527 0.008324758239969365 -0.13457993715671754 0.2947180648965846 1.0969350376165627 0.13779258004667627 1.2322420718447518 0.8207881552396065 0.5704911156038307 -0.46906415683590746 0.03762723286153762 0.6335593416940641 0.18459846698428092 1.7082790696378978 1.708183847596257 1.2273706753942712 0.9485386330850457 0.3865640049293434 -0.9591408309363042 1.4850501287589095 -0.3031046253720399 0.3819810124313138 0.19005510967341643 -0.9410191114284601 0.2999302463590586 1.3807209619658365 
1.0374684513196641 0.2702831511097788 -0.9182068381052942 -0.10304917702898335 -0.7699761828578825 0.042000147498177876 0.11651399801020981 0.2680306075507829 0.9882794585744438 -0.7031542362280957 1.7971636756360796 -0.1901145072399584 0.6505979644779513 0.3771219474975418 0.5173513443610537 0.9447989487750256 0.3281969040418815 0.9461510171658822 0.9729892526567442 1.1310064726585918 -0.8781156225341266 1.5497391701163135 -0.4201457377309648 -0.11610805853363813 0.6025475632005272 0.9245854711983787 1.0671096096629409 -0.6356298915256883 0.7522371132111111 0.8527267400237307 
-0.09873562697527936 -1.4374103080871339 0.07112232380257505 0.012573957720066004 0.49542779807203846 0.8998294834432071 -0.5411363975358676 0.7041814904033539 -0.18812815165380595 0.44314102986365683 -1.7259242955638772 -0.3213595680141885 -1.1258771307069297 0.3771261891783839 -1.3409617212964993 -0.4376004625964376 0.08807440287098958 -0.3169026991409746 -1.220695476376432 -0.016798459811141725 -0.007558039850888948 -0.7214412699925605 0.3146310194904745 0.09858827899732202 0.5441995865806918 -0.8959833139373768 -1.423469490716855 -0.29201184652272727 -0.09416151661968383 -1.0862110539186873 
-0.32967590213907405 1.230577452338189 -0.24051419876751529 -0.10258369493719323 -0.95872108285885 0.9073886797974559 -0.15720245212780593 -0.7378904655670768 0.22753721195019047 0.7137037913918136 0.410512764422723 1.1219861456120428 -0.2766080994543607 1.1270387209959813 1.6580723257303216 1.4315441476011372 0.47883681614759477 1.5469312001877782 1.459589247520489 1.4335080073683475 -0.7442287508023878 -0.1149129884141054 -0.09473903218819318 -0.11128697352047913 0.6049696968753951 1.075309978132846 1.6128991902888885 0.30353071125069864 -0.028617822479446782 1.1261698426685025 
-1.4071976837708386 -0.39346306063294845 0.4736237888453167 -0.027967555893991986 0.8280719190129133 0.18895169087625244 -1.2456551395572941 0.15331658387182295 0.0937809353672186 0.9730441578869246 -1.077888558524296 0.297093973848138 -1.6162636472409655 0.45597497444559326 -1.272235788919186 -1.3053438241579987 -0.462989371129666 -0.5028454014665151 -0.794061508827902 -0.4777110585639034 0.025018924438357775 -1.5005370061691201 -0.753582596554731 0.11668082899737325 0.6981834104243553 0.13148496184630656 -0.8681026208021984 0.4929443929423375 -0.5399715906142502 -1.3640035598301106 
1.2625403260725048 0.9381481105406024 -0.435720152348853 -0.15709114164612872 -0.9950131559052954 0.6724456923113846 0.358122467284848 -0.7595652793915577 1.1323391522140682 -0.5364677057758773 0.008703446264682268 0.5422808195535994 1.1641272418622197 -0.5822136969677367 0.8612496745320053 1.1447544197482016 1.2955438700000999 0.4876738605166152 1.2415279939059873 -0.5579332597353216 -0.025166214869709536 0.8394048688392485 -0.9218282041113555 1.2679517067841382 0.42087342080333134 0.8189446981994694 1.2812488923692291 0.17141525494514112 0.04292693514278053 1.1234131902431819 
0.7004004426374926 0.07993071300265162 0.17523220375620796 1.1181807484350308 0.45680889003189107 -0.5490437366839866 0.21367551137067634 0.7161559909533359 0.7388348443127946 0.06285017425247795 0.13210635038152202 0.2026464503619038 -0.2794907326158545 0.3583162894038506 0.30756378187796374 0.39726284283392155 1.619478131721866 0.6610448226127386 0.0721062591757874 0.5203453065296559 -0.9369958868692505 0.23924566857888438 -0.06202803453589134 0.9714333572228415 -0.07739377881186399 1.598157834464466 1.0148678414479164 -0.7198156679837472 1.4101937233142405 0.8091048514517308 
0.8124529945553447 0.6807862182946705 0.5541200616102928 0.8547993686718268 0.12006141026474343 0.845300907306435 1.1146400761351656 -0.2270467279261516 0.09746894481854985 -0.8974359542146937 -0.17153914706733558 0.3011588444059664 0.983575670596685 0.4357301785406785 0.662520264830716 0.37463448205544336 0.8436160576109232 0.8795638556555407 0.17017817283061926 1.1901349112405084 0.7406447551516563 0.7564318708048321 -0.1809518287968139 0.2826155253014971 0.9631995016441398 0.3974995922050094 1.2115719239379568 0.6536662652492493 1.1126596972683949 -0.1545782030008985 
0.15372165976193944 0.9015829613268852 -0.5107976809758095 0.502207968540702 -0.5952991169343617 -0.19496465803427845 0.3436309642886778 0.7124631743881124 0.5260638465364388 -0.9617987092060442 1.3163045511278828 -0.25344285968393326 0.41141265070252697 0.03462087096093878 0.21272923118929102 1.6528685516120183 0.2688586966402749 1.3360467591232308 1.1714449575473043 0.32243407031684956 -0.4986217334754419 -0.09893543364411564 -0.1046740750314839 1.6830604902967459 -0.8227784561673589 1.7430570325120338 0.746799703455963 -0.8192868767149882 0.8130710868593928 1.4315145839050882 
-0.5650744080151846 -1.5846717754263033 -0.34898398880009873 -1.4663947252073395 0.3493365135902321 0.1541883277904259 0.1809221203484747 0.9668410871469897 0.039574879651104525 -0.1076353265307936 -0.5570944690610745 0.23932818308112394 0.08857281356972878 -0.8940750116446423 -1.6067888276853284 -0.7372079565143506 -1.1711145876632196 -1.2832709419131847 -0.9358959769512933 -0.06259521419543337 -0.747787415108261 -1.6426530264744659 0.5134827445221367 -0.594336857054581 -0.6726989628300595 -1.1012451088609352 -0.4758519655922139 0.46612674985031827 0.0561183671016036 -0.35239634502442985 
-0.39951439190130555 -0.3485342809996113 0.9525940033908095 -1.2159212979552825 0.3780721296619887 -0.308092155376175 -0.8047841527741214 -0.7357943013370799 -0.8584175219638897 0.38584553059258775 -0.37847380670591857 0.3001837774896337 -0.6224955067815787 -0.7711713891907876 -0.9070900845878065 0.057679730640638534 0.08874037191738011 0.11011787474060347 -1.2381925679633181 -1.1219100375590483 0.6651421192730175 0.07764208094493227 -0.44635754861371885 0.12964484205358717 0.3468125860443504 -1.6424604830482128 -0.753607294914489 -0.9283949816084522 -1.7492811975660436 -1.675893377753467 
1.026715084903134 1.4533610069398901 0.7131726369867164 0.6404077459263146 0.22372376366021252 -0.4793375580754634 0.638007406294345 -0.571082082429459 1.0022536228910772 -0.3809919201153099 -0.3238172585406413 0.37076548108444085 0.9019188266010297 0.6928629835063159 0.9164942569057164 0.9224947532675076 0.17572653676827568 -0.05705459167054864 1.3152758074879751 1.375769850606736 -0.5182159197993627 -0.18936193826447156 -0.11609579648545816 0.18910712716482933 -0.8660399122540285 0.8799238350136183 0.1466909804423738 -0.9001445457363867 1.4213005474113016 1.4865676828373544 
0.21333616377930256 0.015185198644466807 -0.056125724940046064 0.951999791386864 -0.2168388973637811 -0.23213512913356812 0.2116696909963659 0.5268152693983457 0.660228108060764 -0.47525021430660763 0.42650707996468157 0.23614391478927751 1.59286150000016 0.9894622627461981 0.9132522708819109 0.2282458773529604 0.3024752827964774 0.9079665005236132 0.8198479635607232 0.7985408762836496 -0.18309053539603498 1.0016300515264909 0.09647776659709613 0.7786135661962681 0.27132071946661124 1.4947428416806503 1.2152888662248151 -0.096814915684023 -0.342604826862884 0.9121219970303247 
-0.5761611612617131 -0.3984312124002783 0.6395524030663662 -1.955070093485503 0.06592724733468112 0.11800607030917167 -0.7491592048904276 0.6358167120912522 0.07493134093927624 -0.25403899687348697 -0.6003823557570935 0.5658592385665405 -1.4076975568367354 0.263297583536572 -1.5837427623739493 -0.06601721536391553 -0.8441392194636947 -0.30164501462175114 -0.8872286799182784 -0.038273110608215165 0.20587793204703803 -0.6412917917195853 0.7953198974483776 -1.3650920605062509 -0.1423239198984403 -1.7716600275838195 -1.2814037971647723 -0.870519186172645 -0.4215117854244689 -0.39270616167151573 
-1.1628135452696882 -0.6670407594212533 0.757518006999283 -0.4917763039336213 -0.3733676284901906 0.6809284924269587 -0.603979960504117 0.5032601014706828 0.0982398460973953 0.10253027943696848 -1.2410624878812067 -0.7786546436397177 -1.3078265865048009 -0.3037565762379273 -0.3747654105143846 -0.05664881540368003 -1.0586749524300407 -1.1852081258995344 -0.5552894065104329 -0.3611202233056028 0.031578648516148944 -0.28688975871808714 0.06590245756094353 -1.5426422623024365 -0.6599850251600469 -1.0577295476694013 -1.381332791200523 0.25113541398296885 0.04991368086883526 -0.6941816089359832 
-0.25373567091509047 0.7925734218592128 -0.3790897226704885 0.6037032195687855 -0.11056818154778489 0.3171873872710212 1.1165506416265425 -0.1370114846688816 0.5215711416316083 -0.9294517446335044 0.5362442206180908 0.7471687591616636 0.9043098318671847 -0.3001310198418341 1.2415237875797336 -0.13938893682058348 1.3553354738452221 0.4915679197940608 0.6447899059921098 0.1584727862700438 0.4339712755602538 1.4298393280237196 0.790476241875633 -0.2880867397516803 0.06657477031764597 0.8171564778146457 1.3205815349527446 -0.4813757883662268 1.015184044405201 1.3546256909259455 
0.029887728509585126 -0.004437227332690828 -0.9607124814662882 1.2279086838986466 0.6472448856125493 -0.4757252272570666 -0.2693180063226038 -0.6711324498083868 1.0103423860108363 0.954225867701506 0.676529089964005 0.6675778898664344 1.6582275460206806 0.7263801209881144 1.319078208867482 1.1562195572004947 0.7484216032197379 -0.019659991425182842 0.003301979178939781 0.8019740061604349 0.7484576016650408 1.5428440750841377 -0.16890593160861095 0.7264091086884398 -0.5188973746039627 1.0808232526552775 -0.18680191428435908 -0.17943101353862864 1.2513434061881574 0.08223498350391899 
-0.5075213514428777 -1.5793196047999982 -0.07846758138291103 -1.5718756313644577 -0.5876681367300826 -0.08062545014179676 -1.215069836119561 0.8148319449563344 0.2344228484547191 0.43095614986802633 -0.6377249646247184 0.537052596459108 -1.4664391714809686 0.22973288457975305 -1.2507036018575537 -0.8935777731871739 -0.44589017190132707 -0.7741473899192604 -0.8707039366632866 -1.0933177481041596 0.09702002463227141 -0.8971388446213011 -0.35096367805142115 -0.507380607902485 0.6087247106926199 -0.309706541806501 -0.11971764416256941 0.047679130161074584 -0.8594708062151033 0.12265033507864015 
1.4062578985831546 1.1044968361037888 0.8961165153016766 1.3760143475217357 0.8536744788806947 0.33842659456139795 0.36890014813900185 -0.9471498014246718 0.14180149135752948 -0.5883041545680543 1.1347513100479203 0.47946440454523565 0.9052858087946494 0.030787402676341766 1.3540188561217856 1.5537045635257274 0.6927085014665137 0.691103300078672 0.5142149363182437 -0.03769429536315837 -0.15048737393212094 0.11575631820794245 0.5513055059686497 0.548132515495883 -0.4362177089476003 0.42201781345084527 1.5905875413728243 0.16800312810451482 0.02043840727936051 0.8948596917260321 
1.0139455325627136 0.719314731743855 -0.8322174296247309 0.03255623044875492 -0.815373116506891 0.1888093237929895 0.7457521791286861 -0.8183852760258501 -0.08078697798900943 0.12247629060264041 0.035731582816788454 -0.26347462521045045 1.0655073111480617 0.8715469946835543 0.46976701900111645 0.3967502671878029 0.3006476676701971 0.05364308591378393 1.4344318501621949 1.6507395732841934 -0.4094151383394529 0.015028146497776614 0.2789460243754369 1.3462726297218788 0.7642265542508424 0.526171388121185 1.532127960036714 0.9114265628172915 0.48486095128126067 1.6080710188495935 
-1.76030821354981 -1.8397614184170632 0.6407427324612792 -0.6611795813434358 -0.325210367316443 0.5012350185702343 0.12473745664252478 -0.043672180587432476 0.26333193468282423 0.669037376346702 -0.48449893755937146 -0.387313639604734 -0.050429113752233794 -0.14416402885671556 -0.1424087024133941 -1.2787526186016123 -1.5475830074278505 0.043262415090621786 -0.8818185175139492 -1.1862133646765676 0.9432542041708871 -1.586127631424205 0.8460818273951972 -0.26575870223037884 -0.035194736665483395 -0.1886348034518175 -0.29593739285136733 0.03151178651315775 -0.8370914248709511 -0.4558542805862873 
1.5412198324737787 0.2956744405867171 -0.9135692720638657 0.3789352113046978 0.7920457160350891 -0.06425533932692257 0.5098644359019316 0.11000082201665543 0.8335608274476736 -0.0016498657770501793 0.7712581294822617 0.710859239703841 -0.3328132213279857 0.21785169589329612 1.1701060266574272 0.22345158265123005 1.2187065480539925 -0.060093451003492344 0.9276229963020737 1.2090606090133733 0.005653027255371807 1.0512011051123527 -0.3845459868035301 1.3520444759454933 0.0794811873364549 0.4067226799413795 0.6577648608542812 0.09311470547594716 1.1497045425819508 0.18344355617743208 

-0.652595191271014 -0.7372519369895644 -0.6984699985999416 1.3409938386403573 1.1685082869820314 0.47699091992603476 0.6434963178105392 1.0228274248666402 0.6625905258971766 0.6570604653011888 -0.06772706707201573 0.6044043632133095 -0.5071283280526822 0.44454930792448644 0.4153193666024065 0.29493614818017505 0.9180483859729843 -0.8418176876260316 -0.589585085185854 1.3253918710859205 0.4613256415314451 -0.8000297545427242 -0.7641409361122146 0.7477287141854958 0.8602020825817456 -0.7981730758861969 1.0991374886465186 1.406911224892038 -0.6959065095035766 0.5501300812797808 

