-1.7522813180186851 -0.1355181805635784 0.9405347231609545 -3.1695078548291615 -0.27636228035185584 0.2698971621485946 -1.1463228728818478 0.31982830555252856 -0.7705940502378698 -0.9922992981859355 -1.16725871615544 1.070682605263375 -2.0632981285434426 0.3295976732483912 -0.798518164462051 -1.1288440355874076 0.35069535337068863 -1.5966562333138257 -0.7850163154510098 0.06991673403480653 -1.3461693425207357 -0.1045710274737346 1.092271672155661 -0.49565228891471713 -0.7143476570677281 -0.7755813677699254 0.3620666968792565 -0.7099252875144476 -0.7125996740894035 0.7186825515824434 -1.8535410807087906 -0.21370099484349023 -0.6649260876882024 2.93243558256151 0.24561984144323454 0.7195514772026003 -3.9261022511360175 -0.6803941096066085 -0.6445332523036819 1.0717756602351003 
2.8631019095922134 2.1691707266707065 -1.9656736106066441 2.42799327571432 -0.6279670106059518 2.810735617889367 -1.1344754168914528 2.073271948494037 -0.3184779605072147 -3.837687862508194 4.173469158902138 -0.43195489679783367 -0.7263956076386555 -5.538658802876711 2.7634925317557717 2.2313974173160442 4.593132568582422 -0.9650433042338818 1.6154005247822047 -1.7897890595178896 -0.40094866954796976 -1.3683305713411704 -2.5506702229972595 0.9271075422636558 2.044057607450509 -4.945691720155937 1.6966258326354309 0.24366644314052088 -2.567896411934007 3.598254020734982 1.2841718685186392 -5.788320600434277 -0.96744378715866 2.334098849569024 2.998447493818336 -1.5228089872246129 -3.5752312613675508 0.19261394434904758 -2.3011314323543313 4.926030997687115 
-0.09739916703418658 0.016326015068224557 1.3894385110761929 0.11979427490555983 -2.3558267138520472 -0.4919797032797224 0.5200624936620288 1.4834966375479903 -0.9974148887488462 0.1926243690458379 0.1462787069896882 -1.7335786467231282 -1.4213742819651562 -1.1655933135158514 -0.21765491787837812 -2.3811546910409307 -4.754363232286105 -2.6534135325590302 0.6768008623675404 -0.6733930587835656 -1.7255569408504998 -2.810984449076982 2.512575334203802 1.3905429711959392 -3.8039154705884517 -0.4534651020955337 -2.170889101378735 -2.1919375258380835 2.6043169141960827 1.8416678350547568 1.7068850142576362 -1.9128382915718634 -0.5576155494804524 -0.3762140604913322 -0.19058546204911028 1.1825165208082664 -0.16397205188193714 0.19520017531190811 1.402826595361802 -0.3227902654552938 
0.2338204588468025 0.19873246664927885 -0.424398398747389 -2.431883618026833 -0.06819895326020767 -0.11537249232632753 -1.485278694785466 1.0327241118858552 -1.0970562416699987 0.16545252077014774 -0.4817927846883494 -0.8082645627553384 -2.2395408441681015 -2.030975764150503 -0.7583514086101507 -1.772146947815459 0.25873554308091434 -2.3023402000455477 0.28627634947282565 -0.7695407267045883 -1.3858505349876609 -0.47109316414229835 0.9091275558571099 0.5861968846325164 -0.830029556257285 -0.2873623747536772 1.4318513391488654 -1.6558484992004359 -0.4207276548255777 -0.12627916247935134 -0.3161787185159399 -0.5218668594602975 -0.2871697874208576 0.13141397325751092 -0.5282340311106487 0.5128044414030559 0.2951658291628417 -0.6569094078309732 -0.10260387474468602 0.1811691135751283 
2.1157391353115407 -3.193408363810054 -0.985401227990536 -0.6198550838232754 -0.4328971849374412 -2.4826618015905377 2.853165420404023 -0.1408293232966202 0.3783508035498542 -6.025869887123928 2.661237767200438 2.1738749593478293 -0.7175506254470017 4.536368644315512 3.359246695402832 2.7758051898015266 1.8984728939029785 -5.738602171629473 0.7553039906114839 -0.4776197080097866 -2.0879695660521795 -0.49307562882308037 -2.2018773595360686 0.5822162170522085 1.4771101661806083 1.8664766892508633 -2.835721530467777 -5.491934596422438 -1.626001790984834 -0.6367677424184689 -0.33650398511114893 -1.2215538744359382 -1.7029624465895266 2.725792873740324 5.021141095321673 -4.857739195344216 0.9380898975452295 -3.5328792782338656 -1.4071357880196707 2.2437215964719766 
2.1780689845705434 1.1502084844860927 -0.718416069842525 -2.210890389258654 -7.0651434382577385 -3.045599518781965 -0.05798114380815211 -4.086929441260231 -1.0124664169334279 -2.8523946325732914 1.6323289792956914 -1.0465262331525391 0.6057424856436844 1.6656702078393537 -0.8573660078494139 -1.3956715535647775 -0.1315815554516307 0.23281707177805566 0.4125919706119167 -3.1614750067666644 -2.2121896402332983 1.2799495955865205 -0.1992512725172043 -5.523404901943254 -0.18138648271056734 2.120407910426674 2.2506384068282896 -0.04188264962831879 3.2309254070607434 1.066235128359989 2.227860828478535 4.418191607716439 0.712280146618583 -0.310698503056573 3.3753215072115554 3.5895342336321225 1.59339118046436 0.9963500388782467 -2.059429303778326 -2.400372608599257 
0.5113359621026659 1.3763632902360154 4.031183144052483 -3.331722612526587 1.4031755933596926 1.0070146660911647 2.8312416470802866 -0.3978514998642456 1.1346277982124482 -1.7722575082108583 4.980962803038254 0.006720882336850192 2.9039193219132184 -0.5426617319791608 -1.3370323652915144 1.103123377444439 -1.38171617374892 -3.7457130756044896 2.082404570822195 2.1758159666685217 2.3394482030040997 2.8190239705053917 3.6396340837944 0.30825739649792533 -2.750103087931955 0.813171434132085 3.225504087317416 -2.2357978498256146 5.16279123997797 -2.7330498594643045 -3.353119039843804 -0.18958737642425977 -2.59070629401395 2.6171335295891947 -0.4918207043591335 0.9715237161252501 -3.661911199070261 0.8640999155711134 2.723539069689238 -1.750516564630899 
-3.584762883237232 -3.2825334473824093 0.8416563450608204 -2.1353192212928715 -2.220357313739673 2.3276170186879046 3.7469538808935092 -5.025340703475353 -3.3173677056983966 1.6319510344778287 1.6174937059586254 -2.2790399741714884 -4.769436801880869 -1.8380355858115844 3.5200530425505887 8.832559468480653 -0.7947035972389621 -0.5770120158059713 2.7655782436206984 -1.4910098636580769 -0.587832131793831 2.3295643255106553 -2.612628867199683 1.3068479760588179 1.7089219776614235 3.5562615817861696 1.72146745881086 -3.333822936522172 0.34165594653608977 -5.320815913706202 -5.043576354098177 2.1529266869578034 5.028361775323367 6.56176956023584 -9.237291197303433 -4.336749883668072 -1.5695319168686261 1.8262014332671 -2.477158096706441 1.52355242535876 
0.4951812227405746 1.9512135388833598 -1.4934430075299994 -0.7122745868411664 2.7215654881644253 -2.2141434344362247 2.046654938142974 -3.3665488839784485 -2.126208367473119 0.761240696856882 -5.872324139490878 3.5795250184414034 3.680774954718988 0.13828648377603842 -0.1874622208861488 0.052769923383520934 2.6249236135338156 1.9285516052991685 4.731316155577759 -2.708206841598262 -0.3649090990773614 0.5065452901268621 1.688099932541078 -1.7520912901850283 -0.9597942388581724 -3.5710228493647804 -0.6049872834849722 -2.407770090890177 -0.018221951397825224 -2.4134094288789902 1.5199386716105256 -4.1614563813926795 -0.10390858379403745 -4.0010160728752435 -1.6170870341341639 -0.898216216270921 -0.3294018037989884 -0.08008886053150414 2.8176336803593074 1.943315995227406 
1.7600934502765941 -2.9195068532938744 -6.9774183296591215 -0.1405048402508919 -1.6638927083824921 -0.26561613280072816 -0.5397105011059206 -0.8353236897356516 2.558679540438221 -1.6396486576978224 1.1172870624831428 4.040649533593048 2.081924455184086 2.3138882128619067 2.7581041141881864 -0.5298336320918712 -4.521295544639834 -4.874848525666317 -1.8057242067261174 2.360989787566577 2.541616858704054 -3.7374080657735522 1.4783142645718284 3.228853236096786 2.288014943349328 -3.7726038595763125 3.429602472467339 3.8384576090857463 0.06236532839977718 -0.6871958628883039 2.985388213592566 -6.05042328583862 2.5485598165658443 -3.92138849378501 2.6949562573185015 -3.654561717996523 -1.9395072424900763 3.7153190187012606 -3.9525377748148753 -8.513640749916517 
5.186805985017355 -0.6036699184358483 0.9571626110774057 -4.038362102334814 4.607826639449027 4.796710602397192 0.2284464114880061 -0.9803203320672197 -5.110183602001389 0.9835298896255221 -0.2327969539312673 1.0277465332517433 1.7548523621758716 3.016260446730803 0.2948222606479914 -6.218461501919226 -1.955290317268282 2.820557702227577 -0.9897158588924976 -0.24063059058581954 0.3252835354524392 -6.3340337073879285 2.862944537648821 -1.292189009326335 -6.166969872317043 -3.8852582616614257 3.3125186541581972 -3.612619363671929 1.5495246860854408 2.1745080186398797 6.639858210897707 2.292123490031424 1.58956553967324 0.5588921244965294 0.7727899795564814 -1.5335281961706262 -1.5682020085374695 -5.375286106111016 -4.493889432107476 1.7014177005407016 
-3.659331430210354 -5.416345479618239 5.650952960188667 0.46608881983326345 -1.2933699216593684 4.359123361134432 -0.3090541324769521 -3.559103032859166 1.7860543293151512 1.459483687461294 -2.2348329056514156 -3.891126252279787 -6.704714196565935 0.5501494721422947 0.21476022830831967 4.473840986749697 0.8506976581999331 0.6247324298245405 1.4811511127587536 -0.12879161633872338 2.2815133189376215 3.158676722896105 2.5110664276865164 1.710123531676083 4.337204721277381 -2.4469742419183764 0.988090613883833 -3.9120145950152074 -1.705369554933213 0.31934487497625164 -0.5773530244429763 1.4283469049540938 4.413596982212998 -3.7478122236083458 4.745981462501217 -3.00869752785053 -1.4503396589641737 1.2556232018897096 1.4720561868570856 4.69006223157527 
2.1122069128679475 -6.614437551816558 -2.0371454796781028 -2.376922610408193 -2.560787262379599 1.400556782673802 2.2412135106721247 -1.0565412978280975 -1.7211348056417781 -1.860172852635507 2.4840298042338866 1.1562650370160616 -0.38324459527224497 -4.257968651276936 1.0930815412753876 0.2804796908168753 4.563982673823307 -4.143852350253682 2.9320516219599524 1.4093229327964358 -3.3889183478535183 -3.826940854287528 5.166465313127688 -1.728500555610641 -3.1742179470927976 0.31588932855371604 5.443132973568467 0.19975594557236925 3.942035028402134 -2.5019075390877625 -3.905581533583944 -0.3176713818570511 -1.5134012200430298 -0.31586028292593477 -0.14870494012680946 2.1024771687547914 0.5596278882496925 -1.395990618464452 -3.7983283523717133 0.602667218441006 
-0.12043463604420201 0.5873108481855427 1.1932825252539956 -3.03644374741485 -1.7511917655184566 -0.82476532537952 -0.8531759697567087 0.2752409883811388 -0.702231389968091 -0.6849379374881357 0.3842615715799916 -0.10837354340437662 -2.0132141947686693 0.5620631104350162 -0.11738221842374558 -0.577923986324991 0.44354396696118675 -2.9797266329373 -0.7532627963546366 1.0920069194012527 -0.7858843471455165 -0.578605471556876 0.7476311959185395 -0.5682689153545473 -0.10138652077212104 0.10542828634190263 -0.39643923075100906 -1.7420189164505246 -0.034532644701018016 0.17114987223252123 -1.5015502658244757 -0.8875610592615479 -0.27629311059957246 1.8255328148655103 0.31858681297419417 -0.33677394495431423 -2.514161396716979 -0.6147157210994666 0.5433905727065482 0.9587545127734182 
-5.38285536982711 -5.007823414492925 -1.0015461986609877 6.327323093289486 2.549037605333347 -2.478629179449738 -3.560399392898156 2.358843603189563 -0.09824116983847332 -0.9470558841203738 -2.9812906433394653 2.1036041311377045 1.6812348258236305 -1.18802111482648 7.031853180709285 -0.023542925591010136 -2.8047646406179756 -0.5668410279420705 -5.581159839121532 0.5282306076318312 4.506226337320558 0.5516637026365081 -3.55596115290575 8.769172088428522 -1.5354708843870977 -2.7179051712050724 2.8581862902243342 -2.230914850205659 1.5044959360896866 0.25981068421272374 -1.5290762586478466 -1.954099719197139 3.249043382351556 4.461447344702749 -3.3740457999811304 -0.05084656193506844 -1.107519566881999 6.6152082046364455 6.204049410973943 -4.0600941279944465 
-0.46133611376387795 -0.12884222215717933 0.6784819114905146 0.33445226152790636 -1.570616874692396 -0.14675006510810515 -0.7815089272624283 1.4226702636057165 -0.8261348594284027 0.01323304391658799 -0.9943501795299075 -0.46802391607503013 -1.5432545673022946 -0.8644087077079521 -0.5615246682505476 -0.32774396139006734 0.7676594706241715 -2.207631931787575 0.7325876930435394 -1.001355789658359 -1.5964836540198872 -0.5639261889065933 0.8471951705446492 -1.048063151767191 -0.3268198017065402 -0.4580845584716591 0.9229423922571234 -2.2674789338700116 -1.9279020348977236 1.1765494030781487 -1.9148030982630553 -1.7065098763620412 0.7848149033200129 1.022249869922897 0.16694259897094485 0.18285661327678093 0.277145596158345 -1.487504820847605 -1.0794969802828145 0.9983184310530633 
-3.1545098788946766 3.3972382129826144 0.4163056996154244 -0.5875253387394419 0.7128817426615086 -2.839349989278152 1.8252988889794663 -3.4089171927790285 -1.5894596478456702 1.5602166325465532 0.2335886933270179 2.7281574879981108 -2.139549741206469 -1.6260187512738398 2.318457485629221 -0.29638444077697756 -4.623606592703251 -0.7662350766341628 3.1099547027393712 -0.20471952223915368 -0.08027208139716784 0.3406617782630807 -1.0944799064983695 -3.0572759162599956 -0.6309065314791319 -0.2507806324253697 1.4612613399079974 -1.8200877986422166 -0.4208666951971601 -3.8709065099846707 2.9480325761579915 2.409427958999806 1.5821061376357932 -4.095573636615419 1.8009087069576857 -1.3134335738061278 0.2669921110868561 -5.409531778762186 -0.001527140469632269 1.255723607889103 
-3.7894676444109567 5.017896845854689 1.9978618509701713 0.6070186612780817 -0.912749659790947 -4.220610825023992 0.6713871896026091 0.06681418883506794 -0.34979336733081107 -1.3082959456137135 -1.0342172101360667 0.2586443174272288 -1.7139616664533779 0.3553166676591288 0.7978125917533817 -0.37648369884592736 -1.4412301214521328 -2.1026715062980577 -1.4147749970213783 0.7504392728461396 -0.434984940707574 0.5470303602824172 -0.15501447838879615 -0.5931609595439058 -0.7341451178548538 0.24254864014708907 -0.189886209095554 -0.9920340134730636 -0.7562315646213946 -0.6677348471999759 1.0449315871982316 -2.316683867471863 1.6551037318694972 0.7523330838276425 2.1376852376769446 0.3466249322170928 0.8228784261514501 -0.2846558923708953 -1.6689799282926598 -0.5981001723272147 
-2.9348562785579526 -0.8672300029891568 4.927920257504034 4.617607836551568 -0.06170476614677443 -1.8988305671824552 0.6943624287962925 0.9074333048385486 0.5607339961811962 -0.07904964806896296 3.920907944773547 1.6521675962291433 2.4620188140461363 2.7944754282836772 1.8410292796102625 1.2761572948332156 -4.403124925421207 -3.106172219497987 -4.730130230615691 -0.08349669762365645 2.57664201543614 -4.79864106654406 0.4334749025564958 0.8146626321903914 -4.065205702343046 -0.1049795022108019 0.197824123678512 0.6240652362197284 -1.4415844623002771 -1.1861905549923637 -1.5845560989611935 -1.569503334693975 -0.6400340374677688 -2.4381414920945383 -7.196509227962254 1.8473599583959952 1.5444072271943674 -0.5291342870296927 -0.4333714080735894 2.098155339899915 
-3.2174534363269167 0.8449493277967972 0.2863379234911514 -1.3407583083666752 0.4449127858655359 1.002454168225872 -0.29007201341505673 0.26384468050979787 1.2078132075532075 -0.6563764600332687 -0.286027306664079 -3.076401364984418 -1.5663377957944375 -0.16960421333735487 2.2534681462498116 0.11615335484556694 2.2100565811238364 1.7341051826613199 -6.717876339015689 -0.6518522377379827 1.4576071053005928 0.8598824688063745 -1.3144702377331892 -0.010122541597056025 2.55173173409193 3.4556500865990367 -0.2050283051377695 0.3928454707249455 -1.4878348693350554 3.0491912559262824 2.6704989372136634 -3.1030226928096054 -1.3641989462705109 0.8124184133599348 -0.715770042628412 -1.318701072263243 0.2857671507297137 -2.2805450769526385 1.3122099799359639 1.5045884821217763 
-0.13434019239905745 -8.055016709925509 -1.1678148805873132 -5.570564170525737 2.4788232861377923 2.6161201289530265 -1.2081903526482805 1.054042586934575 0.9150280929601751 -1.094564710648304 -0.4306773646551672 4.836538728879474 2.9695230601876172 -1.929446473194185 -1.9677881672872888 3.2860208343575112 -0.9951565949200393 0.6469454647042971 -2.6614744888850566 -0.724756127448026 3.2759095149665787 -0.05603597260872333 2.0426525064291403 -1.6918434118367376 0.09447471199006467 2.4279390513645582 -3.778979649483093 -3.046360263234535 3.366872509653668 -1.388093573943967 2.2020883366771207 1.9240268063933172 -5.8103585809228955 -3.1718253788217163 -1.1115025065182103 3.230790170294546 3.581833605176849 -3.626723438850505 -1.041286530537249 0.7142550078947169 
-2.3709265211748813 1.644904392149104 0.3878643420424352 0.28793618457085335 -4.415827444468749 1.3008311898648992 3.122677686676809 0.32869110035286353 -3.6679594145218872 -0.40995400528503767 -1.1968058412921312 -6.3634051865031624 0.2809054493822134 -2.546234509498456 -5.255983372077348 0.3580374794826834 0.5826721689016637 -2.015940083109042 6.7589979796488056 4.068270410493127 -1.582396858215886 -0.6141499894534199 -3.2358081953880964 0.874347449551981 1.4041048365996953 -1.3819034716212355 -1.0149672847014308 1.0117944404222963 -1.1628052018955723 -5.499766187607619 5.664341258263137 2.518379848800782 -6.0320906584013825 2.635964536487467 -3.0496957177013893 -1.7032932296442618 2.1187469954662967 4.687424612993589 0.8010067630173002 3.731312271756596 
1.493859019886375 -0.046019513172446416 0.6604543367979108 -2.5781341726838525 0.5607137879460518 0.5537736264906075 -3.225014646419204 1.8283682309391807 -2.111536038791876 1.5892066381095225 0.40155260269027804 -0.700125280644579 -1.4335379857735522 0.465598566695156 -1.335083439427034 0.17993120516720165 -1.1394391490383244 -1.6136924123696779 -0.43006689811379245 2.3019746908746543 -0.8147629340907658 1.7932578529965941 -0.06900873090861638 -0.5286101263907252 0.42856282228101594 0.40675997187735774 -0.7675903623745547 -0.4351331221894635 1.5126733769000045 -2.3397104045080512 -0.7343099345811335 -1.062373746220999 0.22654479171084443 -0.25371850743057495 0.8270792077671535 -0.7358354757684984 0.8766163096505546 -1.4437866928017056 1.4442911362927215 -0.9006228815739606 
-0.6331554814074505 0.7213024161296482 0.22044269794827906 -2.125997316654129 -0.2759521283298111 0.09746288434641656 -0.4777395085401276 0.8251586136555041 -0.6985091903239166 -0.818641186714936 -0.773607372121869 -0.6384554376730261 -1.7045325669875142 0.12244607143635686 0.6807024651876133 -1.4053870731403684 0.610250939660772 -2.1077222946390646 -0.7825321996466746 -0.2806488925234524 -2.2933613658542695 0.9814942626798894 0.7111459906275052 -0.7970384507743355 -0.8354803431086699 -0.7847800082169633 0.5863584524475314 -1.3452506749157624 0.4909971150343841 0.7526284477609725 -0.48625162011364015 -0.5495382540391479 -0.4045578628365484 0.004449741170183316 -0.29948475644585176 -0.8651009042154795 -0.054958190980006365 -1.313362124755803 0.42000438853074995 -0.777299860716256 
-0.20957948748969074 -0.7587190033716062 0.00778674711275537 -1.326502666930609 -1.7448153254056256 0.2912835237355936 -1.7462871266610651 0.9254071650485575 -1.2001171413014482 0.13596434731764304 0.2920287002202278 -0.026293965219040934 -1.5322705731186645 0.46948363379106767 -0.3028899282874105 -0.9589887278162176 -0.36874451512805 -2.3421756549889827 0.15257853404319097 -0.46019248453990447 -2.509871896660457 -0.11960308109739874 0.4585287731711907 0.0023692248737427553 0.035625787716330126 -0.2657868845855394 -0.35659238401697274 -1.5067652570866965 -0.27467395315869203 0.4120950728204751 -0.0028088989594867615 -0.07525040751320601 0.4241977577259465 -0.18829450135577255 0.1448571121739546 -0.9353231006523623 -0.18171562043383735 -0.8208536479340848 -0.12895531678153876 0.2693041134803417 
-0.551238972211186 -1.2584869098843303 -0.3777793287577046 -2.5677550063970456 -0.12091538354645043 0.29396786168960704 1.1562412454619013 1.8376440307320354 0.27951377222146034 -1.0544421102298565 1.143660006028854 0.03664873935624532 -2.5585674151425364 -0.4842668869094611 0.23150130962475068 -3.019712758905335 -1.0534211876559834 -2.609732535753836 0.0597593289170755 0.21438873889531446 0.9381614798521398 1.9044573089823473 -0.46283211277972036 -0.245410736989186 -0.7145507437070217 1.5886096270236907 0.7296255781989875 -2.9472962257293003 -0.5885344361307857 -0.28252928656249343 0.9229470292057198 -0.5874137857631077 0.9650903025071503 0.9522134924916444 -5.717744026946401 1.0961173203615853 2.6967499958555483 -0.30105660382674815 0.8291230668746098 0.0109939531161218 
-2.1411755527406426 1.8663990543518794 0.5236085294990971 -5.684251414854832 0.9137338047526482 6.516991548700191 -0.7974210150800127 -1.1376898877347907 1.315316513559724 -0.7827265842099591 7.228444027219774 -3.5293937813642264 0.6481641521400697 -3.5546915725814467 4.022510933181767 6.725936916861152 -1.3443921788723106 0.2689862056135795 -1.2065413071334095 -3.065179997864538 -1.6570697343533254 -0.7975637204800928 -5.790458250002022 1.163412566819873 -3.1856916116178913 -1.3898859037745745 -0.6174910160049669 3.050908234228961 1.9297988019917638 -4.42585327737662 -0.02182343675845498 2.986940313224799 2.062481324329008 -2.5972890446108443 -1.4471075470903476 -2.078884273620628 3.0642449116736676 2.0007848869782676 1.367676396469716 2.1146370459904946 
5.227933995353666 -0.32501593399992684 1.9245905620303612 4.1667736946949745 -5.78254503733836 -0.8408329263165881 0.5267303168681127 0.5556491156112374 4.409390528573479 -6.6022281964197855 0.15522379313068851 -2.8563437591208594 1.0625996291174071 2.5463479798805335 4.185695649005459 5.116593032829967 -3.3660820478746856 0.6141265517365369 1.9913479797621585 -2.356299723352122 3.0537887364933174 -0.2396752402174825 1.050378336211918 -2.9922639929116324 0.2360979287920296 4.185543566787698 0.2587936694446151 -1.5072493032386862 1.341618510606115 -1.8335625786435559 3.1644936181006367 3.967808462249334 -3.2268040108907865 -1.0333223471014779 -0.7595044594305215 -2.79016057810976 -2.6179992496805555 2.579695416534157 0.7172396777320144 -1.6111044652272355 
2.3788253632530854 -0.4535243866036099 0.8303115930330881 -2.8455304742619374 3.642292387915716 -4.412092290118525 -2.072075989514685 -0.4369069858618386 -7.8831739192595425 0.20077276307662642 -2.284132325072775 1.1089877741617973 1.905697065392949 5.9378829968075575 2.6111083853605477 0.3766064340220559 0.12721614934089476 -1.0775934609294626 0.0029712419607491746 -0.49323935659764745 1.868423497135855 0.1437914661828576 0.7564218163000306 1.219267259310953 -1.305629375622404 2.986725289604457 1.2638303317819868 -1.688019218133859 1.047912094057165 -2.3308636156733016 -0.8884457318686017 -0.5868939335399072 -0.26824761252506296 -6.36522988490243 1.318964440748285 1.4205081115755591 -0.847231486816168 -1.8159521287090987 -1.072034068527866 0.09052501115556569 
3.36178030815592 6.246521307634539 2.6539786019527054 -3.902018441840409 1.1848908915376073 2.0789843348409023 1.567117791062822 2.769061985108109 -3.355258053915806 -6.673296819828819 0.7860197753803208 -2.0985428757083895 3.2846659776260845 1.7472785640543789 4.339967178882739 3.844313311440569 -5.292260214701147 -3.7159975620261743 -4.118039640465973 4.434972777662661 -0.9923954658304205 -0.6218068610546136 9.935794641957129 -6.11072087856251 0.5360660777592902 -1.108192897342459 3.5655132748828535 -4.160574272252905 -0.0678822851100365 0.966700497055495 -3.417269930601345 0.6423213409866956 -1.9761257673346206 0.6738570077643034 -2.3628661634943815 -4.5757985143091 2.2294880038264355 0.555880029510191 4.077131300372426 -0.7733483196588612 
0.2112523352088161 1.574948823853182 1.2296458446139953 4.233141989794157 -2.1864362227568694 2.5368569350645673 1.9852062469881888 -1.1832685069163842 -1.0746281217777318 1.2595509001563399 2.0054201740052604 0.6860466693641984 -0.9296286385275491 -4.693789956089511 -4.102045394706315 -3.5786971000398724 5.045758472968363 -4.55169549483781 0.5133893499592239 5.282690481008378 -3.034361020193205 -3.2957783520011983 1.1350840752813287 0.013271105251791626 3.6525955656442988 -2.303443665017283 -1.665510780370145 -3.9595750410112593 -1.5919561213938802 -1.2925613024658729 0.11657556837355336 2.53007072132861 1.8614894129937027 -2.7367346651310953 6.049406091070608 2.858038639248919 -5.092341819791045 -3.6265031745458156 1.4778313146882536 -2.276983861935995 
1.5960475978468238 -2.1353348240209344 -0.7105239935434753 3.0822745874763924 -4.89598284743411 2.558866606145757 1.9513984445190258 -1.1653897987863304 -1.6001596169144798 0.2437198594865321 -3.259618907319507 0.7877361850307719 -1.4453555281556087 5.201691814198974 6.100789317014223 -2.246161796572674 4.339131158620823 -1.6968808367338355 -1.706571806656737 4.332561182435349 0.26584839877665145 3.9300496797108098 -1.9892659599554776 -1.1966149610018166 5.308339668995796 -0.5851704923157955 -3.203653292481908 3.3706000988565172 -2.9287029582110073 -1.48466920454992 -1.207913155029388 1.4822817429872617 3.4198166237372565 -1.710125943294619 0.5680337404511935 -12.302330188359198 2.571563253654497 -3.437499672242318 -0.0924856021986506 -0.35391025810423676 
1.2748973687938445 1.844034937728467 0.558617122539994 -4.71304033288704 0.05931412057792684 0.34353264867549715 0.1926039253048247 -0.22749395701770184 -3.0583003416794963 1.6333795467432275 2.8087332394230744 1.508245028986094 -1.914030484124022 1.1113893218665138 -0.833873031670407 -1.4312975657214728 -0.8263854007505094 -4.648187657357648 -0.8220743743533092 2.7886508239412797 1.1966810279268985 0.7822528402722222 2.7356085396250696 -2.1714224114736953 1.9950928017395204 -0.7820545793387975 -1.5732843753865522 -5.867687877601035 0.7905115565601671 -3.163692985308351 2.970218779226246 0.9318991591693853 -2.8292183565102618 -2.426325537218809 -4.401917931980866 -1.0012214618141826 4.432199557089695 -0.4525632592146192 0.636028256334214 0.8549042598288267 
-2.2896958766497755 -0.15156581156045468 4.147714655437044 1.566540430077233 -4.783272104449222 -0.047757373883671184 -2.837272911594195 -0.5773010238154447 -0.3827002910620463 -0.996336668665588 7.023947435919733 -2.6164413566756366 -2.0071088660076337 3.7199766305110535 1.091889703409231 1.689457598970103 1.5383546146541547 -2.1671272941991746 -2.776608165013145 -2.1273127535700214 -1.1199385464148135 4.407295282520311 2.097952862801085 -2.6705166479422267 -1.6850114453627931 -5.288312053332277 -0.28676605859821436 -2.6480562403995203 -0.12368371969404296 -3.3612101071706166 -4.865212454900442 -2.081203445168325 -4.633266070959143 1.2293702467528502 3.187855491612728 0.028849349455268278 0.8967028641769215 4.21967731254359 3.1004485589950126 1.3436509593181407 
1.9206630390288129 -1.6468481164793811 0.780073026633506 3.2888827758955803 1.2313379630531969 2.6956053418659156 -0.9828279211606334 -3.7613297112374977 -1.473403754693356 -3.003850414017329 -0.11649217814531553 -0.8698530153334446 3.5374282484339163 -1.6161589358255997 3.969236876205317 1.4673849657580518 1.413807264550166 1.2030832079241291 -0.6983126453126657 2.792722448539802 0.4845116016346918 3.952381496523807 4.615133506743343 0.35770127547878605 2.8530208819469416 -0.83827902922001 -0.6151073962060768 0.2454236757108193 -2.9215399870440972 1.5679606747112833 7.56266915871391 -5.45768838749225 1.3535041982765905 -2.0149129097157332 1.143381958199442 -3.3414891514157277 0.6609813120827662 -1.1724648802237427 0.46163924536743073 0.24651876113794557 
-1.2415029514717695 1.637189417187053 0.23222739577689755 -3.061919009745171 -1.3428844975784917 1.5626783427904571 -0.717222185486925 1.2803733964959478 -0.026103680989451296 1.7627149272017568 -0.4645160389891874 -2.481991972800384 -0.505607213796006 0.734602464933999 0.8442496303916966 -1.357162742726316 0.7115005085644319 -4.127098933357859 0.6706247132778471 0.8218713723229829 0.4095147047346301 -1.2447969430257078 0.5200349404730713 -0.6030612413912169 0.6982666442944753 -0.3429601221919515 0.38069127419382653 -2.4149402435791476 -0.5219789008549224 0.27325881787266565 -0.4749573772185755 -0.10084032607368135 -2.1928907679426013 -0.6597654033759371 0.005327305633285961 -1.8397762345457898 -1.291408653735661 1.4220558515703356 -0.09421021824317224 -1.3107005871354083 
1.8148314523416402 -0.5349838984422519 -0.9200377998009867 -0.44178164951926974 4.5168755501422995 4.0652484212754585 -2.421380127772864 1.1394435378371952 2.9130177350934163 1.4723782665151284 0.5811726032070681 -0.6042935481669275 -4.073770277923081 3.3102122379946883 4.312343550138613 -0.3271602799378796 2.347699430343828 1.4964772479712742 -0.5519860319194686 2.921615390047564 0.44620904039667797 0.9208209391118461 -1.8846314507984183 0.40320072391945316 -0.4219218901283049 -9.100289200968561 4.488812643789241 -0.9122672395567676 -1.3503470066306338 1.6365452421750977 -3.5194953593253113 -3.2101373174936887 1.9856159238379 4.037249372454458 3.4404158961174884 2.8610607136790165 1.8859604668696852 -4.109619187880847 -2.547626057585857 -1.345446437746788 
0.36427148693965544 -0.25284020377232375 0.12806774165628443 -1.7452338123155617 -0.6789175920740702 0.19000794187998962 -1.2979655354197623 0.922846557018441 -0.6931748803903327 -0.0354895248806835 -0.6687329404081058 0.43848228750957746 -1.7756638437346526 -0.11172611263511954 0.21494566741078405 -0.5266550883171853 -0.5312117783830138 -2.730150589805105 -0.8326466559744276 0.713561813803214 -2.141785053640996 -0.6922096184054325 0.188405166883504 -0.28191910957801913 0.3012243310883917 -0.5855829714659565 0.16039426282652897 -1.550891250069237 0.08050314020593359 0.5969485845858069 -0.0459741971477573 -0.9224200863197258 -0.45642553181267365 0.22087485983004856 0.23508338846654622 -0.1924724792247368 -0.7731010411454742 -0.20188156852416378 -0.007108322865908614 -0.5912225038280778 
-0.06202828422241866 -5.25422115502712 2.9187990233101284 0.14632557986588518 -1.7444522332983288 -0.051323411818513416 -0.6530771843051769 -0.3227553623757995 -0.15475719203576488 0.14779001840453762 0.815661308892006 -1.1609249087812332 -1.335996207529899 -1.9037210133307552 -0.7369893206841552 1.1651581803209132 -1.9815613721916705 -0.5477209012188039 1.8140111851605534 -0.32457682667292687 -1.058544684766749 -0.9987725866535557 -2.517228330367994 1.133401200419028 1.0351441838475441 0.82365044763808 1.806237201052738 -1.162924323015315 -0.5448597905483555 2.6792189256694994 -2.1916146191479178 0.0668940580477455 2.649981833285644 1.175801682931828 -3.2065061333781433 -0.12513691961076148 -0.3337276084333386 0.23603069404489704 -1.7836012889026498 -0.10042889156749844 
1.7912823776409361 0.09202108438096372 2.2242664629486737 1.176068941044038 0.28743563668273825 0.8299436111126898 -1.1874890795179096 -0.2887589584803574 1.1994187916224568 1.2783890406375096 -0.2931306815953369 4.201433146221779 3.374009347651835 1.8890555486861316 -0.32619254434727335 4.05456296899817 1.7402984652398337 0.6003028803319884 0.10261508238762342 -0.8868564027821634 -1.0571129781701396 4.080027003206942 -1.5768766687128482 -2.9093290207902913 4.025437188532495 -0.17323769613527226 -2.2185555540092734 -0.4187157742465947 -4.294629241508849 -0.8313200872983308 0.8217112161363324 -1.8572440955213365 -0.30808606719747417 0.14864048904890073 -4.082952209800691 -0.5034103550070672 1.7612055701961777 -2.2086882160661436 0.1869488273010537 0.13297967732391386 

-0.5466764088542845 0.3763744303257138 -0.6046667430735124 0.27043809040459776 0.9396654563907009 -0.46195361701751925 -0.24696556281747578 -2.2849716357392156 1.059414241638056 1.019718188004429 1.4126372639574458 -2.0859013478610264 -0.02535095445956936 0.6568930298292488 -1.697750688714649 0.10670737258033439 1.3983333102701043 -0.4239446469139054 -0.8472310518802757 -4.238638204638519 1.650578057397143 -3.064232623044385 0.08098119308254288 -0.19401446037065284 -0.1906607884560855 1.2450334967401508 0.04752853488508701 -1.0255926369239006 -0.13608658490365633 0.5919103434839289 1.5223688074132127 -2.004168583822667 -0.3285245107240918 -1.4851146906090602 -0.7350100773212564 -2.313280271398767 -1.3820339650636162 0.35811215052268763 -0.6072795279909066 0.32398044687395006 
-0.39923899209300157 1.2327439034005467 -1.3564267831644905 0.3972307611905276 1.310142446633897 -2.33774528756057 0.07536997194147685 -2.1698150303168835 1.1515666871756025 1.2426788843244163 -0.24774372076729162 -1.374536479823128 -2.983971074614396 0.04248495421515469 -0.48851074296881886 -0.8474569527522853 0.6581876175847753 -0.49043191794469915 0.9974679794222657 0.9814088269957643 -2.4070909242748044 0.999872052912063 0.25043770937711163 -0.7014820731944713 -0.4284192663075993 -1.2166416861318068 -1.2098855493391778 -1.6883451488884518 0.4075794065120698 2.46567102174105 0.840906484049634 1.4849594936692028 1.9196625583596174 -0.2921713845964046 -0.8837922602740671 -0.19251684899828048 0.7961269132784632 0.1739894462500018 -3.8340105479179445 -0.6931549478376957 
0.7587358586641626 -0.025921342684307177 -1.0683578101819424 -1.0094148231865072 -3.1089393591204693 -3.589273517784688 -0.7080159419860951 1.7532354505058405 0.3926956584144289 -2.25979624654132 1.6255868853988906 0.7629546175818875 -0.501627595918777 0.3589589581495935 0.36883170643084157 -0.668635378483474 0.17493647637093576 -0.32190291743308486 2.890148243950853 0.07367208690821359 -0.8649518285487642 -1.8908435582061782 0.25960854593767146 -1.069561503523768 -0.8951366164468292 -0.27951446575584543 -1.7724840870638576 -0.48809416977393705 0.3784018489043261 -2.0855214674423377 0.5655697812646269 -1.4906057509578694 1.5182181051352275 1.3309874233487067 -0.58454124810792 1.1643565717402196 -0.3985177771000625 0.30510376535837186 -0.12656735554272877 0.4449567436811015 
-0.8165608876235854 2.0185994511922667 -0.20274806694740313 -1.0095104854819241 1.8023410520714451 0.8792031473273699 -0.17468067472251622 -0.23551257298017017 0.8397164459839414 1.6095800160079465 -0.8051282306299785 -0.9614973735544142 0.1371844901996502 0.3579581872333992 2.260595456310079 -0.9581296211453902 -1.494452974852975 0.4133819635201485 0.6872878899481731 0.2282455748024027 -1.965361491195024 2.199078181496534 -2.094623569820146 -1.4377860108576428 -1.518157829380411 0.25276288171242267 -2.859605849899226 2.4727571426590895 -1.424823229014334 -3.012574969258031 2.3458841074737706 0.827955719859417 -0.6990323440317713 2.109277745927739 -1.8319203559865487 -0.9907524970651378 -3.740306674122158 -1.5113966795082585 -0.027680727791910907 0.42182097577234146 
0.42345159956060274 0.044225533878963746 -2.3992482845361174 0.046377747330079815 -0.6072547878052671 -1.5624582542070649 1.1620210772763797 -1.5670708387098247 0.5147391869265396 1.2686472231814037 1.3408831014748805 0.18408631799177252 1.6891097511684343 -0.5379790923787751 1.1243419488193191 0.3966251736190318 -1.9258824806848238 -0.2323880765178373 0.5249888502348675 1.0245154344103269 -0.4864548432978474 -0.8773944965974994 -0.7496811334261114 -0.4843040934787442 -1.5498253105755362 1.0200675501177947 -0.5097551020934338 -1.606868039504195 -0.05152577039844716 1.6542201917039596 -1.1498180261156496 -2.0927670990043 -1.7054333954704404 -0.6540423712177265 -1.3917737194724484 -0.5586937343591193 -0.07119653286764573 -0.551548714278169 0.36900221157894686 -0.16908522783042446 
-0.5622743337522803 0.6155194666909433 0.11373975310911362 -0.10913817040281241 -0.649621328895309 -0.32074505184612695 -0.14234170610855063 1.5845991319244526 0.017583275493592874 -1.0882060916079987 1.5828127957670524 1.449327066098286 -0.20426132985745998 -1.3357896044347608 1.4815439475327519 0.24206820165398504 -3.245358873672557 -3.397911728415344 -1.315982335728123 -0.5816566769587064 -0.7424524944161273 1.8056862538950598 -1.8437241630705157 0.2858845425546127 -1.3558018483729923 -1.6698644120430646 3.2892032076193614 -1.277661325482111 -1.8671328651333958 0.8679273133298202 0.7218072935035984 0.11171516036812558 -1.4337032634465285 2.3216623923660564 -0.058672321078177075 -0.12412977055563613 1.1102724476670955 0.47549224961588743 -0.48121139039273314 -1.497936239923978 
-0.41976731944762535 2.1162728717788273 0.01041519395705993 -0.4419541713611751 -0.724446557267908 -1.7676259440459303 1.7481085863431187 2.662391700441384 0.021083482985987848 -1.8944498852815257 1.1833879452307867 -0.9603658796926079 0.006133170080180521 -0.7662261820816938 -2.6815512020281123 -1.1279881305859092 0.2875608671417468 -0.002306874021928903 -0.8673115917304117 -0.08498582042019892 2.1187214006011237 -1.795262220599684 -3.9752964290105943 -1.0937254054036476 0.30813876209322877 -1.0566966932419473 0.3776502647874672 -0.9868384636620208 -0.4583283588805818 2.154667463766303 1.6753606285815819 1.8266688940847116 -1.0259382952972433 -3.0910193799732952 -1.7745569221791533 0.2525673985379056 1.5833949936460743 -0.29101865319248854 -1.2245534158280253 -1.4462681516446645 
0.5384407999967038 0.8922029419470798 -0.08718823667249105 -0.9047832757745007 0.4871907292834128 -0.992295817053369 -0.7780897128880105 -1.3384320940730203 -0.16651569234425506 1.7261772590423605 -1.8404384801048304 -1.4009865972650928 0.3859541841371085 -0.3892873732299877 -0.30658329078276014 -0.2478310285370504 -0.20172402663771877 -1.164848064349451 2.5445776582861805 0.8000635976740129 -1.7007711155233263 1.590261178746609 -0.8210740715158886 -1.4157163343941048 -0.1513541431828678 -0.34359991879858237 2.4686963834703475 -0.7557876443767075 0.9113929122326235 -2.4519400899031827 -2.4365233763293728 0.8323844229154015 -2.7722068208049664 0.3805055247515236 -0.06393506313416361 0.8322565918051731 1.3316949951469703 -0.8427145781070257 -0.792932277475972 -0.01400856818141197 
0.367187824845043 -0.7009272587790504 0.30374710918323905 0.3259735833657821 -2.3420570882725515 -1.6440093145413417 -0.8480003901921864 -1.0769989269056788 -2.3300582562457337 -1.5061039291824578 -0.8646082298005875 1.6160642227091524 -1.7119911828280217 -0.26042834317696123 -1.3985657600543266 0.6488570572147967 -1.1725021635491004 1.0684974208397438 -0.03754214986239647 -0.24424280763724832 -1.047749818635264 -1.3458008607324479 1.0669220241684054 -1.0586933924455175 0.64987105155932 0.2329545112024231 -0.3581484388063884 1.2422486281974736 -3.709542156858015 -0.6185875113818862 0.0012345688784496862 0.5164167163125636 -1.6097166098761404 -1.5274251012153064 -1.094306000493984 1.343787079622212 1.202140173468833 -0.5985383505495538 0.9275521409908911 0.23570345602500348 
-1.0117074128695152 1.2600818298637364 -0.607469571359022 -1.0602516686330985 -2.0528912476678145 1.3574233683697823 -0.7829939708174536 -1.2354248532069179 1.080485634094619 -1.5214746639374381 0.9340211286129887 -1.9089334545131638 0.13323151686516152 -0.8273293437500832 0.4009101133498217 -0.20198411923830578 -1.1711654371063487 -3.523904893793245 -1.5350956213494606 -0.9023059762611728 -1.6158900861300916 -1.479903288411012 1.187256789211311 -0.07418139493034237 0.6029937324232179 -0.11508857862344045 -1.5054949215869797 2.2335833025081353 -0.6929750717293304 -0.6139986797632522 1.0593916489988537 1.1229780409791117 1.13619735428543 -0.42660658828120407 -1.0052457147138132 0.9350918206198233 -0.2922724545904051 0.16570030385640788 -0.5110305757161215 0.331694359045372 
-0.6819089160800316 1.5322569476030792 -0.20261492612454465 -0.9087040730452828 -0.7611562508734234 0.6912221963429199 1.337486042632762 -0.6870880496508037 -4.3219473901577805 -1.0367721183469831 1.7350641520538617 -1.5273878703120394 -0.3218277368206149 -0.3806813415303077 -1.9062128194879788 -0.2387750209361786 0.7910449162127933 0.31920022711270357 3.158475423430069 -1.2035313042866584 -1.193082971385164 -2.700623056529197 -0.4334482833833646 -0.6593025603723646 -0.802519290471777 -0.5715828147890061 1.8258745767151858 1.5879091878534841 0.3973654266953729 1.8977922574663129 0.03374148302148615 -2.5111665892312978 0.43168004900205786 2.244514004935443 0.1482725189023972 -0.3875595903177204 0.13543387091720915 -1.2683889924912048 -0.0731650859944069 -0.5149893956788981 
-1.1140758729767868 -3.153126841570923 -0.3668798359668182 0.16592288464794572 0.6342332264567814 0.010452450337117622 1.2100513390924292 0.3986916923912102 -2.1222835910452615 2.291754913150544 0.43948395284365077 0.20240173076258364 -1.5469171286743097 -0.40241874501877883 1.3021123408029875 -0.42118558349034213 1.326373321676159 -0.576471999522749 1.717237645556031 -0.754495571599165 1.3519612897340452 -2.803798064854908 0.5666417772761743 -0.9667706073284549 -0.1369875175370895 0.2545916436312272 -1.6501318638858056 -1.3131522473145805 -0.13188301816549908 -3.011547630269284 -0.9699611559560889 1.1305208239028526 1.3065252421833575 -2.831541506158919 -0.24412500425471514 -0.5140471023004989 0.5918533854181873 0.2924916213793544 -0.8589449231284666 -0.6737965013111004 
0.6300911657129251 -1.8458021594105294 -0.6924179987961526 -0.034119467243514445 -2.207541725983989 -0.1826410458781977 1.0731753942270081 -0.546948162286216 0.8457598851465314 1.3898933817109898 -0.9737276885090861 -2.075672671823653 0.27561092362145256 -1.1811922297296398 1.5685775238686641 -0.3706338353304366 -1.9317173244182524 -0.35554892518890713 0.361841167742582 -2.181434421785649 1.0162202283339705 -0.00595651196007722 0.4862956901553029 -1.160413318437671 0.03301768538874946 -1.3048152690192898 -1.1389271528211296 1.9291424080442987 -0.7602116250117962 1.0552462592004124 -0.5038491534620052 0.8723262495422696 -0.9898689120357721 -1.1692137728636693 1.8389694522512912 0.65521180230776 -0.8928397892089582 0.3031996997449867 -1.1627776156831724 0.1439220581901833 
-0.814325659432582 -2.300601436968343 -0.5592839488441955 -2.51717735400627 0.9198233504673781 1.0845251614024471 -1.3811695312351024 0.9108342011950463 -2.4871220228554627 1.1292827373810503 0.31151504368395583 0.9311018211999715 -2.9697613998334695 -0.2774896643487113 -0.23183137701248252 0.6167483790320804 -2.7283954535804074 -0.2949261587855781 -0.037009041912324556 0.01282413719598369 -0.880045040187608 0.9671883768334504 -0.10261659753369039 -1.3277997658935758 0.3927384881195264 -0.548616034648365 -0.8196857764399005 1.524438515557445 1.5529875936439685 2.9938728589147794 -3.329731268977791 1.691187412610722 -0.6895723157778483 1.6224747456328887 -1.3427869444391822 -1.2260817655216674 1.733318291384186 -0.7319165190143353 0.23773487577242808 1.7560894649753727 
-0.3730568075511954 0.9408265945076703 -0.962076773736693 -1.5610920443408807 0.9581905712591203 0.4695139367480812 -0.9683387849631805 1.7919027562152219 1.976559131099764 1.8972704327280887 1.6156469536961617 0.6479261769525404 0.5068189227185135 -1.1391610979396984 0.9678682467657769 -0.4524825090267613 0.8227530711966446 -0.7864095941309281 1.5259228515672325 0.08042553112222822 -0.27010987264673925 -3.4829044632553168 -2.062620354788498 -1.1004129475309927 -1.6967298438078704 -0.2551002611939722 0.6096485806504892 2.6002736722831234 -1.4128367557610517 -1.709394096760934 -3.174044076538189 1.2302632292465525 -0.507456814432243 1.4480012965048106 2.3480457223067766 -0.29399681955870466 0.5107798661891351 -0.3521021364692367 -1.1224568372753847 -0.3576574943024892 
-0.43813671900047857 0.26828881692649664 0.5917820282729956 -0.08296460292010714 -0.04915029389569675 -0.9185741485533455 0.2008828043139487 -0.44162598045809404 0.6172445729118251 0.6540164659110171 0.6544203222580295 -0.08378923778050977 -0.4825283389939696 0.1549159085568599 0.8103383954458807 -1.3404309328881194 -0.16092080384139665 0.431524905387731 0.4535060462606669 -0.8055776494481847 -0.43984078207259963 -0.7821039725286212 -0.8134496365561165 -0.7890954315765564 -0.9198460315055199 -0.947076380357065 -0.44429137298513816 -0.5792492801866201 -1.18005752819154 -0.49680321511197345 -0.37101433496034036 -0.1151695218514701 -0.12517533093371713 -0.48291961804378614 -0.9900289759289275 -0.7608877421897695 0.17381708786608535 -0.4451488414796301 -0.5777548181800677 -0.11808197903715004 
0.6287130360193787 -0.12452653496920678 -5.158738206257755 -1.2910464451829031 0.21917464705311634 0.6592624766107604 -1.3749199619828205 2.062716591345992 1.0748048014587614 -1.6594145161505625 -2.6697149293946523 0.34969193070287863 0.5278610369410851 -1.047051085731796 -1.1205711156358285 0.10063875429888634 -0.17422072490138008 -0.5363129852423196 -1.2712533142314844 -0.7640658282543027 0.02139612400996526 -0.4244434028782011 0.23948955901653182 0.4091390014544756 0.36680666697516906 -1.3664174504197872 0.7630586120333472 0.7838124526356438 0.8652457564268746 -2.0475253334106025 0.9557041334232304 0.8703987401419565 0.26141891774155424 -0.6012298642813746 -0.03729657953124986 -0.031186076482408766 0.42624802315821914 -0.5419362413140105 -0.4127153745797734 2.4892010719887905 
0.33495934162115126 -0.09154498241816734 0.23089234453767882 0.454687914712397 -1.7578453062868546 0.9434468759483856 -0.7877926798956335 -0.16514593111461395 1.9840633598739699 -2.334403813655203 0.8767010449080989 -0.5355528578554206 -2.2622496022226417 -1.9208063633841757 2.3083245640605123 -0.8270947504744899 1.5727497959641257 0.25019601154755683 -1.4687017772525128 0.11941514264072241 1.2575714561366287 0.2577548214736711 -0.19214554491040653 -0.013784257277600647 -0.7439853827077376 0.2728928114780035 0.3674949075704838 -1.3500269975143582 0.06447097760945848 -0.3549045508722874 -2.991879537314711 1.4022869505472841 -3.489187636311021 -1.221119142696841 -0.8890993161919278 -1.2829275062449144 0.6363326438957388 -1.2538779051096105 0.3539689258558327 -0.3398444547189018 
-1.2886860308577737 -2.186045232261436 -0.9040482417006305 0.055561040018519164 0.46957007274299106 0.39696215973058757 1.6780020547654992 1.381247047959253 0.971031079656685 -1.0207436087373032 1.1975739747164629 1.4677019655078367 0.5771774848521707 -1.3818477372772167 1.0831358249567697 0.32723352270461625 0.68187310996168 -0.9183440733097449 -1.0788359785739858 -4.155564592582113 0.9150852712954132 0.3700325159612871 -0.6025130058223961 0.0013022078779809632 -1.2633054464570412 0.1627267949958031 -1.852272395036215 2.2997676125331346 -0.8648227567963507 0.7537165979289271 0.9508405958045051 -2.462446306375919 -1.0060422170928176 0.16913464846581658 -1.2592387893939347 0.1549880733421352 0.640339036950409 -0.9052180443796058 0.2681172526724411 0.014907281401174166 
-1.144319169082376 0.8055563788068415 -0.6144677011601513 -0.10447692398383018 1.1628377752848729 -0.7422886443339549 -0.024877555423788243 1.9134741853178245 -3.1971666967859553 2.8910716666183824 -5.103654052721422 -1.1348886754285867 0.12675423150683643 -1.203087162568956 0.5319656454274412 -1.9617658584215618 1.0467284606618903 -0.8819491991962459 2.0115327139970662 0.5689146439262266 1.091302333847187 0.1016285775116775 -0.28774943083420734 -1.6563236703886273 0.06426759045728822 -0.9736410664747246 -0.7558747623793407 -1.819686058277043 -1.2535379771990984 1.880854319741455 2.168388636999455 -1.1002367531810873 0.7769044261235017 -0.9104595460681156 2.6228311111490012 -0.5621526042149518 0.9911485872490032 -0.7714324767740687 0.45219724586269977 -0.33237440275329266 
-0.7588657039554119 -0.18123355929570273 -0.21307172323223506 -0.6664710702736311 -0.10776964640534692 0.3421002007758735 -0.0012778235177669218 0.653167577129664 -0.4702830378978578 -0.226438221737062 0.17529404331734677 0.6741644307613727 -1.0488611044437308 -0.48708532157578327 -0.7739242200830864 -0.06771281067913211 -0.6654485388379532 0.34433542908489323 -0.1950953294433225 -1.0640675583184007 0.21472923433280025 0.100941297992507 0.17318411374543913 -0.01294285299469321 -1.0880913916335004 -0.4765389203195459 -0.5601389008526517 0.15176395427994674 -0.43907957916911466 -0.6028693854518745 -0.43856533710802814 -0.4071674266959821 0.19310873311527174 -0.05586236773154569 0.15083942121394053 -0.010780272599656636 -0.510998288789564 -1.2531993375941357 -1.1817488703367431 -0.3207061151807281 
-1.4636261708213498 -1.794202401052343 0.3724731525953397 -1.4500616174915093 0.5482812480822743 -0.5545069170593392 -0.24919446722805194 2.53145489579018 1.5831180061280414 1.649101864208939 -1.42729082498128 -1.1171288652732418 0.743122266864073 -0.20302090573082746 -2.839799050349705 -0.30734464675480205 -0.3129242955565958 -0.8415982722766664 -1.7541978228119979 0.08577850720629498 1.8345948556276326 1.7012321794621268 0.28428888227323157 -1.164636650235015 -0.5202238344133558 0.028518722927013435 -0.665419551227585 -2.110440083403719 0.26317073006966796 -1.8956214700153453 -3.0459375875541794 1.6950875228501308 1.1693241618274968 1.8724503563980424 -1.77100756544265 -1.1515172915599166 -2.924392439680189 -0.02837075559157603 0.17860360776961845 0.21078247557411076 
-0.9914939520035451 -4.165387723449621 -0.1929000430729221 -0.878771118106651 1.6041544509227466 0.6259644071362261 -1.3707331584315685 -0.7881837862368459 -0.42986589385012824 -2.1932646666813223 1.7419825912675653 1.6908916442999995 2.7868716637106923 -1.0123910243669572 2.514421042455718 -1.0902074569827007 -0.43138360517243346 0.4814173170094519 -1.356030989450301 1.119231838793076 -0.804309986765887 -3.0889475116436036 -0.9070122121449693 -1.551207255433552 -0.7668002156872771 -0.052120633851155534 -0.9250234038629156 -1.7565226890239756 -1.1697409068462503 1.6966970300966377 0.8641837452900625 1.4789936306756557 0.4278354425353819 0.5423838848856142 1.0042235565077224 -0.863324065521848 0.5701332213024484 -0.517951145378213 -2.7788658074314556 1.1499740021619824 
0.11514954695735316 1.237683386984547 -1.0712196452355058 -0.7176312018231447 1.2827032071234372 -4.020030345502773 -0.023623569815860616 -0.44341068855916643 -1.5539084322167596 -1.063043300718054 0.596413224402732 -0.5074519873650815 0.10555286418441004 -0.7917832571646151 1.8832945584774654 0.2644311907423822 -2.9899425952992686 -0.139120052801856 -0.8495963619431701 -0.24027469598843254 1.3793819981539006 1.80412533604704 -0.5032894015861437 -1.2168535806990672 -0.8002588886453282 -0.03144221396622666 -0.5669087833443406 -0.43590970988954925 1.6756938433326882 -2.537374223797179 1.2677432621009994 0.7044980727797965 0.2759349460909614 -2.2411750212698833 1.187465965673062 -0.4457043582412912 0.38219852130840465 0.08126350489662197 0.4191870076029085 -1.0840349480850329 
-1.034248623942105 1.402804094026684 0.32979872806856664 -0.9232403108861656 0.9711107236952282 -0.47915142090084634 -0.7219309598288622 0.3767944984337455 -0.8920127830121998 -1.045400862536786 -2.2280225936343228 1.164946535872355 0.01947364258896219 -0.5911861270764639 -2.0060548023296785 -0.8888113591317068 -0.16027963798214992 0.082149877020782 2.2698179263030553 0.1395011680566416 0.7561147196967006 -1.6488721143267784 0.5229947453365577 -1.4001715292201922 -0.03355717819614446 -0.7116234017845026 -1.7885501679883935 1.6894893498265828 0.4707572151811881 1.425592879556248 -1.8710556738801782 0.6123477248798526 0.9574816435801935 -2.287732518421121 -1.5410260453722275 -0.6479766789654683 -2.828234136422773 -0.16892994479663934 0.05355181568020181 0.4200386175033424 
-0.7635099319532198 -1.5108756723544785 0.6086448000228512 -0.2630591654533545 1.6317427767166524 1.0872828140933795 1.5933744030628172 1.6766416647364082 -2.308900729086289 -1.9676722354186678 -1.5724645364960108 -1.2562191690453306 0.2548513650955827 -0.5563128433202168 -1.6490034646223573 -0.3128856465945862 -1.6277455788083273 -0.24373507093611238 -0.4456369579917789 0.23561155074426415 -0.6698172917886963 0.9558463576985823 0.9523587875012973 0.17284927966947347 0.7942347798506721 0.05218853261626109 0.29323043211490235 -1.2563035254125576 0.2846002687384876 -1.4254746494167854 -1.026992565137303 -1.6426759540297666 -2.655194284995482 -0.6200572360706683 0.46226853419172564 0.454988444053438 -0.13491175583082607 -0.2923340205666348 -0.7709349684032781 -3.7152062798783515E-4 
-0.4654390818560021 1.2493413628673755 0.3399406884136164 0.2864162691568355 1.5758689479459254 -1.1577563430992073 -0.6267602702946468 0.7879801234130968 1.106025230280526 0.09727827093440128 -2.3951682561180294 1.5220577605613124 0.4496455959431032 -1.0859135554457127 1.551043865304542 -0.7987328113026315 1.1229993765462558 -1.1793125097363157 -0.45038674559608427 -0.9073047119916868 -3.196389538577943 0.45666533520229713 -0.9881218360195961 -0.5648098624174388 -0.06113921871111093 -1.32795606808572 2.0366479255628196 -0.7005131172895368 0.6783719438439264 1.8521198659288263 -2.4473579750865397 -3.631862138351161 1.129121380856982 0.3939052244586098 0.41673515366306774 -1.7505029612052228 -1.1646770393777073 0.253224734702799 -0.8813783518610442 0.9815239744856054 
-1.0883744545507712 -2.522760877135741 -0.8726623959257136 0.4287336973437607 -2.6661124003737466 -0.06923697650130073 -0.3314705861202877 -1.1073312383628484 0.25266874308355175 2.516697118239354 -2.251516893214557 0.06111137062558674 0.8800515109574406 0.009747208464007093 0.24941654593628407 -0.27617993654527817 2.1762954112082724 -1.0240811889274322 -2.0733422171402576 -2.5289096273311937 -3.1487170567307103 2.4657597367847233 -1.1754295473574532 -0.6225041508806368 -0.5830571296151278 0.3922760212997482 -0.9457075094765417 -0.04115125564059306 0.8160677389060155 -0.9278966419463812 0.9501855056085408 1.1733572944466117 -0.6802610689818386 -2.4773357616567244 -1.3449655432483971 0.6234845028478558 1.3330000799991404 -0.5854477783368257 0.516630505522045 -0.13812930293599415 
-0.19091670288153356 -1.8937469770721218 0.5354727892377003 -1.3225887956546654 0.6422266085632989 -0.029824179139554666 2.5427558744760916 -2.3405627598961964 0.6532649384610171 1.5004558351145496 -0.8937018969524249 -0.2320126917872337 -0.0695282305337837 -0.5443452867753366 -1.34181178104916 -1.7337859729547462 0.8646576717531486 0.707620743958483 -0.845682072727115 0.2637035113349252 0.9035553193991198 1.3621213281124875 -0.7287633546676253 -0.017895376776863984 -0.9483776493740008 -0.3681213350765405 2.63122953890829 1.7223875743444208 -2.1951962450259375 1.36461526319066 -2.068334425496094 -1.1692718544988363 0.08819563871280571 -1.1836039270226524 -1.2915236678983042 -0.8221862092786282 1.1739688325985644 -1.13124926697752 -1.790136344894907 -0.6199319971211085 
-1.1928006213051454 2.1238352861634526 -0.739925696779039 -0.5254013583397333 -0.5559084271085143 0.9939482796511979 -0.514552804262388 -2.0074078164152094 -2.899812541263973 -1.1077404447881218 -1.965601835317703 -2.135566764475406 1.3596278483938957 0.17754921972344023 0.43689256531004333 -1.2017608434837466 -1.2891312581875025 0.19181888874999464 -2.0693534632062773 0.11347346746700286 1.5151924780491848 -2.4923201557557726 -0.44611276924920734 0.6223214091045333 -0.19192528304922019 -0.0861547782957591 0.577241210878439 -1.6741470495365158 0.1944207486307455 -0.5565134895432526 -3.9112446945607293 1.2964791171138152 1.8026356431828499 1.3275747949407184 1.0807922731182544 0.2573115876222768 0.9525092315448095 -0.9251964065158438 -0.6540981601927642 -0.5492147241975855 
0.5322915340768607 0.6305230510676053 -0.634805758432392 -1.0299541379476773 1.0911261941726549 1.1180099647450887 -1.2243026650234163 -2.658732270823138 -0.5831497410262557 0.9743411430909683 1.7199207138553432 0.6145641171213928 -1.3138068874379605 0.35639050107630965 -0.666854581754479 0.3925922825263043 1.0689725041081009 -0.661111127945459 -0.8764660397456788 0.03723390340632298 -0.27082745934948105 2.328010007377116 -0.4853348961581241 -0.9945494058112709 0.07438578572271522 -0.8957604126366429 -1.408953442152331 -0.7639300773013706 -0.9358620500721445 -0.852175223404064 -3.0951893878037575 -1.3610250932888874 0.5841767713091306 -2.118847471845164 4.274095695884915 0.8684042889540704 -1.6737532724071664 -1.1574604179439805 -0.4612802652530942 1.2355039740775795 
-0.30749499854275225 -2.986819678017067 0.044745702825438875 0.2540057768369711 0.19893152366768807 0.2594097114194752 -0.7598578264131702 0.5962610811825082 -3.459628642348426 0.1147656285834728 1.6452563349442937 0.39967404191738987 0.8244918545971699 -0.8278232553207874 0.17686068240374928 -0.9417694884462243 0.5897988675160175 -0.12897959878034662 0.6150389588892815 0.5368530432126448 -0.08594976179791201 2.094475243228798 -1.5351042964363482 -0.389646060411874 -0.9942692433959887 -0.8853048516625425 2.681214739027962 1.9510735325493258 -0.4102192461535457 0.4346397847325756 2.435105433064127 0.17042108151310661 -0.5093720997159037 -2.2337140776565523 -0.3086127254324095 -0.8241519136866893 -4.425052703934491 -1.1165070018967047 0.653944302456995 -0.08388770825926223 
-0.9889814351349417 0.18553940979093766 -0.2594656902199866 -0.6808393181474107 -1.385126263664241 0.060127884878253185 -0.7544829494531566 1.3490964578442806 1.4094560068383124 2.2652733821547604 -1.2298335601018964 -2.0748380094377317 -2.2558599321942268 -0.06350899551927912 -1.4188817644827294 -0.30208030602856006 0.7788764403623731 0.49465689885339964 -1.7143724148620074 -0.07499820083721166 -2.7997714054605254 -2.8653563583860486 0.2365854065036164 -0.24561661802830054 -0.6404223003070557 0.7041436856049899 0.5711685008574066 0.028695770035916484 0.02500341155750944 -2.1753779596628013 0.07071040254917502 -2.5663348870664136 1.040964714917584 1.758035632173041 -0.03342345097425916 0.5535894947506735 0.19641105655935698 -1.1363247510125474 0.9904766352895535 0.4864258868811276 
-0.591038027847408 1.1172276438606343 -0.2347119005677939 0.21016105430502047 -0.5641938348628643 -0.3150759981763742 -0.8992824404127431 1.3205546392709586 -2.4227755495212704 -1.4652439780153932 1.717597833576026 -2.425754974917955 0.21001810807672902 -1.0505052663936483 1.6022120285218968 0.1944368911974116 1.161858090707018 -0.25215655639729606 -2.747847304343696 -0.35756811956183004 -0.6412041796796997 1.509129856607813 -0.4340352514013306 -0.40731689472545973 -0.9169690430097205 0.18570469914369545 0.1505744596527281 -0.6167909305405798 -3.8955561817367816 -0.47875999940523034 1.2885860144875982 -3.162515072789381 0.4958041596220848 -0.9240890143633093 -0.8195409398437765 -0.42434987355747905 0.6937571631869696 0.4924064349676367 -0.3755491238644429 2.18396465978438 
-0.37574486222519093 0.08398148316597671 1.114216819937107 0.08666674668588462 0.3812899124520285 -0.881596391933628 0.3671081489545123 -2.2254348013979177 -0.16287905102134811 -0.013824503635641675 0.4329735796189429 1.1920052129114558 0.03337815605838967 -0.10331126222129765 -1.0701851298130058 -0.5410060934784205 1.3128886714042922 1.0591042619039044 -0.0969523313065813 0.619414319570536 0.9361347860383586 -2.141817409983824 -0.7609148278674756 -0.3845563736171807 1.0288674385887522 -4.389635394749034 -1.421855044038742 -0.4847235823929591 0.7853958388826535 -1.5166851276749234 1.16654139456975 -0.9236255887076794 -4.05983429260373 1.9195043472746205 0.11712173860538495 -1.4303269732951187 -0.3329950939223024 -0.9201053298331371 0.9854210930794214 -1.1115749787251428 
-0.14713128766952943 -1.1002846825888952 -0.2588473603115379 -0.6221662697462289 -2.4103037227424755 1.3710034795206565 -0.2751522938623916 -2.310222916369782 0.7825896721047078 -2.2223432111290955 -3.0698833373379943 -0.11274149129549835 -0.2725249264667727 0.21754329911114353 -0.3410657221527203 -1.1931926467737675 0.0720484403245521 -0.11857389230937457 -1.007650977553385 -0.028439661623005628 2.3944971952485905 2.11050954248897 -0.4909800913621955 -0.38085509303474474 -0.08973547881055 0.05933736799297445 -1.3887164138776615 -2.117990758357328 0.5461507717071908 -1.4053086126372567 1.6138055149865163 -3.6789144940014142 0.782795489450361 1.4628631333882536 1.3215986933145996 0.10609855551592552 0.6819911064884709 -0.45428603019858915 -1.5416393479910548 -0.7810809701183913 
-1.8221959027141232 0.8550591392128428 0.07583587224758412 -1.307151726987946 -0.25281856938023295 0.42819347559851284 0.29234586329976137 -2.9763221195875453 1.0892509426733767 -2.6047659080026797 1.6850155926915757 0.7289107283468014 -0.5012642166320544 -2.1477523170978787 -2.083691109650468 -0.8957549633033629 -0.5978700010729368 -0.015756310965122047 3.304237910536251 -0.27930979545579876 1.0969424404493033 2.062877262661244 -0.8584165452926139 0.3346729796016392 -0.630194517931865 -1.0090271512429592 2.7157846003088495 -1.2623241490511408 0.43226750456239743 -2.11062990524373 1.2134584419243777 0.9218354689436392 0.16464296171747161 0.8245812101747853 0.6153183206473612 -0.32584799708468776 -2.5678308879445173 -1.0138535895091598 0.3420115009171958 1.0108380069350373 
0.49450774884245235 0.3094316183381043 0.63398589242452 -1.2364729840284496 -2.2584155293714656 -0.10957520045949226 1.9745167522378826 1.178638722019394 0.47369755210212244 -0.12542387065696606 1.0054492053117015 0.8872369076586565 0.0339147541232296 0.11525898121479675 -1.618402119836605 -0.9055849698519017 -2.404683557781275 -0.9270905633017744 -0.7805400941618014 -0.6720889977283285 0.14434084716122386 -1.4338338326082156 -0.6762082879287515 0.14692664820733298 -0.367771255699494 0.2493779404025155 -1.3481154471711045 -1.5133003728445167 0.8009508538983818 0.48907869421325734 -0.22340082297077576 0.28583336030985984 1.0592304442537 1.1832212470811723 1.1456958653552078 -0.06511123075989919 -2.730477779146359 -0.6892013056208134 -2.5146137376457323 -0.8336889288192503 
-0.10209021579336235 -0.5070414086572482 0.8564976445460123 -0.7820156070454695 0.950299779977858 -0.746864637601904 1.6092523666149872 -0.9908155873593453 0.8270606011543933 -2.6499587591266582 -2.9417492690787044 -1.1465095706396216 -2.132300033817726 -1.168543626309309 2.2207529247466478 -0.091250926670424 1.5464779405114775 -1.1249717804777344 -2.289631059521279 0.326985477522463 -0.19696828574265526 -2.49898684816609 -0.8773669323082673 -0.1933477464312503 -1.3551978577806718 -0.12602197013121624 1.5942400299407198 1.8113139160870333 1.413754383369152 1.2124393317015174 1.4525371628407586 0.3565177658095943 1.2192864577006486 1.00548694691764 1.9525744579813 -0.6350276125348562 -3.573927648302067 -0.7747035412838025 -0.43226032137907183 0.11921762315442681 
-0.1593521273344132 -0.12146815262860627 -1.2448838680606626 -1.371957131169816 -0.12021234855773483 1.3596208719275074 -1.308865112850714 2.7203800687239847 2.2009380099855416 0.35490676963454637 1.828377251813403 1.9994423322696384 -0.7217913804298731 -0.727370441972488 -3.30651917282327 -1.2885409994291661 1.0259267793219964 -1.1854987921688396 3.361942836565865 0.6709178194911822 0.3376448235903731 1.8596321965780658 -1.5040443440434133 -1.2133484974686757 -1.3828500539823865 -0.7771760261401015 -1.7564089513352834 -2.0272225800583987 -1.9021635549337415 2.576196928481825 0.2301033744071056 -3.356405440989522 -0.4450363239919189 1.3930959446819045 -0.548938746619321 -2.128241110247739 0.5883375520928741 0.22261187464896043 -0.19747872411519965 -0.49845610872909774 

