-0.7546273654822672 0.9704819243243009 0.6915398689694726 0.5620581496764462 -0.5214763911279234 0.7117099272828048 0.7962659431967969 -0.13474585030770148 -0.1485830304481833 -0.4318181059999474 -0.8595720368005019 0.33562618866806415 0.7067178036290734 0.27124597899505865 -0.06892202204297448 0.9375198416764247 -0.9439211703862996 0.5445151726887079 0.09583782102058205 0.29093670267546956 -0.716054015774476 0.11544397869991418 -0.45203023782623 0.433999250640284 0.4830465898452042 -0.8318623159542804 0.2755264577983275 0.808146233186375 -0.6228084343847267 0.9844958142323598 -0.6403386974425689 -0.598328584711605 0.22646708147314812 0.6633967677789521 -0.002201488081661783 0.9110408680403175 -0.8881374222179726 -0.9872664165163428 0.140665445882741 -0.2342503949902611 
-0.43925478385829453 -0.02329264875639713 0.4478393934402751 0.9113781010401008 -0.3979725717949767 -0.7095201662304442 -0.07569196684481794 -0.6436443500583287 -0.972193801261453 -0.5520457109490884 0.822814107795717 0.6634313685609743 -0.10707712877828346 -0.47757217151861786 0.17640858567374473 0.7996273311176867 -0.9043594313903023 -0.10374838775635564 -0.32315584645631956 -0.937630714194311 -0.7392564519874194 -0.45886190043738684 0.515976042456646 0.1557461083729601 -0.9137907271549679 -0.8751028097887339 -0.714905424803822 0.9181817737252727 0.8157779961310718 0.9327345001660372 -0.9469040083291802 -0.3124802320697553 0.5649765806952298 0.35643610484220334 0.3479891473660517 -0.16126159803708795 0.8534951493478087 -0.4677130337524469 -0.08489284943006958 -0.35877074366692163 
-0.110399279621687 -0.39540879127275536 0.8559814887172577 0.25451448628087653 0.8985007925790942 0.047966760635767824 0.02904697182820226 0.4233276151604468 -0.8895192726676293 -0.5092328863035962 -0.5650798867539815 0.21868957040803222 -0.11165749535191322 0.5719023179373188 -0.26543486635020974 -0.9444752368817939 0.9252650613448681 -0.4914091855945393 -0.008799967595466696 -0.8876336512280207 0.44142421975095786 -0.7680151852466663 0.2937309898000593 0.2919636755915131 -0.13017240207736608 -0.7429469538935757 0.9798022437939116 0.8924567890201311 -0.3472766335552073 -0.25322405824630884 -0.12906407115938545 -0.7217642836262144 0.455500287725816 -0.36474459114310465 -0.8865845351946895 0.011483556212966706 -0.6349803731687342 -0.857776849840789 0.04852928276210311 -0.8602183318650369 
-0.5615370169878872 -0.4896382242872154 -0.16943782642915442 -0.3579431977339754 -0.6367152486311867 -0.6194630604831893 -0.5396985970249288 -0.6210724865386756 -0.08148675600041502 -0.12175854083054469 -0.6471744272316972 0.3427223346547138 -0.5722490587929122 -0.8332322271824147 -0.40635717175557917 -0.5366866128095898 -0.5339090918407471 0.007416484771864296 -0.3637868635322695 -0.2075417692739602 0.7045962463939116 0.6892539318305293 0.35017561742078906 0.4924134090622133 0.9674061708391798 0.5854266840236344 0.05084472986481034 0.7307662149478694 -0.6718235678139735 0.5481082991211591 -0.5765248450439622 0.3194223268171871 -0.6129542228971933 -0.6283564564703814 0.10178921300248503 0.734528983445951 -0.253787392631288 0.6334402465445349 0.06812028688737426 0.01545578998589589 
0.14183505109571712 -0.6351909269676406 0.013539529832174572 -0.03533906539811091 -0.3087152048256785 -0.7905505368413484 0.329741393732758 0.05723534558825771 -0.718976033793121 -0.006464853110240059 0.4984703951908105 -0.484282829408619 -0.7557706454405415 0.9628061550092231 -0.6934772060138923 -0.878714419012028 0.1697987729802766 0.33592345771538246 -0.4712498340751847 -0.49963882118693626 0.9350350272240875 -0.7277470305383951 0.512328007456853 0.8678080962422092 -0.1317042874264802 -0.12053468412116203 0.4331881481128408 0.5027438627217846 0.32574344742510863 0.4580938891557256 0.9119737088330024 0.5961333370203974 0.904892913808236 0.825505152308762 0.1385584527160235 0.5327291760218527 -0.9785517971314155 0.2697347984131997 0.6980471507970352 0.15580203000863005 
0.6366690659664304 0.44717771078285523 0.8754658402695125 0.11398926633919733 0.5551634176649303 -0.6324652877632554 -0.6177489639623339 -0.004787694505012707 0.8944862975374802 0.5095977599070051 -0.8299864486174567 0.6383950043978549 0.08986239105479583 -0.9427200130317818 0.26714221555976136 -0.26914500770309807 -0.8969101867845833 -0.737865585525397 0.44128427178069823 -0.3785650402277367 -0.6151662922601292 -0.9623077655239383 -0.12697698785707656 -0.8804370128669902 0.5809067740149859 0.0016957421894062906 0.023867119725844054 0.988172697889735 0.9720431450638118 -0.5848102875795812 -0.6127954901591414 -0.1814922144119892 0.20410522342378307 0.7258637401401655 -0.06320597702083826 -0.9748467103454068 -0.013555814895562946 -0.2566719166148496 -0.29017787107072945 0.8124535224567667 
0.13729258618375711 -0.1191597207652036 -0.7788039461164086 -0.8688656389338231 0.5936157610306452 0.3503099001049332 0.15745223025810895 0.8936781574162984 0.8247423110225641 -0.2969232743899663 0.1594796381996752 0.9964742050720817 0.46755129226398945 -0.29352157688101294 -0.590262471643846 0.07743861978871418 0.934686452074695 -0.8243984900573094 -0.7919576035498205 0.34824931531027986 -0.7465170754095191 0.09089052519044749 -0.24556201996414617 0.3328116560507605 0.4562584659627699 -0.9018830738383518 -0.04680359046320366 -0.10928373375309926 -0.5302181304847535 0.3175422216275878 0.21015700148049868 0.5159825572044211 -0.3588107738589051 0.28167431863220993 -0.08364006364430147 0.5752108071891446 0.7895626723136685 0.776079156895814 0.5940803035599798 0.8855972530341748 
0.9868554242587608 0.3753113276793272 -0.47286837069996657 0.8320861921457126 -0.8512096279537944 0.5460908597270351 -0.894547753851102 -0.9157295716111602 -0.044211514339124416 -0.6675600859624702 0.08475371878587644 -0.10250996503856326 0.6260030809409876 0.8425721068594605 0.4951244522383387 -0.03114867789277188 0.626916047155816 0.024854630615252837 0.028313736811129465 -0.13218128853695776 0.5389389776180604 -0.4496155909123132 0.3914671173027946 0.17224688171919778 0.9739224080874087 -0.9879114258131059 -0.6640452489442772 -0.38536918626376826 0.7034120137151751 0.10551652135744848 -0.147034145916582 0.779641649561607 0.965961021861037 0.974008484481818 0.37343300079768826 0.19285203505196358 0.29972387340101037 0.48094438578145526 0.717831145496143 0.0018946300065352136 
-0.813918736504106 0.8144429603547466 0.012341639423134052 -0.12491567837032212 0.29191853371424403 0.5349422679484336 0.8208771272481403 0.22894730073369396 0.16267289942534735 -0.056402273633560214 0.3382661808297761 -0.5551879316313698 -0.15476244612022316 0.47961925419824725 0.6480760182237388 0.34605387197479176 -0.8907814829703046 -0.25284019825046333 -0.2307395172783041 0.8813469791943137 -0.31297725383266417 -0.27249686368572856 -0.5009929580696841 0.6956276102170075 -0.732296855143355 -0.2501632857818845 0.9048843146090303 -0.9306996393135062 -0.14356418272837845 -0.12599936299241576 -0.272432081377292 0.5675445452640379 -0.4490377837002507 0.4811736461728535 -0.07384516639761353 0.6654065946615051 -0.21172436095896663 0.0735251905648512 0.13124575290164264 0.6006938322354344 
0.6792961932532738 -0.4485453149319281 0.8667132858847711 0.7555073534041824 -0.8237863518508513 -0.4328817390049709 0.05925405536820394 0.978596871323856 0.506656360703967 -0.05450224468613511 0.5755189342988926 0.43451119498079865 0.5607648057576956 0.6193741803037552 0.30986224862625944 0.8019073380823704 -0.26826985299667877 0.04214897445870891 0.6913826070062802 0.9421343644997521 -0.9126990810860124 -0.377528056637207 -0.6127839634411172 0.5206042843551234 -0.31079247472592325 -0.6326822728171814 -0.5503435304466698 0.48724597460746016 -0.620582635129403 0.6251383491309329 0.18797172456510194 -0.1913142586817576 0.4165769473424416 0.5883295221181366 0.6413893017067364 0.3936220652572051 -0.027029566365712587 0.044356427165788956 0.6880432127330385 -0.23581484027189253 
-0.3083338902143507 0.7574909224141139 -0.4546743320187869 -0.3000068253610177 0.2561037929415235 -0.18231359420751553 0.6998047562021081 0.8173156605266145 0.23683079201379248 -0.6878764032557397 0.15264769486304935 -0.15323027035438525 -0.639374441552015 0.753592313892388 -0.7299870169161975 0.22962669416385323 0.7831373423842528 0.8408849045083007 0.5058309539343991 -0.4166595128114176 0.9496431602497161 0.33860609152535814 -0.2111907253209584 -0.4334433615721944 -0.8065039526548882 -0.8797343881492804 -0.5295017261476128 0.727303880653173 0.3477647374366932 -0.24181728416040865 0.3799394612502994 -0.9727219773169881 0.33604385447504775 -0.5668358532028008 0.7615167412998415 -0.09053493873481644 0.9582434852655165 -0.6113719551962206 -0.3564622514259521 0.013193768768722972 
-0.09435520875598924 0.6763292005442053 0.5441689863403839 -0.06258709195228074 -0.5881400153527261 0.5199594266900279 0.31871227293575655 -0.18108169251290818 -0.111682083914033 -0.7386005680025937 -0.571857697718155 0.909458124695781 -0.6045811006545124 -0.43454538362545836 -0.05863259329259174 0.8285570359719449 -0.13707661320479947 -0.6780769461068599 0.1786912385686742 -0.2867741224702053 0.601578900346501 -0.48384159061346943 0.06245274941107959 -0.9009340542037173 0.8369400667342636 0.23110613259559054 0.9616025194602716 -0.9594055394579938 -0.2516544126999547 -0.10090544380117417 0.10002249836175658 -0.28501566418744007 0.8104859743363707 0.9391921057296497 0.44426712481789166 -0.44775195195153317 -0.888085257196002 0.9959643898749239 0.3944095778055876 0.7962323006306432 
-0.2356390802795038 -0.8618646870000468 -0.42739338911900654 -0.6754045943200351 0.5186819454378686 0.5806295979226448 -0.46307578293261065 0.5422413197417761 0.26744487480836526 -0.23877076037229655 -0.6558777872550683 -0.7882257412738807 -0.7582875464079988 -0.06699188831784181 -0.45752842093768953 0.19516912884320597 0.3984041580224719 -0.17406730785774505 0.3976353583632268 -0.7442313020335631 0.7468491090626901 0.38738246042392466 0.9363183733196125 0.3049193435127812 0.17768047192029796 -0.8730318240195313 0.7397175635286382 -0.22282082817981635 -0.2660021634513354 0.17278169156421613 0.3253457335341551 0.17899276460718622 -0.7956452914103986 0.7882371315281431 0.4283201222472884 -0.7203568192178136 -0.5812881370462035 -0.1968436358400079 -0.4757380385360077 0.8997098508857444 
-0.30634606636145806 0.1811817309426624 0.5339953404753035 -0.19928265935801373 -0.5006950652640754 0.7755227823210089 -0.19344542999506587 0.7918031863573338 -0.3896874687419046 -0.7831202652501859 0.19858267884139866 0.8418612895427455 -0.2447480935506179 0.8335376669937808 -0.6486124648817144 0.7231891448087671 -0.9070306064538747 -0.4795594857619414 0.11235613418579946 -0.4894270867110338 0.7215698283779786 -0.44562593971839326 0.45586269536279933 -0.8784389592125987 -0.13489593218022125 0.49506129136857163 -0.7706672279611899 -0.9926790271431087 -0.6150013344904772 0.5168946066185147 -0.41650365211282864 -0.9101480437781133 -0.1722957970586865 0.7836618563766276 0.04138218031715349 0.09014684283057783 0.3470291094935129 0.8087629112335821 -0.1809730028047596 0.5032137103398269 
-0.4709779179735641 0.13588922674908993 0.23132454609970715 0.6497203605968142 -0.6008107816447499 -0.8696678634302485 -0.20005361531658994 0.47038361827540376 -0.29338323523422444 -0.8115288874600072 -0.9745276836069913 -0.9722352322748921 0.9558296530457989 0.25323057202672233 -0.3050240129635131 0.042224421905039 -0.4026106536928315 -0.8337414800363747 -0.9343542297835777 -0.7885723405152908 -0.7101323049319038 0.09125378632507375 -0.7001083412758473 -0.4496481658297719 0.210198350349955 0.012578307393738337 -0.878679084156648 0.5367091735291788 0.016553952473386646 0.1415397946557771 -0.17901702362960348 -0.5415733610834593 -0.7428435602007345 -0.044092923304713816 -0.5379959176110237 -0.9664432206861531 0.7707837524220268 0.5539425368283691 -0.5837178828828438 0.10922346762367968 
0.9384258034020038 0.020875237713543177 0.21005679209659292 0.04543774586150885 0.5233552452311738 -0.413985759381016 -0.9345415110468125 0.25008400154124666 0.27590610428105145 -0.5079815002399674 -0.5052151013560747 0.25641172929026956 -0.5190039264984926 -0.2981840035015556 -0.1622850686685613 0.7195673420503209 0.19137018343184967 0.8371591884423084 0.7273012382937093 -0.24179838991300837 0.016170005401839344 -0.9277473174976771 -0.8710258116466418 0.1783189140558689 0.023967108229629237 -0.9010735405896819 0.8172191824180305 -0.7096690914546081 -0.4286294283524448 -0.26540687996540535 -0.06191245372030422 0.26665656510995184 0.6827395777251944 -0.7380966895633192 -0.3489181545871124 0.2860241164337374 0.9835517886359607 0.16919717372453316 -0.24745925003174518 0.07194155911071633 
0.12930428797381227 -0.39672493449147234 -0.347062816754282 -0.14330289824985237 0.17392662580093532 0.5511151215334077 0.11403804824293862 0.2884319016027548 -0.6139578513371836 -0.4651186630841077 0.7474320965139324 -0.6521214272205619 -0.3516201440194236 -0.5655536435427925 0.4341170694438934 -0.04755610188598476 -0.23487502858272774 0.9443600354102124 0.5456228956338544 -0.40066171147282464 0.7539167353340946 -0.8727363319906682 0.1302667190396798 -0.8643360587031376 0.5136741798099723 0.5432572285439393 0.07391619258342123 0.5422566794770641 0.1363742915967916 -0.48512017383085976 -0.34723662064368044 -0.5206148030552863 0.570367200750698 -0.7700833995568339 -0.13360118548142047 -0.7337564221438202 0.3447506211299329 0.5892956230301097 -0.5274212035691888 0.9525055776397745 
0.6287705101564579 0.9749958751649724 -0.25906941350112694 -0.8109410535219229 -0.9725560625835199 0.44268470875384497 0.6006417763236944 -0.28390786350862873 0.2030221965567426 0.23708745792014638 0.07905652983576142 -0.5383927978973236 -0.3342235039667621 -0.01752006142987303 0.7088083313620648 0.4773672995070292 0.8901187838218562 -0.582619785543258 0.9306660361190685 0.2416122027063087 -0.710146795024725 0.12642149353439258 0.42281134853623725 -0.7843129017015734 -0.47392582334970795 0.3590522852898708 -0.23709503173793797 -0.03200095549614321 -0.8773641251283026 -0.2651186124876486 0.8574488662812264 0.6639185581972867 -0.5708831503130484 0.401391597629819 -0.8258255770849742 -0.7306564520300758 0.5970275494127976 -0.9619642057194776 -0.03514011473149603 -0.5727567816371203 
0.4266001566860629 -0.004086606449675421 0.3937966767162222 0.6392012603811426 -0.30898889187726897 -0.18320977947877085 -0.23543152875828688 0.12274649711220387 0.8606742196003847 -0.6093545654441592 0.88629553340033 -0.48942058106088004 -0.9724839664335885 0.09417543858085485 -0.9716700814113781 0.4226055905370141 -0.7325005564416884 0.3928321289422536 0.8827556672205534 0.8631557632319715 -0.31758554387470617 -0.40472664875173225 0.48737039711098973 -0.616860834072021 -0.07385920068267106 -0.2837775024335985 0.15761083948464535 -0.004545456023003844 -0.8524326686767267 0.7339783567261866 0.13396274502723118 -0.05667741397299866 0.9718185875667118 0.921354249951984 0.8722352230616994 0.5950387419765719 0.39336461838735115 0.3838559460841018 0.6871214614975645 0.9749789477203326 
0.26927109500161206 0.45637907897245344 0.8051713426480928 -0.2606826919955175 -0.523662163682648 0.1909969124673748 -0.20723500530568284 0.7677052434024889 0.7400924525666662 -0.19239654070943 -0.20963674236774557 -0.03918249045336011 -0.3630231853376241 -0.3123348463405845 0.02872682664320858 0.3311322135843101 -0.6559193092656014 0.262709300217715 0.6811321100266327 -0.9928748239565844 0.3340679587287033 0.9621029376111299 0.28485920867652004 -0.6016318184399062 0.4011603782689638 -0.696106317543977 0.6636629684500525 0.4317971195795337 0.1584512983319497 0.1445978392089605 0.5889340950023327 0.5108292706255325 0.4588216865648961 0.12893631135781236 -0.7619359392208139 0.6466086376481903 -0.9262327090836803 -0.5313373569378189 0.9461850467608122 -0.9292392758980393 

-0.6634624451457471 -0.7610301019713638 -0.7725599180953564 0.7836822886957436 -0.5208886005085337 0.9751594762625669 0.4060309394489779 -0.15725605555343927 -0.16363373036700593 -0.6473131828584321 -0.3258900521875069 0.4317704727355856 -0.4861419295896383 -0.500415317004665 0.5159312437849435 -0.022737220728809734 0.23045899589723326 -0.9887035178973934 -0.7039479009459108 -0.8875721685269914 
-0.5039925498835222 -0.1709001382771114 -0.37146148408606067 -0.9985496635389527 0.16415071073126025 -0.09474352819363135 0.3811473674144706 -0.19279261224937813 -0.7211273620349348 0.5055407497377508 -0.7114129853504472 -0.5021848588555989 -0.11494265936160798 0.9548665949548593 0.43237038340759704 0.9236945619534259 -0.21165860539792974 0.6493251625927453 0.6902162165549144 0.8956905299093598 
-0.874399603981037 0.23802924407897497 -0.33365824027826746 -0.14387721208654167 0.04802950443997464 0.020625868331961023 -0.4152808351250003 0.6583872517312024 0.8195692259976702 -0.1882958378988421 0.16034614800127897 -0.042765110372731174 -0.8012896214312122 0.7905177363031598 0.5595450519090513 -0.2395429546560785 0.09827373161074344 0.1848339373860839 0.21834886021661828 -0.19578407979064028 
0.20731583289225458 0.030142747701743702 0.5087898716595443 -0.4120041015428892 -0.48873623996837634 -0.2994194891440342 0.026102313331048867 0.14150537395698173 0.46082493078689246 0.42549741614316566 -0.3844521477197225 -0.10531555650304165 -0.08283104967957786 0.5856740426051815 -0.8342125216254243 0.38330110997076433 0.9403544900645133 -0.7742269932429969 0.6664124564397135 -0.0535537874201828 
0.9898808097830666 -0.07531197709153514 -0.93954017754026 -0.9414311129913785 0.17076069099064536 -0.06697346106599879 0.01844193210868054 -0.5124852746186176 -0.21460076092435654 0.317054666545834 -0.08138730573518142 -0.9186310250300741 -0.35893390428882965 -0.2590087641748635 0.0389059338412545 0.6607220349941434 0.3146705834175536 -0.5253685061037311 0.24918207627645936 -0.7706874016591235 
-0.10897527419961377 0.2308521641875093 -0.6618804371266264 0.514826377681346 -0.43229045218617956 0.5176313361805338 -0.4827064022598111 -0.2870395369219015 0.9591384842036847 -0.6682123790004898 -0.3843155609405196 0.2316860900831582 -0.06566584141469381 -0.7732682626968768 -0.9889303547386726 0.2189773322084656 -0.6125667872212809 -0.9459065298751771 0.44044213915245245 -0.29390453515012527 
0.46681654494827524 -0.9908219692010534 0.48982684490646783 -0.6901478320758369 0.4783506966883877 0.002715971400145932 -0.21554378533109214 0.611094637312059 -0.07023634373901073 0.8366411944417893 0.6838826005469152 0.5629998419433858 0.9988759018915151 0.1789355315455561 0.6313759221209291 -0.4184330592640857 -0.9174539169903733 -0.0871527484464628 0.21646805318943804 -0.6679261622012531 
0.027478012887966773 0.07820303812806607 0.4792327086324446 -0.3510721462162438 0.13958218926603436 -0.671726328020644 0.01795113462267739 0.5131705555825797 0.1394415719317141 0.5916358367640037 -0.9412628364989376 0.5597361136426038 -0.14621173705517293 -0.5393152457888608 0.8024998139189902 0.19912871932673087 -0.3754207613906899 0.7192902939420986 0.08615006833826497 -0.8889799233450689 
-0.8314840706451456 0.3780412171942992 -0.32209738456811027 0.6040939892711858 0.9344880373633629 0.602840716257493 -0.6277319256153165 -0.8648554381926112 0.883271696736359 -0.9972487227705574 0.45851521862178496 0.14179642015681243 -0.9466595021151949 -0.11446870421430785 0.10710642408257276 -0.7329782778382012 -0.7214393722816179 -0.7055889650289224 0.7518011573361768 -0.960024442136318 
-0.01198846520255952 -0.09275074350085974 0.6408785192676687 -0.873511679100157 0.14526228434497054 0.20909198413120372 -0.6112663001870243 -0.6261123980052596 0.07279565311518874 0.7423134952372564 0.5812759693747064 -0.9513463795167656 0.16323103306028716 0.6927677255853788 0.26851540587189354 0.9017098173391597 -0.7160236492968248 0.5885173370111301 -0.4720731520466055 0.9951006527550197 
-0.9246764971326381 -0.532730334667762 -0.8129441603990877 0.5845962460604408 0.25964152011212155 -0.48653689694167856 -0.7359652158146224 0.7782995456114823 0.603070952617709 -0.13439807774599016 0.7220711554476023 0.17428884261457045 -0.7800278607266998 0.06927285565485279 0.7248551305353071 0.23337725759476716 0.5448026029185752 0.475437760588092 0.7409119989959594 0.7510130713330648 
-0.5166140520791649 -0.2208613928956528 -0.43529840924715835 0.46786997432042327 -0.9921620004961749 0.8479801688601452 0.6056100657589613 -0.40548635942078776 0.7737937142645706 -0.9925467831265502 0.6416540897280321 -0.17556801034139902 0.21556182066010096 0.030219176348531645 -0.35703799117128243 -0.7289701789596515 0.014326474078145144 0.21907262476272163 0.24075653841818112 0.6880275725404869 
-0.16364075501810918 0.1783698134366056 0.9507939565249749 -0.6809702717938177 -0.1971877266307078 -0.8637245910178123 -0.6440786712949818 -0.2291526910700232 0.2794614363443751 0.010297125979065716 0.11058609366813676 -0.5834917126108151 -0.735666901422725 0.8011037277534588 -0.14913056039618292 -0.9923086402216039 0.9030453947673076 -0.6452576220319745 0.8767989981427816 -0.5873332262238865 
0.4761708825094321 0.05090818620817612 -0.1806299462415675 0.6946480084705203 0.5797649658244725 0.5551450232394243 0.4131857350262095 0.10678614601877087 0.16044342957993338 0.4150235324684828 0.9652996005389165 -0.9961365539031464 0.5655109120615167 0.9860072427486398 -0.8536734323190428 -0.8429060953866613 0.8397762843456366 -0.06010074137911796 -0.6775741258253115 0.5071789555957756 
0.11606720956612826 -0.5608056017266203 0.8072893723432691 -0.9975235375835049 0.15122685004647177 0.9517310898107697 -0.8655464934336784 0.8417647598746626 -0.2036623464541633 -0.36125495314709793 0.730023440159207 0.17978616425310523 -0.4859571313645209 -0.7378348697287159 0.21605946559650277 -0.8503821730898247 -0.06935685140140183 0.6410546910194813 0.9795749916793738 -0.08040816644892347 
-0.15377489916172452 0.8277336877396915 -0.38550053802503376 0.42529721410148535 0.1348166876166928 0.37924719448747257 -0.6224010352423032 0.4033069990762539 0.5249344183711107 0.3685790409114974 0.8923226600829991 0.40315415429026086 0.37920395064664497 -0.8915067057937136 -0.002672279289855464 -0.4359393970566484 0.2875481413425788 0.9548703990794076 0.8520248389415657 0.11774248838454678 
0.5258472471568018 0.010997878428017617 -0.8019193721161575 -0.18510932958164517 -0.7334442638504401 0.07005563985694588 0.02193782315576149 -0.22967133825377284 -0.21547390528548485 0.7181024388172296 -0.2322809426383257 0.5862838435312008 -0.14484164040493885 0.15572928906205896 -0.2749156166589344 0.03312281526649512 0.03713405038092143 0.007104244701475148 0.2470994346716972 -0.9436320002335664 
0.5982645451414706 0.14996591020518296 -0.9502280405515467 -0.5739271585466741 -0.5301385067741544 0.43096862544600933 -0.9970047421338541 -0.04360200968756441 -0.19567980870226837 -0.9766967784241508 -0.45669336153426027 0.8970277653561815 -0.5373262146154545 0.13854025904727288 -0.8778823750026353 -0.1656375315723007 0.07329402821571558 0.822266112544417 -0.05125772251119194 -0.7607239838007287 
0.17984351249410538 -0.3568609599709024 0.6957693044547187 -0.34045573096499265 -0.5639088265315503 -0.7724317862108051 -0.19497931074130925 -0.5211224075654575 0.8070860363304004 -0.20268182178035948 -0.43444567169141274 0.15082773988744144 -0.6992658741885657 0.1348889246227451 -0.7691635175106005 0.864654439985083 0.880621853291044 -0.26837648445534573 0.10046922849298352 0.7115778082321638 
-0.09937805908900846 -0.7339393054913634 0.7125230731241758 -0.4063426227873272 -0.34652232493711843 0.015139905112431382 0.07567475545121492 -0.6461078593340086 0.44019657099860304 0.31843273432479857 -0.783720663097309 -0.0950820906135861 0.9442760722397683 0.7956616686478631 0.2232725526395009 -0.504938577197831 -0.36673957470332674 -0.33967529006639796 -0.5549454660080512 -0.32569401236744017 

0.7442250728530929 -0.15663796299492883 0.03855689376946219 -0.15387171656227025 -0.5377198499842879 0.673369799726969 0.8998824764507866 0.8783823991139226 -0.8835782727559488 -0.9824581938102586 -0.07013178862298838 -0.01922116870981199 -0.8463032642704975 0.79469796324432 0.3742945626909763 0.9929406611028114 -0.7076957428442319 0.9319148432840643 -0.41166139984689504 0.136357715849142 
-0.29305170505723865 0.702511861156376 0.7424687375917548 0.5852670552087484 -0.052195773859082875 0.14527612473526058 -0.008036293000859682 0.29753112013441785 -0.28330743873875824 -0.05158066913281008 0.06993153324874687 0.8641718264073046 -0.5614837834411895 -0.2997350668066579 0.6102258575997356 -0.5633534321159858 0.9429575135379566 -0.012106848781792226 -0.5853683280593376 -0.8481150144299986 
0.5108929894756833 0.46788102197412823 -0.6505529972569752 -0.10118509495154779 0.041934647100888546 0.7382986024053089 0.5897844009773692 0.7565370558315381 -0.8360411276670517 -0.39129871272872085 -0.4743816855634047 -0.01688552471049815 -0.26756145593073616 -0.805060516020157 -0.19819659366183684 0.04527261517149216 0.35684604793627805 -0.8418212535464171 -0.31499627194926233 -0.1468650998952442 
0.34334836090017945 -0.6373907410872193 -0.7663406328196629 0.10044179630154915 -0.24253112668637306 0.2438972009998846 0.5928340230387447 0.40953795195478776 -0.8126569313336225 -0.7394955157627833 -0.8560102526708242 0.8417320052857208 -0.7723514213363436 0.9425992852852674 0.21041090192376308 -0.7425351516794637 -0.293756366653017 -0.7416774566511773 -0.4477348987516172 -0.002942650265106014 
0.2400004094889749 0.28479971699145673 -0.0190898047766638 0.40161205974860087 0.8332735467811317 0.5013323079560504 -0.9196719548846718 -0.19498496616513677 -0.07810366365989979 -0.5852174988800715 0.24423509220490244 0.8017654781585668 -0.48244863538916016 0.6822674640535983 -0.9793797312099889 0.8317170460078253 0.9218148897681685 -0.5861750171723118 -0.8988052889177387 -0.5783603996372311 
-0.1438726831340695 0.9178143058663825 -0.7986021879201196 0.7848242131905062 0.7933921099302741 -0.2055766511183956 -0.4527189007686822 0.9038026255282222 0.778873010996902 -0.012494767585454439 0.7192662122074228 0.7075700381420944 -0.9075164305285573 0.17331922672809805 0.19676987966325932 0.5034653121257867 0.7315489945136591 0.6931140879034772 -0.8906665579926938 -0.5643978335719921 
0.8825533292640692 0.13143173933581187 -0.5837816621391337 -0.585704598213244 0.3023412437452931 -0.40464799145940844 0.023269530747515785 -0.3004532616300339 -0.15629937106590508 0.7675753108674636 -0.8103024122913322 0.11801796468388603 0.23720340526003453 -0.11252011782573246 -0.01423961272987317 -0.24426763200820983 0.6806349520119445 -0.04457327608408056 -0.4658896325597558 -0.10764422327750713 
0.7892959597754876 -0.33813603230764333 -0.7008246564871775 0.928642504245922 -0.9750855914382498 -0.19036526247923852 0.7860409391429982 -0.8915770650062855 0.8478527080141335 0.32812519447546784 0.6675485181798873 -0.0531176074741547 -0.47323827090992127 -0.62949117912918 -0.4200309059317332 -0.5486916694682794 -0.20822934452618444 0.44076526960782453 -0.39057041614027377 -0.5434854207921195 
-0.6682357363583832 0.013953314295294736 0.8386478394564179 -0.3035808648733787 -0.4867491750552761 0.6939412294637327 -0.7696515899925631 0.5937490622833723 0.6377760317347676 -0.40469388942654533 0.5952058301199709 -0.8253974994091261 0.5567904477524286 0.3408615641596491 0.4250708927691363 3.5184506492963506E-4 0.5273333225472128 -0.16584685437088773 0.9680241618976082 -0.44165694342966305 
0.8188473976560154 -0.20377545624038515 -0.92001956056221 0.16421535599618056 0.7708938075365215 -0.05146241995091187 -0.8917008786051129 0.10245945409172484 -0.24651510233654647 0.6790832069666349 0.34589121734202427 0.4681623931076524 0.7962143798064075 0.046043729140382746 0.44058996794352434 -0.028259174591523495 -0.4706915818631917 -0.945986464638316 0.5516080265155223 0.8296554319844281 
-0.4808212190238007 0.2795773066816394 -0.982935869856922 -0.21164885104635728 -0.9169871552325749 0.12870641792730406 -0.17145118019899414 0.3142337926975818 0.23138740812089753 0.27595124770805124 0.30507819772335104 -0.9678567708649559 -0.48515546847772023 -0.8348059261654716 -0.9832657966573647 -0.39439251504399736 -0.7601760036429389 -0.15542743620033397 0.22905949638566475 0.42611522878149827 
-0.22870192347434756 -0.13684348012108444 0.9224676167783569 0.7150097495752716 -0.5460918698283035 0.47455762156461656 0.786629836890546 0.9404015041403797 0.060354920267388805 -0.027272762996564854 0.49800746707713683 -0.18716595551442985 0.6152490973917046 -0.3722208592092528 -0.9406053161693043 -0.45273716437168277 0.9445794400779894 0.39474570018441607 -0.9864482918380751 -0.4347619146998968 
0.36541194142949723 0.33576223864882504 0.9386971528211736 0.36000505189765725 0.5573834117622976 0.5262473695547871 -0.2081572403809166 -0.141427488286722 0.8470087851675675 -0.8917765755297175 -0.6133463913011582 0.2886187987424825 0.8877723736665637 -0.8909916657202882 -0.4242895773662984 0.29443799916240654 0.03342810798066653 -0.3389272024174304 -0.4472220736644155 0.8449590775671202 
0.5788857582322442 0.3389533681579601 0.09885472659106641 0.3381882506228482 -0.5174861431089774 0.4716782439977911 -0.4334919381173149 0.2302712066324954 0.18564323614997097 -0.5057638966733136 0.9301972081882526 -0.49631894194130616 0.7095074468335799 0.6692212815082796 0.3259572584092457 0.3378759059902969 0.336810560047879 0.8398213399822052 -0.8379019232611572 0.45710462119618916 
0.8745650177925947 -0.7320525271186417 0.10317265175573519 -0.19616242048837007 -0.25320385307910803 -0.9336535230576338 0.012759075832185255 0.4226802499442369 0.9801621568387827 -0.7488879020753153 0.2862612973183587 0.7383993412791783 0.522492319745958 0.021123344956241217 0.9131291815517655 0.7730526876274152 0.2736990418551248 0.5134703313106201 -0.9213490742537096 -0.7289597686228191 
0.7104723071527239 0.9890513057681634 0.14860533496571904 -0.8128016585928529 -0.9493817917066131 0.17007285792344468 0.4758228195981583 0.5419278129162803 0.5298568767692279 -0.7187328189513366 -0.37412609863128565 -0.7413678201166016 0.5533474832588252 -0.7607690080153005 0.3398222741587605 -0.7274027635658722 -0.7638382272005678 0.3893590413417061 -0.16482655830433215 0.9367633756628823 
-0.8386189597567919 -0.792580789723473 -0.10813891281179164 -0.4513292429869635 0.06143983978491531 -0.5370644359619018 -0.42173953521321 -0.31581908649578033 0.5678079834214206 0.4839384918524661 -0.5566798668127925 -0.052579270979678315 -0.8239717373665979 0.36833646561008704 -0.4672764064149493 0.7326585112977967 0.13761039159276917 -0.7466348962204501 -0.3145267977237671 0.6429844230387988 
-0.8827843932380506 -0.9134453632274884 -0.7780412453653628 -0.6790331968761568 0.14302698845587125 -0.26720438086895165 0.35826420581920726 -0.3778654232712415 -0.36985623551029806 0.7074334204416933 -0.5372474468258693 0.2964650740662359 -0.9286860436580072 -0.6568139755260677 0.6182393370287328 -0.35685214913842556 -0.6337557453372333 -0.2209505333353025 0.8591994691609222 0.9646940008665199 
0.7001984878430758 0.8008870768474634 -0.07339514454435596 0.07089937119393433 0.38454247309182593 0.2694009481647426 -0.5858279239083971 -0.43168369921545147 -0.8636512980446476 -0.36134053657499116 0.7766304870935264 0.2210588456425116 -0.09887769230432054 -0.10204086328150232 0.828382071293233 0.2792616929049094 0.512169367084873 0.1628024204566245 -0.918222088985661 -0.65444860412157 
0.2320774249926472 0.09569989892017562 -0.44262747680774206 0.08626532871686891 0.5362330734610355 -0.6449033409574163 0.5442583321024116 0.8929509098642572 0.3752535226106426 -0.6491977055576958 -0.8032388527943395 -0.5390077371325974 -0.40733701168419767 0.7268827451181875 -0.17549214566545326 -0.8239439633821113 -0.823901940633362 0.19806228004386925 -0.7339612248727558 -0.8146348598401955 

-0.9377839705218718 0.9218971624740346 0.7569366416507249 -0.9001961020853366 -0.9164953376391688 0.02791701405791557 -0.4257272239778347 0.2100119334615367 0.8212042163414381 0.7497030764962737 -0.12326187962478506 0.3902901133934401 -0.15200301989957404 -0.08470926827171776 -0.568949747334107 0.060366020444130024 0.9806825399243984 0.7140994117538412 -0.9264660888349171 0.07275681722745503 
-0.911956284286393 0.9551867572767465 -0.6854738407587695 -0.1475280086981723 -0.22609059334471138 0.9375268701973016 -0.9514308762549258 -0.5706883527997707 -0.17323068352878232 0.9119216236741997 -0.12028626366568719 -0.25046051456782237 0.20388891752833638 -0.805880322802197 -0.02051894578203786 -0.48496090602140246 0.7576167135387678 -0.86861399934635 0.36572191722032504 -0.2781106122461586 
-0.08664067520777655 0.32979842214529587 0.023826329462291577 -0.9433772669422554 0.07334014589598553 0.8171379700118551 0.3874251127772118 0.3572588943399302 0.6467223934797727 0.14632630000870198 0.35397894808450625 0.45753512603931307 -0.7029190107390854 0.8369014367577713 0.2311929834338628 0.9065798102707485 0.2489677135181048 -0.9928240618487043 0.7937141798204381 -0.7073921428173267 
0.31077637531558966 0.5672477495890856 -0.02512212522638285 0.19804227020592408 0.6475613695947073 0.923027548539684 0.6267727605041268 -0.8252068737532495 -0.723440370971907 -0.21567176527451873 0.25256603656679477 0.5522587300598698 -0.23828712417029793 0.3746528824090291 -0.35216943610879736 0.37693241259447297 -0.35458941404048244 0.1084104019883802 -0.015787702267492456 -0.6686620926464061 
-0.21478668475537624 -0.3689332056409494 -0.9741485082328883 -0.9086627087497362 0.950348192498437 -0.9898626598185657 0.8905854467486676 -0.7453184673186817 0.7875135318593366 -0.17925304348204335 0.05069321872046984 0.7100087814544424 0.5768946350471524 -0.11395265948261657 -0.8862001179917431 -0.8856797458591542 -0.9213138917550755 -0.4863201396143126 -0.667278882905888 -0.9917101479880299 
0.20863964824688083 0.21164093788439464 0.7637496471323627 -0.9774055523934752 0.2834745038425253 -0.9278947739921112 -0.47392226844482677 -0.38522104757769754 -0.8586262663824447 0.27931666412934225 0.7107583300713418 0.8249986058997218 -0.4302301042147328 -0.4722529873443482 -0.8541921090392278 0.650308438110327 -0.8379455904797789 -0.4707098764397339 0.44475824233064726 0.8109988193552407 
-0.023190047866272687 -0.7566563481164085 -0.45083138728173217 -0.08119634712736383 0.1876176099762494 -0.018794248274909827 -0.6786908618093522 0.3556359459173288 0.28843052413760745 0.1162941326475404 -0.34856385537774376 0.5328339200299556 0.3589885292839764 0.7742697340064439 0.01477214623140004 0.6247279464656215 0.3966625520584551 -0.4177694578493853 -0.5534774936202962 -0.6433311776551093 
0.7856133255001532 0.3237148050969586 -0.5010539773070519 -0.023517056910244218 0.6010131932619517 -0.8236689792158166 -0.09728367401610773 -0.8503484166966231 -0.36422837060805996 -0.8985876826910801 -0.6245136193349621 -0.8076638080083207 -0.21128853058717426 0.9101782449600304 -0.6961557542937302 -0.20729751428423454 0.7681432129971487 0.5484419688385324 -0.12958812295380884 0.16982298231863666 
-0.058738868667568694 -0.7780043269391377 0.606214975420105 0.4807647658761786 0.5996387370368182 0.12742222816232265 0.31901540966927505 0.2103004935615219 0.9125974277942194 0.7580443163314957 0.8815752278864403 -0.7359951509893001 -0.5947976584325898 -0.9775461866284374 -0.5405077868407512 0.5343302049889476 -0.07585030009127816 0.7430199793847723 0.4164734718536508 0.8205807907083462 
-0.2554868931994694 -0.5055846794283181 -0.6444079757480238 0.15753470194568986 0.7221615060571396 -0.8027506509473237 -0.46170592401079696 -0.15621001044939842 -0.7888187061470715 -0.6004985430588428 -0.7313819545159624 0.759739839547978 -0.15747582157024143 0.7584967747296454 -0.26170900003361236 -0.07359051508452513 -0.800396564625637 -0.12123341241652247 0.29907459620499516 0.680216164267561 
-0.07150657472259393 0.3662039535357036 0.16193044109461796 0.3250411843535312 -0.11516065113546313 0.7265047732954136 0.11828291327601036 0.6718311492345558 0.5465558585050977 -0.4340358636703134 -0.9631435934600608 -0.5127257070605138 0.11081162453489087 0.4452743891283639 -0.38972684084306514 0.546924979402522 -0.5542086002839731 0.6920500759513817 0.10879025575330353 0.7244779613131289 
-0.617855094655207 0.4953819498393058 -0.25572904747492436 0.3477228341978159 -0.2939852038946256 0.6858051152242641 0.65567764174504 -0.08696417914203869 -0.3450455875048389 -0.25336506205899445 -0.5019172723195762 0.17409543556814583 0.7200393803698739 0.8077133621025127 0.1503947154960119 -0.3931640847646686 -0.8781033282258441 -0.3598209457461686 0.15270025820255204 -0.6985190688889739 
-0.5446542797235712 -0.9990442662518431 -0.857673293644386 0.44382769828068 0.6867970806142183 -0.9317700021816401 -0.22156842035383176 -0.27821961741947904 0.9404935793828105 0.16427043748862183 0.42813084459151024 -0.7705409904510412 0.324163162320862 0.47951377838127246 0.232874924262511 -0.25996073878999437 -0.5784351890090954 0.09192663930939839 -0.9180034701288587 -0.4201946423942584 
-0.9810999412449161 -0.7817728722546299 -0.5089578406634662 -0.2402722223239612 0.1339793002908988 -0.6613743248800138 0.4157150738468438 -0.4927956785609404 0.48153520165432667 0.6043315208860337 0.6279525957532441 0.8894322681671955 0.134961746571996 -0.23286099483955988 -0.5611293171170547 0.8312069175960098 -0.665724344710111 -0.23700785788004974 -0.7259980219832044 -0.4962300303156268 
-0.8579949633334748 -0.963497781620214 -0.11053164682015369 -0.20234065616454128 0.9631913474411009 -0.28902549268546823 -0.13657672730021334 -0.6086595323394585 -0.17738162485746894 0.7885693410456215 -0.5946943881960992 0.7887267409466203 0.7318618757052854 -0.2921863582954231 -0.5038491451327942 -0.3774747639867855 -0.519314196496952 0.7907459608087624 -0.09359382200563793 -0.4933281069406022 
0.7517708563570974 0.37956311879051796 0.7334006434420617 0.7699484740390752 -0.4152580854690903 -0.20728942251592133 0.7588237466280432 0.5142014828157846 0.9048055830502872 0.6229420482259219 -0.8527221326222427 0.6144118945025598 0.08348047753814769 0.35494032106718226 0.7901377662163089 0.5141921464213716 -0.6869200971311951 -0.20231165866476786 -0.05527354541226817 0.9691151827592969 
-0.04615646178951799 -0.5931553510168383 -0.2730727847941539 -0.7483914171079757 -0.04844329601071786 -0.7850578674922583 0.48614388754221965 -0.2450247268394683 -0.07325967694107816 0.7923357898418563 0.12458011278014522 0.42042751755277724 -0.4014278383412668 -0.5705756048749953 0.018886485905864316 0.9598564575336129 -0.16346072345397947 0.5606362653463628 -0.6402952253439017 -0.5416225881371017 
0.8197790960714859 0.34333770476893266 0.4462418994410357 -0.38547376237432407 -0.46192704817940644 0.2600866532616094 -0.2445155031795006 -0.38768970269319053 0.180669498122555 -0.3703645784268528 0.45174025529500533 -0.5818578442602497 0.8385261492165323 -0.007026763277378534 -0.58972324945531 0.15701303351847734 -0.6169292075716625 -0.5173770455881943 -0.20044199402467835 -0.8539062305316963 
0.38751344379522995 -0.5111880063778639 0.7997734947651418 -0.8497232497632302 -0.47909872246316365 0.20361885096566512 -0.8689380261778853 0.4730010594017891 -0.02787424520172767 -0.04570753351668712 0.7230323704841933 -0.3929687875399035 -0.8495022848932192 -0.37048564117358246 -0.9221069175439691 0.3436883274321924 -0.8384877770501351 -0.04254635382507325 -0.3373070702039483 0.4753600225566678 
-0.629165059324553 -0.08795706750043153 -0.988105948728526 -0.47505600971509365 -0.2534752919493288 -0.8960148590816481 -0.8703101757421534 0.2972082258602884 -0.3910602185369889 -0.3444319583993204 0.2521862584220116 -0.5291211728058954 -0.08026387562404222 -0.23654240152685527 0.06277491630148727 -0.06340543143482255 0.3058277801061825 -0.07879468826491641 -0.9502845342475646 0.13469550331049263 

-0.0807738810290648 0.43835766711612956 -0.2517202637659095 -0.7202368392907308 0.6140875797351965 -0.041882558195277926 -0.8805455187122766 0.11027977820163007 -0.016411558963184605 -0.14619859581368855 0.8241022785693171 -0.10382262599670714 -0.9218104157105824 0.729055230290251 0.07611910792955616 -0.0586770265066981 0.5743924068947396 -0.27983562008599744 0.9303032311574321 0.8779517263015886 

